3312 128
390 0.068328 -0.042122 0.046090 0.413918 -0.227909 0.272308 0.238795 -1.222377 0.379754 -0.616790 -0.018523 -0.094874 -0.134787 0.096415 0.094521 0.210389 -0.011099 -0.261154 0.165335 -0.108980 -0.208848 -0.018114 -0.312391 -0.144963 -0.111205 0.004984 -0.225980 -0.225172 -0.089037 0.402429 -0.337995 0.335307 0.450333 -0.027392 0.355551 -0.363696 -0.053864 0.029280 -0.695489 0.184674 -0.163780 0.119813 0.182892 0.545757 0.163107 -0.292338 0.330174 -0.017277 -0.400178 -0.093457 0.110570 -0.568016 0.156396 0.190053 -0.251388 -0.017420 0.503808 0.151305 -0.346051 0.115367 -0.077479 -0.027499 -0.065022 0.225455 -0.029158 0.400321 -0.101023 0.266731 -0.067211 -0.028128 0.328349 -0.059768 0.458419 -0.202552 0.171225 -0.061225 -0.145054 -0.109696 0.631659 0.060342 -0.004778 -0.609322 -0.490553 -0.123272 -0.446765 -0.504453 0.095081 0.289025 -0.095864 0.207351 0.290101 0.740595 -0.025597 -0.238294 0.318689 -0.021127 -0.182624 -0.491014 -0.044736 0.059291 0.259758 0.407266 0.249438 -0.094688 0.314917 0.477726 -0.152069 -0.214073 0.040943 0.182374 0.205516 0.057208 -0.308269 0.534636 0.364514 -0.060136 -0.083914 -0.034874 -0.417426 -0.484681 -0.015842 0.568665 -0.129403 0.100139 0.618281 -0.114529 0.421627 -0.095370
847 0.108346 0.034332 0.285032 0.066491 0.220323 -0.677160 0.197792 -0.581022 0.302884 -0.421720 0.864723 0.414440 0.470765 -0.086375 0.471800 -0.229128 -0.376629 -0.859797 -0.467716 -0.633981 -0.115758 0.025842 -0.552582 -0.073767 -0.468833 -0.480344 -0.551081 -0.216716 -0.656305 0.021276 -0.144281 -0.403374 -0.236838 -0.390794 0.029074 0.023404 -0.001356 -0.333854 0.145122 0.008060 0.065185 0.106504 0.229636 -0.233730 -0.354252 0.184294 0.313660 -0.191959 -0.398192 -0.363695 -0.342027 0.194532 0.632736 -0.461118 -0.190320 0.432281 0.039858 -0.163113 -0.183711 -0.026116 0.034098 -0.007670 0.598100 -0.435266 -0.243117 -0.269556 0.056142 -0.521158 0.256961 0.404716 0.104880 0.450205 -0.288852 -0.282401 0.400586 0.205238 0.139337 0.342165 0.300523 0.111876 0.359074 0.227252 -0.113536 0.070973 0.207394 -0.437573 -0.098065 0.039412 -0.175548 0.436109 -0.048108 0.188894 0.036573 -0.237577 0.219351 0.613307 0.323040 -0.256094 -0.189752 -0.360746 -0.064526 0.240646 0.050396 0.112499 -0.205337 0.115135 0.610411 -0.250684 0.037237 0.248281 0.014613 -0.042102 0.133303 -0.012520 0.327372 0.052954 -0.125712 0.356406 -0.160352 -0.471789 0.037259 0.371900 -0.056114 0.166345 0.130815 0.310214 0.308788 0.728282
1918 -0.312734 0.106459 0.427391 0.743621 -0.048525 -0.205927 0.051963 -0.215475 0.029854 -0.319191 0.094067 0.140327 0.100491 -0.290960 0.665881 -0.338321 0.215305 -0.285263 0.239078 -0.522717 0.192641 -0.027453 -0.424846 0.082747 -0.367170 0.064351 0.089801 -0.474428 0.431442 0.268766 0.285421 -0.028929 -0.429531 -0.039616 0.110636 -0.424301 0.052377 -0.060592 -0.696574 0.255031 -0.149830 -0.200203 0.320460 0.072953 0.022195 -0.002082 -0.013941 -0.042114 -0.617539 -0.425468 -0.084297 -0.227003 0.139516 0.251820 0.696989 -0.037346 0.367647 -1.049891 -0.629966 0.287384 -0.583757 0.301394 0.468832 -0.364204 0.071918 -0.122085 0.176969 -0.545652 -0.055005 0.167811 0.190588 0.564934 0.150586 0.262324 0.624334 0.083936 0.072386 -0.014690 0.177595 -0.181712 0.036360 -0.468138 0.427622 -0.523884 -0.132820 -0.399359 -0.401074 -0.076379 -0.002869 0.367490 0.598832 0.518589 0.643846 0.217165 -0.131405 0.052536 -0.215230 0.278589 -0.124194 -0.011925 -0.058300 0.714736 0.443622 0.210359 -0.283270 -0.243598 0.137480 0.199649 -0.255624 0.339535 0.403307 0.576492 -0.205927 -0.988683 -0.178447 0.268211 -0.209583 0.707446 0.053454 -0.091246 -0.391410 0.288269 -0.225392 -0.692320 -0.011354 -0.224833 0.258749 -0.060215
643 0.160231 0.157122 0.523130 -0.003293 0.033431 -0.384747 -0.097524 -0.350080 -0.427299 -0.408346 0.891620 -0.227174 0.056026 0.041478 0.847858 0.069556 -0.613282 -0.769038 -0.248228 -0.450073 -0.115829 0.012127 -0.493170 -0.507410 -0.022923 -0.490307 -0.509738 -0.018413 -0.013635 -0.293382 -0.403789 -0.327116 -0.033315 0.178667 0.478673 -0.145425 -0.086216 -0.229718 -0.377111 0.308267 -0.774835 0.201145 0.036105 -0.482136 0.016300 0.073132 0.630491 -0.141659 -0.176199 -0.296879 -0.239775 0.063326 0.551106 0.048635 0.324567 0.637445 -0.100197 0.026841 -0.709216 -0.268928 0.042056 0.117296 -0.026811 -0.246194 -0.268640 0.116493 -0.429882 -0.310637 0.451677 0.292790 0.439615 0.568617 0.261014 -0.456331 0.352325 -0.084454 0.169080 0.478365 0.502121 0.152990 -0.148045 0.354942 0.005791 0.190205 0.037181 -0.121554 0.080084 -0.309040 -0.224253 -0.129153 0.604668 -0.097115 0.259272 0.034355 -0.122833 0.266634 -0.277259 0.186289 -0.345182 0.442363 -0.254216 0.542571 -0.140408 0.593695 -0.058015 -0.426430 0.236227 -0.024942 0.115160 0.589045 0.187223 0.298307 -0.141318 -0.199662 -0.019698 0.432494 0.109358 0.454864 -0.523546 0.051472 0.334997 0.508533 0.030631 0.331744 -0.310181 0.050550 0.110594 0.464626
471 -0.235437 -0.096172 -0.093955 -0.095673 0.043292 -0.061756 0.122765 -0.383297 0.008732 -0.706239 0.306789 -0.213622 -0.847495 -0.647220 0.104182 -0.194404 -0.228400 0.096584 0.387947 -0.157469 0.042312 -0.198328 -0.046559 0.073620 -0.160064 0.088249 -0.220778 -0.039505 0.018504 0.559767 -0.569710 0.192709 0.052449 0.236508 0.312400 -0.264911 0.171260 0.224618 -0.548681 -0.121380 -0.355578 -0.174134 0.052286 0.359517 0.461284 -0.345092 0.307389 -0.200326 -0.356395 0.010301 -0.341523 -0.020239 -0.064380 0.126820 -0.016562 0.437588 0.118254 -0.069796 -0.127532 -0.239113 -0.194951 -0.055981 0.031991 -0.457067 0.276357 -0.126003 -0.051797 -0.330800 0.009030 0.094609 0.276809 0.106682 0.818447 -0.732217 -0.050123 0.250658 0.037797 0.156261 0.808381 0.367414 -0.044316 -0.514163 -0.078103 -0.217072 -0.381715 0.200551 -0.387068 0.145702 -0.419275 0.136099 0.529523 0.433146 0.338178 -0.090867 0.219697 -0.064320 -0.247624 -0.072636 0.177215 -0.446921 -0.003772 1.005041 0.312557 -0.328650 0.128993 0.497705 0.424305 -0.109252 0.324018 -0.228931 0.426048 0.145011 -0.446267 0.036177 0.304906 0.000671 -0.238791 0.528233 -0.403489 -0.124596 -0.640517 -0.154384 -0.437008 0.148467 -0.455232 0.116278 0.019612 0.490097
661 0.213660 0.101242 0.457850 0.199282 0.511103 -0.762678 -0.148810 -0.653685 -0.088543 -0.643158 0.687654 -0.191512 0.297829 -0.315300 0.585706 0.041041 -0.230805 -0.728867 -0.697206 -0.308098 0.375544 0.137527 -0.484978 0.053892 0.143264 -0.508459 -0.814886 -0.431700 0.017450 -0.000594 -0.225400 -0.268456 -0.310553 0.025460 0.725839 0.121964 0.248439 -0.020362 -0.473409 0.231028 -0.309943 -0.181549 -0.072222 -0.235607 -0.020910 0.173119 0.287284 0.026514 -0.115878 -0.878708 0.008307 0.330038 0.657858 0.023116 0.275988 0.379661 -0.470914 -0.122632 -0.555860 0.221448 0.271710 -0.268258 0.141669 -0.266269 0.141954 0.390795 -0.467280 -0.160231 0.077764 -0.040422 0.286765 0.339250 0.450641 -0.668131 0.494003 0.066100 -0.018847 0.307684 0.337908 0.311849 0.552944 0.257969 -0.333655 0.069888 -0.108175 -0.242143 0.015959 0.084733 -0.016110 0.188850 0.202475 0.019759 -0.075416 0.332366 -0.083944 0.345232 0.299903 -0.114945 -0.290505 0.570953 0.026070 0.301518 -0.198505 0.305197 0.520441 -0.573703 0.671192 0.265891 -0.226665 0.125319 0.446848 0.135061 -0.166475 0.160480 0.259513 0.568969 -0.286275 0.151086 0.064388 0.206126 0.479512 0.542049 -0.503085 0.428678 -0.257902 0.259142 0.247547 0.357528
439 0.264665 -0.070730 -0.094910 0.364548 -0.219604 0.212463 0.184097 -0.987196 0.326254 -0.464836 0.186997 -0.258369 -0.413938 -0.098536 0.007689 -0.044504 -0.183905 -0.189812 -0.451903 -0.266683 0.032018 0.314207 0.040811 0.540029 -0.231962 0.066943 0.017246 -0.310833 -0.672767 0.356002 -0.331173 0.284635 0.275412 -0.038074 0.015660 0.194046 -0.285219 -0.021671 -0.803698 0.097264 -0.176018 0.120807 0.529289 0.141946 0.170633 -0.170410 0.762302 -0.043429 -0.114587 -0.123398 -0.488879 -0.630144 -0.151376 0.242568 0.126912 0.315376 0.440602 -0.138008 -0.322878 0.143016 -0.152972 0.130502 -0.083473 0.414682 0.217745 0.189140 -0.243114 0.041120 -0.216783 -0.168751 0.404991 -0.205640 0.447464 -0.605173 0.390320 0.141155 -0.552925 0.027659 0.389727 0.024036 0.008076 -0.589214 -0.468235 -0.145916 -0.123382 -0.673525 0.463389 0.381015 -0.222604 0.378941 0.130344 0.540895 -0.052241 -0.055770 0.411485 -0.440471 -0.371465 -0.329401 0.457501 0.259497 0.049511 0.410330 0.241674 -0.221884 0.113942 -0.123782 -0.211471 -0.093703 -0.007079 0.066920 0.362280 0.003349 -0.771788 0.001352 0.204885 -0.170214 -0.458742 0.514490 -0.442518 -0.263082 -0.290927 0.693924 -0.344913 -0.272652 0.008012 -0.274627 -0.229774 0.185350
364 0.188117 0.059470 0.204387 0.601201 -0.422304 -0.035885 0.243445 -0.902811 0.092748 -0.777219 0.088785 -0.368064 -0.293791 -0.202076 0.576795 0.062642 -0.396549 0.180590 -0.170477 -0.452058 -0.281988 0.238652 0.020636 -0.042165 -0.006387 -0.167013 -0.234618 -0.304089 -0.524749 0.273694 -0.049462 0.299045 0.420054 0.320986 0.097000 0.316543 0.200838 0.005214 -0.822616 0.314878 -0.459420 -0.098753 -0.102526 0.553007 0.286492 -0.358380 0.544572 -0.014097 -0.235053 -0.012174 -0.510639 -0.423409 0.160235 0.232645 0.130516 -0.025534 0.756591 -0.447389 -0.204789 0.216800 -0.092893 0.238306 -0.165508 0.352062 -0.367801 0.300728 0.028053 0.210212 -0.044799 0.071576 0.183868 0.005343 0.697866 -0.489973 0.248377 0.142096 -0.012307 -0.082460 0.125015 0.343839 0.386248 -0.583945 -0.622898 -0.052345 -0.033001 -0.464572 0.468161 0.390550 -0.487408 0.232399 0.145445 0.660524 -0.256860 -0.057666 0.469600 0.039926 -0.426247 -0.407550 -0.259664 -0.248550 0.414104 0.394494 0.474584 -0.748832 -0.016580 0.552356 0.019452 -0.128523 0.008536 -0.064370 0.298474 0.109321 -0.489724 -0.200657 0.052538 -0.248872 -0.379460 -0.040891 -0.444243 -0.133964 -0.349541 0.478228 -0.179813 0.114636 0.381850 -0.158140 0.096723 0.208873
1406 -0.010209 0.473304 -0.440302 0.698680 -0.169166 -0.091856 -0.163524 -0.382361 0.148912 -0.356011 0.364946 0.175039 0.048937 0.027787 0.256828 -0.269648 0.131982 -0.912009 0.076568 -0.344398 -0.139907 -0.330975 -0.386516 -0.093603 0.188665 0.099440 -0.108146 -0.260644 -0.227773 0.079132 0.156830 0.033642 0.482818 -0.634028 0.080954 0.313857 0.287035 0.032905 -0.227695 0.382146 0.363021 0.355419 -0.105908 0.585196 0.185022 0.364858 0.423539 -0.118608 -0.189957 -0.679600 0.279862 -0.382671 0.585329 0.226265 -0.381589 0.713351 -0.112974 -0.375178 -0.099287 -0.082417 -0.226114 -0.838017 0.426823 -0.177087 0.563271 0.247512 -0.227587 -0.283975 -0.342116 -0.089419 0.770485 -0.064163 0.356782 -0.656246 0.052437 -0.230664 0.204362 0.699375 1.082254 0.137982 0.869750 -0.380184 0.460423 -0.099524 0.027032 -0.105459 0.137167 0.349274 -0.173845 0.591655 0.000687 0.045592 0.233127 -0.166984 -0.248004 -0.586130 0.051427 -0.062182 -0.298297 -0.093976 0.152743 0.297990 -0.452090 0.733057 -0.202387 0.002135 0.696757 -0.037409 0.179772 -0.130246 0.441739 0.160647 -0.144689 -0.340247 -0.414155 0.032298 -0.032848 0.428205 0.571548 -0.747225 -0.523353 0.163396 0.186116 -0.167959 -0.064604 0.357187 0.161521 0.462909
291 0.300821 -0.405985 0.252761 0.574954 -0.741123 -0.461933 0.545036 -0.988467 0.296513 -0.378712 0.256612 -0.281974 -0.251094 0.227067 0.321799 0.018195 0.180094 -0.198422 -0.181964 -0.334898 -0.489519 0.214079 0.163815 0.236963 -0.275567 -0.141110 0.265055 -0.165757 -0.526744 0.188502 -0.468586 0.221892 0.158675 -0.082505 0.159271 0.017048 -0.192976 0.371166 -1.034195 0.491692 -0.471262 0.362253 0.151290 0.576701 0.294989 -0.140927 0.343956 -0.089487 0.034718 0.123704 -0.069446 0.047575 0.173500 -0.299339 -0.032839 0.144679 0.638446 0.032580 -0.333163 -0.074159 0.050831 -0.478494 -0.009312 -0.008884 -0.291760 0.171850 -0.014294 0.092609 -0.394707 0.455347 0.354000 -0.262001 0.791304 -0.355657 0.247211 0.230486 -0.093755 0.114519 0.393067 0.087544 -0.002765 -0.549160 -0.314413 -0.118991 -0.605213 -0.187374 0.372429 0.210794 0.109534 -0.113151 0.623927 0.780941 0.333008 -0.009248 0.158131 -0.268340 -0.398354 -0.269053 -0.158732 0.024498 0.333130 0.446728 0.025576 0.170443 0.097857 0.293943 -0.042987 -0.186957 0.249889 -0.515664 0.411912 -0.123010 -0.294889 0.103437 0.348320 -0.180909 -0.188888 -0.283170 -0.178562 -0.097422 -0.084287 0.518428 -0.137194 -0.093984 -0.253849 -0.362329 0.120353 -0.083835
488 0.078496 0.129750 0.516197 0.187393 0.026370 0.042458 0.397992 -0.697329 -0.048904 -0.342286 0.327629 -0.123858 -0.164595 0.471273 0.617049 -0.172379 -0.378226 -0.276539 0.269604 -0.492380 -0.333934 -0.456607 -0.492131 -0.242176 0.174218 -0.713179 -0.536358 -0.183511 0.193203 -0.181257 -0.398949 -0.683346 0.011066 -0.295356 0.563494 0.186406 0.059814 -0.323057 -0.008399 0.408612 -0.293131 0.276466 0.077092 -0.160338 0.299884 0.231401 0.349180 -0.184928 -0.555514 -0.796725 -0.231589 -0.320291 1.020574 -0.150282 0.068519 0.897639 -0.088629 -0.099325 -0.694459 -0.374173 -0.078034 -0.092028 0.133089 -0.571916 0.034754 -0.258248 -0.342857 -0.152248 -0.299613 0.347257 0.497136 0.007515 0.048874 -0.763252 0.613159 0.015935 0.218277 0.485880 0.783959 -0.205364 0.177429 -0.272990 0.059942 -0.084162 -0.347272 -0.092730 0.302400 -0.200552 -0.229392 0.200130 0.099700 -0.206573 -0.044892 -0.554298 -0.231038 0.452380 0.032052 -0.322446 0.410512 0.062193 -0.125093 0.605499 0.298868 1.043465 -0.341439 -0.696416 0.197850 -0.199824 -0.079950 0.514896 0.391348 0.756843 0.082333 -0.266840 -0.449052 0.347658 -0.003360 0.630929 -0.060704 -0.298945 -0.123119 0.254708 0.093820 -0.008824 -0.061852 0.205978 -0.050662 0.330233
699 0.248040 -0.504338 0.259519 0.327740 -0.014203 0.273687 0.132078 -1.055810 0.265061 -0.024418 0.454090 -0.524095 0.168779 0.117420 -0.149275 0.101895 -0.028266 -0.328541 0.038380 -0.210323 -0.239682 0.146365 0.180797 0.301225 -0.677416 0.204506 0.134023 -0.059459 -0.011302 0.115434 -0.165440 0.460153 0.177345 -0.134181 0.568438 0.279872 0.085450 -0.361317 -0.736481 0.105437 -0.156452 0.244121 0.075052 0.499610 0.378488 -0.358889 0.695644 0.071232 -0.046951 -0.346444 -0.079937 0.071351 0.148258 -0.034849 0.120670 -0.075119 0.304945 -0.539891 -0.212569 0.084375 -0.017097 0.030934 0.142460 -0.170329 0.318553 0.086828 0.151385 0.087250 0.082056 0.238754 0.746274 0.085809 0.746681 -0.595888 0.462358 0.172841 0.114360 0.123896 0.690745 0.142844 0.140987 -0.402207 -0.468957 -0.357467 -0.487742 -0.501173 0.238803 0.404295 -0.156061 0.383107 0.029760 0.472104 0.130127 -0.316482 0.279625 -0.138665 -0.590414 -0.404244 0.059263 -0.091063 0.500338 0.769070 0.460249 -0.507173 0.355748 0.204233 0.303678 0.011447 0.120750 0.014499 0.173657 0.331732 -0.306675 0.794883 0.254703 0.105828 -0.335927 -0.230732 -0.369213 -0.442548 -0.372732 0.785459 0.186806 0.024838 0.042252 0.075581 -0.116016 -0.173392
905 -0.350960 0.096231 -0.008194 0.522451 -0.162114 -0.046412 0.301433 -0.764591 0.023606 0.350683 0.401949 -0.554653 -0.519700 -0.333502 0.311963 -0.387009 -0.048185 0.094212 0.355000 -0.162344 0.046896 -0.152401 0.264573 -0.298810 -0.360432 -0.283020 -0.163029 0.155098 0.262996 -0.073544 -0.415185 0.114626 0.361779 0.158239 -0.160589 -0.008659 -0.137055 0.146789 -0.511322 0.455215 -0.277310 -0.048543 0.428100 -0.033342 0.318473 -0.212819 0.536995 -0.175575 -0.511450 -0.158624 0.038794 0.229716 0.590301 0.422640 -0.156457 0.295041 0.203320 -0.044816 -0.106884 -0.529748 -0.329098 -0.335160 0.096977 -0.089296 0.245025 0.278058 -0.211258 -0.230611 0.131187 -0.091647 0.531353 -0.251116 0.827877 -0.534129 -0.169404 0.533139 0.055460 0.438943 0.133847 0.135178 -0.063769 -0.316574 -0.356428 -0.274614 -0.334831 -0.042149 0.266132 0.082691 0.087360 -0.280789 0.488988 0.751755 0.177909 -0.357105 0.200749 -0.344882 -0.445190 -0.454518 -0.140068 0.171219 -0.157559 0.649094 0.264315 -0.089020 -0.052483 0.739680 0.056236 -0.057885 0.352076 -0.012921 0.520560 0.018227 -0.513611 -0.144460 -0.196763 -0.187964 0.163454 0.675440 0.124749 -0.007848 -0.435252 0.367041 0.211880 -0.429594 0.042430 0.188932 0.435681 0.136217
2049 -0.299984 0.241071 -0.040274 0.496276 -0.081707 -0.150017 0.375499 -0.311190 0.298551 -0.420967 0.027306 -0.013009 0.144715 -0.714775 0.556963 -0.578799 -0.072986 -0.331770 -0.103423 -0.517103 0.399615 0.136839 -0.076184 -0.296011 -0.518871 -0.265216 0.228821 -0.501414 0.152010 0.181572 -0.142629 -0.018975 -0.271874 0.450949 -0.396435 -0.241456 -0.248990 -0.386756 -0.371938 0.076219 0.180509 -0.196290 0.139812 0.250803 -0.068423 0.020322 0.161591 0.005855 -0.698156 -0.850698 -0.149379 -0.113374 0.340307 0.251994 0.524742 -0.326171 0.358275 -0.512151 -0.156382 0.584631 -0.505981 0.205948 0.115208 -0.353340 0.024458 0.332189 0.278197 -0.249210 -0.333389 -0.465564 0.201332 0.258327 0.363638 0.219732 0.509207 0.068269 0.198568 0.373702 0.692081 -0.319253 -0.092569 -0.214859 0.309376 -0.696936 0.285534 -0.343523 -0.181723 0.129885 0.133549 0.571254 0.242992 0.417767 0.732161 -0.176540 -0.053116 0.078755 0.137018 0.144962 -0.392069 -0.166490 -0.369069 0.557621 -0.171174 0.047330 -0.220078 -0.334278 0.068581 0.486405 0.086638 0.075649 0.177842 0.824465 -0.303257 -0.846793 -0.257554 0.272211 0.042891 0.649539 0.209099 -0.191176 -0.289483 0.516296 -0.192849 -0.646340 -0.098046 -0.205842 -0.003534 -0.126629
1236 0.372747 0.616140 0.220963 0.042996 0.200248 0.209673 -0.723459 -1.020609 -0.075775 -0.491465 0.020614 -0.384610 -0.267747 -0.146695 0.534722 0.063665 0.011979 -0.521444 0.184769 -0.157269 -0.609264 0.190215 -0.059684 -0.607939 -0.036835 0.464946 0.064378 -0.147947 -0.221892 0.549132 0.167013 -0.322599 -0.408496 -0.292937 -0.375230 -0.256941 0.278042 -0.257436 -0.803621 0.219289 0.009173 0.342221 -0.182306 0.472829 0.270929 0.049804 -0.055456 -0.307990 -0.946503 -0.450110 0.129749 -0.052674 0.573874 0.277841 -0.164232 -0.163252 -0.137923 -0.020253 -0.514826 0.051527 0.449788 -0.333201 -0.081191 -0.001262 0.230905 0.024704 0.036555 0.124154 0.275398 -0.324237 -0.162219 0.684531 0.393080 -0.056587 0.633703 0.266654 0.112625 0.324653 0.213116 0.138261 -0.020404 -0.110206 -0.378362 -0.230235 -0.685380 -0.168830 0.012770 0.404669 0.130221 -0.067260 -0.393499 0.643003 0.715710 0.278507 0.187178 -0.494522 0.287725 -0.480876 0.050306 -0.010239 0.445437 0.227183 0.230402 0.262906 -0.144522 0.097654 -0.216816 -0.509411 -0.130794 0.342260 0.516247 0.280592 0.045479 -0.718185 0.230340 0.154775 0.012475 -0.116899 -0.334399 0.220709 -0.118127 0.492928 -0.226519 -0.185357 -0.274920 0.479314 0.033530 0.110732
697 0.094416 -0.519725 0.241362 0.417633 -0.129141 0.117607 0.160097 -1.160193 -0.036435 -0.320319 -0.136728 -0.445069 -0.123444 -0.399381 -0.053606 0.085732 -0.120560 0.028435 -0.133640 -0.453740 -0.112109 0.347043 -0.015117 0.260932 -0.485379 0.009678 0.355245 -0.109439 -0.073252 0.214973 -0.672500 0.113317 0.428902 -0.190857 0.510239 0.137407 0.022741 -0.041811 -0.321180 -0.180624 -0.186106 0.123536 -0.006478 0.195765 -0.151848 -0.143795 0.274820 -0.025694 -0.136160 -0.118615 -0.361537 0.094680 0.382705 0.141569 0.152714 0.547621 0.591097 -0.064425 -0.058509 -0.391507 -0.098171 -0.207529 0.202263 -0.169125 0.362398 0.143738 -0.310874 0.078311 0.825173 -0.213844 0.640166 0.257693 0.731639 -0.271024 -0.139280 0.274906 -0.269790 0.411334 0.231160 0.255257 0.172018 -0.205049 -0.449678 -0.149503 -0.330832 0.041691 -0.079258 0.175263 0.045997 0.074897 0.468435 0.729743 0.079772 -0.305879 0.511691 -0.373741 -0.095659 -0.343521 0.201531 0.105094 0.081472 0.702974 0.447259 -0.278474 0.011462 0.594733 -0.033637 0.213268 0.029016 0.028938 0.446367 0.089474 -0.085008 0.044683 0.371030 -0.271125 0.020760 0.094996 -0.672148 -0.264770 -0.430463 0.577915 -0.291207 -0.339582 0.029842 -0.002388 0.039486 -0.167107
732 -0.332912 -0.369496 -0.271328 0.273979 -0.236554 -0.152032 0.245594 -0.533777 0.001025 -0.033245 0.606668 0.213234 -0.497704 -0.469002 -0.023406 -0.518358 -0.159000 0.184311 0.284435 0.044048 -0.223097 -0.419468 -0.102789 -0.234810 -0.086058 0.018527 -0.189560 -0.083544 0.349991 0.326795 -0.330117 0.382208 0.205990 0.245157 0.510521 0.238550 0.005142 0.381574 -0.615377 0.415546 0.019588 0.077938 0.212687 0.110748 0.195060 -0.173430 0.092227 -0.171070 0.158601 0.035423 0.047518 0.261155 0.630587 -0.029157 0.240125 0.361262 0.246312 -0.396989 -0.305061 -0.379417 -0.674028 0.046991 0.053735 0.052385 0.071976 -0.030058 -0.209540 -0.369635 -0.005679 0.297947 0.387484 0.075804 0.451021 -0.585691 0.052636 -0.082192 0.607654 0.241010 0.788682 -0.016951 0.122491 -0.360255 -0.121170 0.048833 -0.401347 0.399024 0.162408 0.470530 -0.021746 -0.158224 0.296471 0.580062 0.742365 -0.485474 0.015978 -0.008468 -0.277351 -0.464984 0.061093 -0.009104 -0.190979 0.558438 0.324980 -0.309227 -0.255874 0.484713 0.240364 -0.062595 -0.045183 0.146953 0.794288 0.087655 -0.111801 -0.430780 -0.236001 0.133666 0.273349 0.479732 -0.094111 -0.394722 -0.338237 0.045908 0.029717 -0.314790 -0.282284 -0.035372 0.194083 0.338164
2955 -0.300353 0.193598 -0.021180 0.826192 0.053895 0.119420 -0.354670 -0.437055 -0.086011 -0.254050 0.250613 -0.099880 -0.630616 0.093871 0.732886 -0.643343 0.052595 -0.477238 0.187547 -1.201827 -0.137248 -0.096619 0.148231 -0.069290 -0.010949 -0.508521 0.363455 0.124742 0.271019 0.305505 -0.512554 0.628158 -0.611009 -0.215007 0.035983 0.315818 0.363612 -0.342512 -0.824106 0.385608 0.276628 0.295856 -0.123479 0.033796 0.322091 0.097542 0.958825 -0.252133 -1.058089 -0.888838 0.379549 -0.454994 0.415458 -0.372452 0.451768 0.629613 0.455092 -0.346381 -0.661216 -0.501095 -0.200461 -0.567392 0.264799 -0.440485 0.909574 -0.131814 0.230684 0.044385 -0.413998 0.130754 0.627915 -0.450338 0.031061 0.025641 0.428306 0.231999 0.578382 0.199746 1.062217 0.148454 0.158231 0.385556 -0.117581 0.431949 0.183552 -0.047547 -0.048513 -0.373559 0.486237 0.282596 -0.172663 1.100979 0.162655 0.001346 0.098798 0.088006 -0.123356 -0.522525 0.442246 -0.411021 0.503283 0.115138 -0.071028 0.632529 -0.467287 0.261592 -0.045969 -0.238925 0.178954 0.171390 0.599878 0.045796 -0.232386 -1.047827 -0.394564 -0.479289 -0.559044 -0.227011 -0.652721 -0.012830 -1.053249 0.757856 -0.253958 0.456485 -0.069590 -0.060684 0.536524 0.509492
659 0.151068 0.298863 0.555131 0.126811 0.517985 -0.467724 -0.206409 -0.026845 0.284292 0.095157 0.554858 0.466726 -0.075712 -0.066243 0.653748 -0.091433 -0.261746 -1.052213 -0.526702 -0.224966 0.172826 0.484729 -0.335041 0.110332 -0.244926 -0.255166 -0.149137 -0.190020 -0.115895 0.104814 0.019183 -0.179873 -0.609402 -0.164086 0.164337 -0.149810 0.542358 -0.030890 -0.189794 -0.115386 0.054707 0.225859 0.180671 -0.246651 -0.411077 -0.019516 0.263659 -0.353073 -0.259164 -0.478617 -0.107522 0.212431 0.955234 -0.121608 0.000528 0.430881 0.334442 -0.268745 -0.619448 0.458931 -0.470116 0.180107 0.351155 -0.269997 -0.455483 0.107060 -0.218038 -0.490829 0.112141 -0.284704 0.380270 0.349365 0.092638 -0.412378 0.349395 0.196538 0.302666 0.065765 0.074687 0.410256 0.546763 0.171822 -0.503137 -0.279819 0.114640 -0.352597 0.408401 0.171467 -0.045590 0.095449 0.074446 0.463186 -0.244708 -0.297392 0.496936 0.548709 0.374687 -0.482921 -0.310608 0.143677 -0.538164 -0.031327 -0.175694 0.012228 -0.209111 -0.054304 0.563896 -0.111924 -0.618622 -0.216110 0.133623 0.245833 -0.392855 -0.154041 0.140209 0.295717 -0.064067 -0.241521 -0.252979 -0.390682 0.219429 0.348148 -0.355798 -0.186226 -0.075069 -0.123074 -0.070355 0.895484
814 0.658918 -0.022471 0.484574 -0.121156 0.170843 -0.410683 0.007149 -0.419713 0.056368 -0.143818 0.948524 -0.135594 -0.055311 -0.108303 0.514595 -0.248883 -0.312719 -0.864563 -0.304185 -0.676221 0.188394 -0.138477 -0.335716 -0.077274 -0.175253 -0.759390 -0.624218 -0.101897 -0.066421 -0.178907 -0.600259 -0.444751 0.124243 0.016729 -0.019112 -0.227991 -0.145972 -0.735630 -0.312270 0.026145 -0.296436 0.245996 0.276688 -0.393115 -0.222100 0.148660 0.335610 -0.165238 -0.506624 -0.160446 -0.505139 -0.043678 0.404666 -0.097214 -0.063494 0.494558 -0.260680 0.133977 -0.656168 -0.141407 -0.158268 -0.322114 0.458108 -0.439455 -0.339834 0.150776 -0.136987 -0.088028 -0.054991 0.333417 0.012523 0.380144 0.015198 -0.528854 0.281299 0.082551 0.111367 0.644647 0.573635 0.066847 -0.098385 0.172216 -0.655923 0.235927 0.255771 -0.435015 -0.040560 0.023270 -0.150241 0.181812 0.248774 -0.174665 0.149059 -0.336919 0.050560 0.188940 0.052036 -0.233365 -0.117241 -0.089660 0.200790 0.229543 -0.064451 0.756891 -0.121424 -0.346093 0.371972 -0.064850 -0.230061 0.337937 0.023010 0.022258 -0.029019 0.123426 0.367105 0.128886 0.029972 0.418949 -0.141042 -0.209778 0.119170 0.430994 0.022612 0.197075 -0.404546 0.535085 0.330844 0.621082
1101 -0.286839 -0.102291 0.009333 -0.010710 0.515006 -0.024164 0.575979 -0.030591 -0.125457 -0.290221 0.772211 -0.341487 -0.226538 -0.249435 0.756187 -0.528136 -0.446579 -0.342607 -0.403775 -0.546835 -0.113044 0.089836 0.522988 -0.230138 -0.404294 -0.091571 0.353673 -0.030663 -0.273840 0.251667 0.173203 -0.153652 0.116930 0.442450 0.475120 0.586907 0.123977 -0.790303 -0.489830 0.553209 0.124789 -0.015202 -0.445367 0.138808 0.275720 -0.195352 0.495434 -0.347041 -0.647142 -0.198535 0.438852 0.032968 0.442488 0.025906 -0.093167 0.117744 0.542810 -0.014366 0.082700 0.456962 -0.838724 -0.059275 0.053303 -0.054685 0.193523 0.117909 -0.206558 -0.446243 -0.654762 -0.374129 0.846295 -0.031420 0.329576 -0.639540 0.557325 -0.009442 0.325007 0.078301 0.661893 -0.001380 0.572918 -0.878375 -0.421331 0.140708 -0.259488 -0.833673 -0.493582 0.524799 -0.037525 0.276487 0.138297 0.015345 0.625310 -0.245066 -0.152211 -0.323520 0.336126 -0.852103 -0.286452 0.143770 0.203849 0.325951 -0.263882 0.470563 0.018123 -0.451463 -0.210233 0.383050 -0.441929 0.128499 -0.194432 0.495965 -0.044316 -0.934998 0.246202 0.377308 0.286247 0.763613 -0.729871 -0.322049 -0.535876 0.578595 0.311431 0.449164 -0.257566 0.362193 0.310795 0.114765
822 0.119746 0.104596 0.430213 0.276408 0.334265 -0.547429 0.113055 -0.397598 -0.200174 -0.313907 0.998556 0.282218 -0.449715 -0.138764 0.909233 -0.126296 -0.094996 -0.574972 -0.514106 -0.662436 -0.360977 0.573975 0.256513 -0.137459 -0.707453 -0.504285 0.285245 -0.366110 -0.351109 0.260917 0.243853 0.248976 0.148196 -0.131698 0.361009 -0.301706 0.012189 -0.791672 -0.207031 0.254949 -0.022907 0.192125 0.182724 -0.420317 0.177836 0.089865 0.104716 -0.369659 -0.480648 -0.154704 -0.029435 -0.130039 0.574678 -0.419848 0.100413 0.119583 -0.267534 0.238435 -0.351427 -0.072289 -0.019496 -0.291632 0.833017 -0.108957 -0.275800 -0.066657 -0.336770 0.123956 -0.336916 -0.070393 0.258772 0.528792 -0.036862 -0.332513 0.439206 -0.268306 0.018110 -0.018541 0.214337 0.453885 0.826547 0.337911 -0.019903 -0.111919 -0.065634 -0.391386 -0.247322 0.183415 0.040759 0.127866 -0.451060 0.438207 0.205964 -0.196326 0.348531 0.532186 0.399266 -0.078302 0.245825 -0.154560 -0.328094 0.062885 -0.093067 -0.171475 -0.189345 0.172225 0.735354 -0.123103 -0.062108 0.014897 0.310103 0.259544 -0.145610 -0.301455 0.645390 -0.539089 0.425264 -0.303262 -0.336576 -0.504762 0.074323 0.742751 0.080456 -0.104893 0.064988 -0.009565 -0.275854 0.173758
868 0.530720 0.605189 0.093526 0.592147 -0.172228 -0.150173 -0.217693 -0.359667 0.022362 -0.014115 0.663363 0.070274 -0.366607 0.037116 0.927656 -0.439114 -0.168478 -0.595275 -0.083508 0.146451 0.098017 -0.294623 -0.166606 -0.078774 0.266991 -0.510201 0.601576 0.164214 0.092243 -0.034555 -0.015759 -0.558486 -0.210439 -0.622908 -0.261278 -0.005489 0.185098 0.268596 -0.701569 0.196743 -0.086607 0.551153 0.074171 0.443521 0.142407 0.122487 -0.090774 -0.535550 -0.641099 -0.327456 0.181518 0.132146 0.466475 -0.338992 0.107229 -0.124191 -0.025803 -0.066562 -0.828042 -0.231444 0.318413 0.167772 0.472963 -0.309761 0.259371 0.667126 -0.528027 -0.740171 -0.224711 0.128757 0.258434 -0.219639 0.219584 -0.044754 0.857142 0.382348 -0.440110 0.313221 0.262231 0.708353 0.203303 -0.714654 -0.077212 -0.143887 -0.229981 -0.174658 0.393393 -0.040845 0.002324 -0.306507 0.204878 0.307463 0.094623 0.577940 -0.309374 0.456442 0.605921 -0.587334 -0.398681 -0.406982 0.388613 0.285289 -0.366580 0.382760 -0.287516 0.454931 0.338822 0.181545 -0.074869 0.061413 0.233529 0.180527 -0.453493 -0.710324 -0.323377 -0.093412 -0.375005 -0.015930 -0.145362 -0.005328 -0.186528 0.780713 0.091782 -0.322336 -0.440539 0.118863 -0.252598 0.152239
631 0.148030 0.173468 0.479074 0.130036 0.368838 -0.338333 0.094647 -0.348248 0.348288 -0.085530 0.312835 0.687251 -0.323146 0.023436 0.515625 0.050595 -0.312728 -1.005431 -0.337845 -0.142797 0.040063 0.583372 -0.271808 0.023915 -0.195663 -0.454275 0.036277 -0.237783 -0.179620 -0.213727 0.136186 0.104950 -0.304599 -0.149392 0.148732 -0.342113 0.268141 0.003853 0.214376 0.045493 -0.056381 0.114044 0.018095 -0.220405 -0.355477 -0.119571 0.019197 -0.344036 -0.419845 -0.698429 -0.089488 0.353905 0.635333 -0.691848 -0.031758 0.532654 0.202447 -0.424809 -0.514903 0.142642 -0.618750 -0.434719 0.324322 -0.160927 -0.695106 -0.284183 -0.277551 -0.714062 0.212804 -0.213841 0.596651 0.282601 -0.215197 -0.496454 0.259363 -0.165330 0.278066 -0.252550 0.241706 0.496321 0.535405 0.120768 -0.401858 -0.199584 0.373494 -0.404493 0.436867 0.122705 0.027420 0.472845 -0.072177 0.493890 -0.054929 -0.572843 0.458159 0.462219 0.203650 -0.272790 -0.275177 -0.069701 -0.123761 0.175413 -0.361049 -0.046318 -0.118493 -0.135766 0.463090 -0.338631 -0.206432 0.013324 0.345444 0.301826 -0.261765 -0.236220 0.278838 0.076992 -0.195134 -0.093376 -0.557357 -0.409688 0.289214 0.503949 -0.506305 -0.359933 -0.109117 0.010711 -0.075092 0.438957
986 0.301571 0.245404 0.290337 0.287838 0.479899 -0.400854 -0.204483 -0.327907 0.353365 -0.114739 0.406455 0.536275 -0.026436 -0.052747 0.855842 -0.176770 -0.185024 -1.190516 -0.396788 -0.438018 0.082888 -0.006281 -0.259036 -0.151489 -0.051384 -0.118112 -0.139467 -0.390995 -0.411625 -0.306319 0.158939 0.058624 -0.174022 0.107627 0.324487 -0.273934 0.271063 -0.055255 -0.082980 -0.135065 0.157450 0.365915 -0.230355 -0.196024 -0.075694 -0.399120 0.008577 -0.417938 -0.287321 -0.470492 -0.333174 0.228352 0.411572 -0.124316 0.072889 0.169797 0.374556 -0.337018 -0.550436 0.194804 -0.470678 -0.055287 0.349757 0.065971 -0.634713 -0.068745 -0.472587 -0.477281 -0.199299 -0.145325 0.308810 0.178436 -0.226857 -0.589195 -0.090378 0.266566 0.372788 0.362776 0.242676 0.192604 0.480188 0.122027 -0.530804 -0.055244 0.247885 -0.496624 0.394148 -0.167103 -0.026534 0.324918 -0.029949 0.470535 -0.026735 -0.586961 0.505522 0.534491 0.581582 -0.810285 -0.168069 0.029224 -0.360910 0.203911 0.201406 0.196457 -0.253667 -0.284538 0.528424 -0.157271 -0.208759 0.024719 0.183495 0.435315 -0.198573 -0.122073 -0.022133 0.046122 -0.103341 0.247852 -0.561459 -0.607183 0.307329 0.189167 -0.605607 -0.068527 -0.077303 -0.142818 0.030038 0.858491
753 0.294528 0.328725 0.015169 0.483064 0.405652 -0.225951 -0.109711 -0.711093 0.552665 -0.271602 0.545451 0.167929 0.036136 -0.331548 0.669915 -0.389267 -0.434490 -0.667693 -0.387076 -0.287967 0.204797 0.352533 -0.138213 -0.422634 -0.456390 -0.080505 -0.087337 -0.625977 -0.139162 0.000777 0.077010 -0.360985 0.153176 0.641558 -0.357223 -0.263059 -0.207313 -0.652559 0.008152 0.017424 0.546183 0.292139 0.045563 0.140459 -0.276600 0.083055 -0.124937 0.038845 -0.486374 -1.026137 -0.221117 0.247488 0.720459 -0.014018 0.333825 -0.221890 -0.116096 -0.213454 -0.277974 0.048082 -0.253323 -0.070105 0.061708 -0.102555 -0.089084 -0.118820 0.350425 0.051483 -0.137712 -0.319496 0.151683 0.213156 0.306722 -0.277460 0.441689 -0.170565 0.549465 0.490118 0.472894 -0.249593 0.011526 -0.100657 0.200061 -0.613625 0.591619 -0.515542 0.112818 -0.294920 -0.402255 0.427358 0.258072 0.529670 -0.029842 -0.322302 -0.037961 0.357807 0.700575 -0.234447 -0.104447 -0.255390 -0.602774 0.077199 0.040847 0.133098 -0.330615 -0.287027 0.185963 0.475785 -0.074773 -0.418683 0.021120 0.845873 -0.424778 -0.454969 -0.185530 -0.123482 -0.216253 0.180265 -0.664309 -0.473821 0.064495 0.102678 -0.319164 -0.325150 0.037220 0.068396 -0.277184 0.533780
263 0.410943 0.066122 0.207829 -0.026292 -0.100419 -0.376078 -0.422039 -0.798357 -0.488618 -0.009016 0.698833 -0.460850 -0.666893 -0.282044 0.604536 0.136751 -0.431241 -0.235522 0.270966 0.101564 -0.157140 0.171633 0.088018 -0.033305 0.157440 -0.484332 -0.344340 -0.244777 0.257397 0.040669 -0.717751 -0.268557 -0.155018 0.162439 -0.031826 -0.081583 -0.034228 0.221750 -0.478958 0.251469 -0.552145 0.327116 0.152603 -0.080869 0.100745 -0.029657 0.438180 -0.181853 -0.245801 -0.030629 -0.315951 0.086312 0.269863 0.403208 -0.179733 0.181169 0.132958 -0.155131 -0.249197 -0.132335 -0.234276 -0.138850 -0.199459 -0.177786 0.209038 0.413067 -0.641978 -0.512044 0.377035 0.524734 0.359105 0.615563 0.961346 -0.672981 0.086927 -0.034653 0.221620 0.183075 0.518516 0.158967 -0.239549 -0.103027 -0.812008 -0.178498 -0.293783 0.059270 0.349668 -0.364895 -0.116022 -0.188552 0.600823 0.289658 0.512368 0.111701 0.371604 -0.057353 -0.190443 -0.013738 0.055386 0.237761 0.164405 0.812581 -0.071541 -0.103869 0.345823 0.381553 0.545484 -0.162529 0.367908 0.299329 0.058872 -0.019844 -0.292973 0.304607 0.187255 -0.067415 0.177008 0.622312 -0.251439 0.348355 -0.132487 0.592102 -0.166376 -0.147420 -0.291438 -0.044338 0.517656 0.251034
1731 -0.063522 0.479054 -0.218929 0.728054 -0.046290 -0.082925 -0.432882 -0.547177 0.079773 -0.277081 0.140043 0.186167 0.039517 -0.142427 0.395291 -0.507824 0.092589 -0.973900 -0.221030 -0.269971 -0.152979 -0.052293 -0.338777 -0.078400 0.164708 0.171066 -0.180283 -0.354813 -0.271008 0.099371 -0.000248 0.256346 0.565241 -0.571811 -0.158375 0.302514 0.254526 -0.049638 -0.134493 0.155998 0.350044 0.450351 -0.076920 0.704520 0.128151 0.238756 0.531327 -0.274767 -0.314264 -0.744237 0.295091 -0.565684 0.771960 0.330782 -0.245394 0.723514 -0.120064 -0.386202 0.142594 -0.044579 -0.028660 -0.562517 0.449742 0.159140 0.504517 0.419236 -0.134346 -0.312010 -0.305807 -0.246991 0.540273 0.025510 0.411351 -0.565423 0.075076 -0.015326 0.082795 0.517280 1.150173 0.367311 0.865568 -0.553887 0.237438 -0.234249 0.035315 -0.316220 0.246987 0.189302 -0.420235 0.628043 -0.106010 0.277779 0.198364 -0.162296 -0.214256 -0.652817 0.132998 0.083067 -0.291104 -0.011714 0.178044 0.136344 -0.536701 0.505716 -0.017147 -0.021575 0.647639 0.367005 0.101549 -0.311430 0.409950 0.026250 -0.037244 -0.247954 -0.462514 -0.020206 0.029380 0.299242 0.629403 -0.796452 -0.458324 0.356338 -0.019783 -0.139467 -0.365232 0.441988 0.337441 0.401449
673 -0.169141 -0.015149 -0.235284 0.360130 -0.139820 0.381115 0.397624 -0.987367 0.417355 -0.218448 0.099080 -0.548141 -0.066169 -0.204322 0.607113 -0.183608 0.060884 0.055253 0.023640 -0.222669 -0.221283 0.022790 0.243344 -0.163964 -0.273535 -0.380737 -0.204128 -0.044635 -0.087019 0.151586 -0.404285 0.283818 0.400962 -0.183768 -0.123789 -0.286019 0.192752 0.293209 -0.624372 0.472281 -0.711357 -0.050138 0.224279 0.266387 0.484168 -0.331409 0.488872 -0.190827 -0.312080 0.130647 -0.257415 -0.157735 0.566722 0.218285 0.082086 -0.064395 0.484862 -0.002890 -0.028091 -0.329630 -0.325775 -0.013442 0.044151 -0.445842 -0.061197 0.377420 -0.416773 -0.311938 0.140802 -0.005336 0.324577 -0.061856 0.670011 -0.422029 0.144498 0.218252 -0.131696 0.376277 0.121013 0.121318 0.209117 -0.619658 -0.036102 0.237591 -0.701007 -0.557088 0.315068 0.113936 -0.228813 0.264581 0.458135 0.793252 0.083393 -0.029553 0.252948 -0.546304 -0.258195 0.185491 -0.011539 0.049517 0.256361 0.401273 0.268279 -0.166818 0.115539 0.528321 0.187082 -0.429761 -0.045770 -0.155983 0.500601 0.314112 -0.604597 0.082748 0.064592 -0.263386 0.057154 0.257094 -0.057078 -0.087079 0.130501 0.223565 0.060217 -0.177270 0.342411 -0.061276 0.511689 0.208918
616 0.570834 -0.103811 0.569011 0.736346 -0.271334 0.145313 0.541200 -1.246877 0.252239 -0.248467 -0.036054 -0.140794 0.126228 -0.422675 -0.148352 -0.268508 -0.013554 0.133370 -0.152294 -0.053746 -0.487306 0.218910 -0.447921 0.156943 -0.347211 -0.170455 0.258678 -0.074191 -0.020674 0.473494 -0.220980 0.347214 -0.189922 -0.081733 0.047185 0.159853 0.190478 -0.021554 -0.774750 0.069880 0.121224 0.301276 0.067337 0.163028 0.096496 -0.347206 0.337372 -0.344424 0.011931 -0.064084 -0.427824 -0.054304 0.343183 0.304693 -0.031139 -0.008732 0.166461 -0.291914 -0.281331 -0.053069 0.155639 -0.012926 -0.099232 0.065874 0.206154 0.419469 -0.184717 -0.092577 0.454944 0.179982 0.791771 0.113864 0.595440 -0.697180 0.198904 0.161797 -0.453446 -0.067761 0.360140 0.322286 0.372916 -0.536470 -0.477149 -0.147443 -0.460501 -0.380191 0.199166 0.076205 -0.262688 0.098328 0.094005 0.537850 0.301737 0.229074 -0.111602 -0.400082 -0.300644 -0.348458 -0.217873 -0.046621 0.089420 0.805251 0.228726 -0.302723 -0.009772 0.216997 -0.090377 0.128847 0.124865 -0.313672 0.389398 0.151167 0.031737 0.129935 -0.026814 -0.017531 0.129067 -0.044405 -0.296927 -0.211011 -0.394416 0.380628 0.277231 -0.083465 -0.111157 0.078125 0.338595 -0.109817
780 -0.724386 -0.133771 -0.323837 0.061375 -0.245293 0.174066 0.153333 -0.244122 0.103876 -0.221181 0.394979 -0.083578 -0.587587 -0.566895 0.251403 -0.096910 -0.147279 0.166556 0.118444 -0.139240 -0.157902 -0.269148 -0.348618 -0.113399 -0.135997 -0.039852 0.244683 -0.442263 0.207424 0.466269 -0.509472 0.213368 0.024539 -0.163901 0.407923 -0.216061 0.046202 -0.053087 -0.510458 0.256842 -0.199873 -0.080244 0.216672 0.499518 0.236396 -0.039717 0.341094 -0.214657 -0.335422 0.117110 -0.659051 -0.102938 0.116246 0.341997 0.394640 0.163125 0.707605 -0.344048 -0.426538 -0.112306 -0.311504 -0.002993 0.238094 -0.168170 0.020238 -0.039525 0.012610 -0.837651 -0.186100 0.023250 0.525951 -0.021923 0.439894 -0.349553 0.083709 -0.120956 0.382912 0.529739 0.606804 0.164299 -0.003465 -0.250518 0.139299 -0.212559 -0.253576 -0.017992 0.138474 -0.087400 0.013954 0.161814 0.666714 0.485122 0.480361 0.060880 0.155900 -0.243263 -0.344760 -0.258898 -0.226430 0.143441 0.489559 0.738412 0.399848 -0.517116 0.082511 0.394305 0.499594 -0.231442 -0.229887 -0.153930 0.246853 0.362329 -0.531097 -0.189577 -0.078834 0.218143 0.218020 0.561008 -0.198779 -0.122504 -0.595272 0.065156 -0.273571 -0.394818 -0.176763 0.036158 0.265318 -0.024390
354 -0.062454 0.083282 0.589859 -0.048468 -0.072654 -0.511318 -0.025443 -0.164754 -0.424174 -0.155434 0.034918 0.413776 -0.178343 0.242593 1.095483 -0.049597 0.043219 -0.335349 0.092801 -0.538333 -0.396473 0.200471 0.051944 -0.920251 -0.217495 -0.255077 -0.264286 0.080865 0.459200 0.612464 0.180906 -0.131524 0.067914 -0.384701 0.289635 -0.087385 -0.251391 -0.636733 -0.127534 0.315433 0.355962 -0.478536 -0.131948 0.234265 -0.045132 -0.009508 -0.059998 -0.390642 -0.767442 -0.406212 0.242206 -0.080026 0.579794 -0.217582 -0.348263 0.556525 -0.129595 0.048015 -0.000627 -0.079992 -0.270072 0.028103 0.487219 -0.303899 0.040379 0.169358 -0.565816 -0.266815 0.042027 -0.069856 -0.167360 0.466544 0.308334 -0.155010 0.054064 0.190254 0.159889 0.201598 0.415323 0.332724 0.441090 -0.221955 -0.311381 -0.633372 0.149321 -0.352406 -0.178781 0.275245 -0.094078 0.028105 -0.056540 1.033358 0.014770 0.210652 0.342608 0.067613 0.163024 -0.408424 0.247592 0.349949 -0.013817 -0.033818 -0.037398 0.207341 -0.131159 -0.575090 -0.086049 -0.204937 -0.787172 0.280867 0.358076 0.603605 -0.600039 -0.441273 0.302572 -0.397999 0.198566 0.279321 -0.319311 -0.079729 -0.088199 1.089515 -0.477194 -0.344433 -0.345030 -0.117618 -0.195472 0.408766
691 0.142935 -0.258341 0.325085 0.047679 0.132350 -0.168747 0.085014 -0.553428 0.762799 0.031223 0.604157 0.162072 -0.155214 0.367635 0.962871 -0.233605 -0.028939 -0.732725 -0.324547 -0.563850 0.099643 -0.013685 -0.145008 -0.151391 -0.063392 -0.535247 -0.189123 -0.106521 0.024277 -0.149191 0.256330 -0.232946 -0.058278 -0.317040 0.313540 -0.404720 0.405253 -0.677465 0.159862 -0.033623 -0.049570 0.153710 0.057803 -0.009388 -0.046762 0.029655 -0.066410 -0.080894 -0.510164 -0.211377 -0.390375 -0.099238 0.720844 -0.261662 -0.001998 0.319942 -0.102064 -0.022479 -0.584302 0.012372 -0.214345 -0.303444 0.300925 -0.123738 -0.624301 -0.049957 -0.478163 -0.221207 -0.383142 0.201308 0.112649 0.122746 -0.243826 -0.429440 0.224532 -0.045112 -0.285235 0.483018 0.342697 0.216934 0.269901 -0.453537 -0.216918 -0.181575 -0.074281 -0.061227 0.513008 -0.431766 0.402673 -0.012514 0.350746 0.130802 -0.002769 -0.212405 0.428346 0.309151 0.581861 -0.598798 0.080594 0.185957 0.211847 -0.008641 0.340288 0.588552 -0.395969 -0.157040 0.499680 0.164568 -0.279272 -0.085150 0.024843 0.489569 -0.230002 0.123578 -0.017016 0.151063 -0.216110 0.330123 -0.303480 -0.401160 0.448003 0.379029 -0.273036 0.003065 -0.575949 -0.070519 -0.060595 1.030837
31 -0.470066 0.105982 -0.126890 0.370879 -0.392150 -0.168077 -0.326399 -0.701828 -0.307630 -0.420718 0.708368 0.020999 -0.459485 -0.227817 0.136005 -0.184868 -0.221596 0.231185 0.528647 -0.344768 -0.102450 -0.342847 -0.233833 0.155297 0.035707 0.059438 -0.343072 -0.128709 0.217661 0.526750 -0.225051 0.331738 0.053206 0.308251 0.208984 0.239180 -0.022286 -0.141450 -0.348038 -0.016956 0.239874 0.064478 0.593729 0.477810 0.422940 -0.235923 0.331218 -0.216152 -0.300054 0.088521 -0.458263 0.151932 0.076809 0.039427 -0.143165 0.224329 0.330422 -0.080911 -0.271134 -0.016246 -0.386771 0.036437 0.077056 -0.312754 0.299100 -0.141067 -0.271490 -0.476163 0.205318 0.048550 0.297999 0.286561 0.563136 -0.421599 0.263882 -0.202837 0.565871 -0.035957 0.535891 -0.020060 -0.036726 -0.451131 -0.109694 -0.301329 -0.438884 0.184969 -0.237438 0.120617 -0.267695 -0.129201 0.293345 0.355919 0.519560 -0.060851 0.091534 -0.490766 -0.462031 -0.203852 -0.126439 -0.354225 -0.112682 0.438290 0.339949 -0.134816 -0.158757 0.246595 -0.033012 -0.051329 -0.382052 -0.370113 0.654244 -0.203435 -0.691691 -0.456563 0.092412 0.238851 0.194211 0.520078 -0.690742 -0.232884 -0.675226 -0.288889 -0.118885 -0.378271 -0.140139 0.103966 0.030781 0.705815
0 0.049926 -0.143233 0.152034 -0.081321 -0.102102 -0.156904 0.210040 -0.083472 0.426850 -0.025741 0.871855 -0.211226 -0.505590 0.209670 1.071419 0.008743 -0.164249 -0.454093 0.042489 -0.215866 -0.102194 -0.464418 -0.033163 -0.622917 0.018798 -0.430676 -0.084494 0.045344 0.002569 -0.438864 0.000539 -0.468480 -0.237929 -0.535941 0.095932 -0.260312 -0.011115 -0.340665 -0.268128 0.118145 -0.387883 0.471066 0.126895 0.313987 0.227614 0.270300 -0.033564 -0.435006 -0.477547 0.031297 -0.424839 0.141462 0.571172 -0.274030 0.114783 0.254460 -0.086956 0.337140 -0.467376 -0.276668 0.150659 -0.182589 0.462437 -0.212445 -0.440917 0.107811 -0.514452 -0.472268 -0.403968 0.504020 0.423282 0.116160 0.255997 -0.355518 0.624072 0.340459 -0.417946 0.632223 0.316533 0.255887 -0.027034 -0.601558 -0.051924 0.065648 -0.160211 -0.133535 0.426668 -0.398548 0.141940 0.151341 0.420002 0.329575 -0.110446 0.059491 0.086020 0.472684 0.376713 -0.424869 0.131895 -0.148546 0.351391 -0.072448 0.513606 0.392218 -0.244335 0.347697 0.453774 0.143483 -0.180435 -0.131439 -0.013806 0.420784 -0.506152 -0.228694 0.081312 0.089289 -0.047749 -0.128105 -0.304284 -0.119041 -0.006540 0.270025 -0.522648 0.125511 -0.480098 0.014955 -0.318282 0.736214
698 0.100467 0.063212 0.548630 0.795140 -0.204252 0.361314 0.259691 -1.164729 0.462537 -0.238601 0.150795 -0.378569 -0.078122 -0.331676 0.054904 0.286715 -0.148648 -0.216498 -0.003562 -0.787343 -0.255929 0.046574 -0.191991 0.087825 -0.377151 0.263706 0.164485 0.021370 0.187090 0.198170 -0.427280 -0.038940 0.063489 0.108323 0.332117 0.109712 -0.104946 -0.360124 -0.814182 0.216641 -0.017338 -0.163638 0.032486 0.303211 0.338672 -0.313452 0.220829 -0.243453 -0.223976 0.055487 -0.154410 -0.233012 0.319378 0.491594 0.084887 0.134206 0.366596 -0.164265 -0.257224 -0.034005 0.298509 0.117662 0.312360 0.149775 0.197808 0.214986 -0.320992 0.103390 0.134412 0.322801 0.921887 0.131280 0.474450 -0.661021 0.230289 0.069097 -0.399693 0.177135 -0.022873 0.103203 -0.057718 -0.304749 -0.475458 -0.037091 -0.350211 -0.119787 0.137995 0.282083 -0.432463 0.202028 0.128010 0.400819 -0.114762 -0.155561 0.282028 -0.199683 -0.215803 -0.441050 0.024274 0.159832 -0.109684 0.892187 0.758005 -0.176742 -0.073870 0.395640 -0.078869 0.088454 0.076796 -0.251561 0.383385 0.301116 0.070970 0.184766 0.317170 0.016945 -0.239381 -0.013355 -0.559248 -0.593371 -0.651842 0.574643 0.101041 -0.375221 -0.004171 0.091555 0.043465 0.013407
634 0.399757 -0.500469 -0.058794 0.565585 -0.539466 -0.196845 0.090776 -0.853300 0.213593 0.292485 0.666710 0.111283 -0.305419 -0.020697 0.167920 -0.625183 -0.237788 -0.991613 0.633888 -0.452010 -0.126789 -0.300262 -0.573755 0.358621 -0.494080 -0.433377 0.425348 0.410084 0.569365 0.606436 -0.339927 -0.164918 0.671517 0.123359 0.742480 -0.006093 0.151590 0.353776 -0.032669 0.444609 0.394646 0.062957 0.725145 -0.419148 0.497963 -0.233102 0.165137 -0.429045 -0.780870 0.208181 0.251486 0.061770 0.513134 0.141782 0.445278 0.072236 0.576693 0.023846 -0.624672 0.279763 -0.239895 -0.315499 -0.251438 -0.359767 0.393241 -0.043709 -0.617144 -0.572579 -0.508368 0.495740 0.195591 -0.013621 0.236006 -0.841979 0.290124 0.068797 0.197498 0.753533 0.741084 0.089592 0.028018 0.074604 -0.119056 -0.699364 -0.165247 -0.041868 -0.270134 0.435332 -0.231123 -0.168712 0.278024 0.432102 0.786145 -0.142902 -0.155615 0.555429 -0.346899 -0.450338 0.368304 -0.488743 -0.157039 0.793741 -0.035153 0.248215 0.205162 0.339263 0.046007 -0.229754 0.440590 -0.201718 0.565669 0.110500 -0.092958 -0.929134 -0.131046 0.051107 0.481229 0.400582 -0.186257 -0.434593 -0.458455 -0.009578 -0.053901 -0.366062 0.184655 -0.302954 0.211697 0.632147
2050 -0.121251 0.143044 0.019222 0.692220 0.288303 0.018708 -0.030043 -0.749761 0.293958 -0.450962 -0.103713 0.027782 0.178113 -0.433561 0.665911 -0.206593 -0.168489 -0.276468 -0.141201 -0.441562 0.570421 0.237763 -0.003226 -0.085666 -0.534727 -0.018020 0.064191 -0.402067 0.003991 0.214292 -0.385945 -0.433021 0.111288 0.413995 -0.219353 -0.382085 -0.345780 -0.190070 -0.292360 0.010560 0.190874 -0.168177 -0.004350 0.084026 0.225154 -0.090254 -0.065699 -0.100228 -0.708544 -0.849487 -0.073175 0.199771 0.646644 0.065149 0.280615 -0.287940 0.235682 -0.551312 -0.068430 0.719453 -0.334593 0.012875 0.205184 -0.492255 0.212697 0.451749 0.207456 -0.131799 -0.358385 -0.258003 0.057471 0.034997 0.099816 -0.043307 0.150257 -0.021839 0.154416 0.471597 0.526094 -0.429367 -0.030027 -0.411816 0.269284 -0.670832 0.206217 -0.143737 -0.317074 0.054198 0.169043 0.660481 0.293889 0.276984 0.697443 -0.226674 -0.066326 0.253121 0.371438 0.110981 -0.456539 -0.220709 -0.224744 0.270501 -0.209486 -0.130215 -0.407512 -0.480393 0.121780 0.726320 0.147839 -0.182256 0.375382 0.871909 -0.098423 -0.672350 -0.035472 0.156569 -0.037336 0.265078 0.102822 0.079905 -0.159502 0.555540 -0.537622 -0.490261 0.124528 -0.148111 -0.368160 0.061138
516 0.187295 0.095645 0.078444 0.641797 -0.305234 0.369277 0.030615 -0.593893 0.772628 -0.518885 0.184099 -0.557167 -0.179738 -0.243193 0.255200 0.072465 -0.283057 0.048846 -0.305840 -0.215824 -0.208956 0.095817 0.220966 0.218859 -0.291740 -0.006150 -0.103776 0.001794 -0.194678 0.246317 -0.573247 0.221293 0.147278 -0.307431 0.312586 -0.268897 0.172629 0.128616 -0.478829 0.309243 -0.455972 0.208110 -0.115785 0.501414 0.030445 -0.090285 0.217412 -0.339339 -0.140134 -0.008526 -0.238256 -0.088531 0.091164 0.250657 0.448858 -0.137022 0.242213 -0.447718 -0.171461 -0.268696 -0.277406 0.033501 -0.260361 0.148944 0.133420 0.223946 -0.328828 -0.264427 -0.177836 0.222643 0.381468 -0.194221 0.624414 -0.451577 0.215142 -0.101667 -0.013553 -0.078994 0.381581 0.052549 0.237812 -0.572913 -0.465589 -0.218249 -0.755710 -0.506683 0.590732 0.208968 -0.261201 0.484223 0.056181 0.220831 0.213802 -0.373959 0.661384 0.057197 -0.344149 -0.507840 0.559903 -0.323691 0.382193 0.310677 0.245159 -0.144043 0.289474 0.255337 0.006569 -0.195336 0.071595 -0.337143 0.220458 0.134772 -0.442660 -0.049750 0.153418 -0.082727 -0.405791 0.020776 -0.851598 -0.345854 -0.223203 0.859433 0.224489 0.052029 0.197263 -0.066202 0.030012 0.194606
1460 0.163687 0.006170 0.399827 0.646921 -0.341648 0.023917 0.198734 -0.953842 0.112197 -0.261146 0.273605 -0.039026 -0.364401 -0.373487 0.182199 -0.270838 0.164350 -0.815221 -0.065303 0.063897 -0.381028 0.250376 -0.470561 -0.018306 -0.609964 -0.274619 0.386388 -0.514656 0.170826 0.220369 -0.191200 0.272387 -0.341172 -0.419861 0.369592 0.110802 0.860693 -0.419648 -0.514117 -0.045428 0.020014 0.554338 -0.086867 0.189077 -0.231463 -0.692527 0.157990 -0.043174 -0.305341 -0.111767 -0.604680 0.054779 0.033189 0.600453 0.483688 0.217520 0.435410 -0.922803 -0.760696 -0.325387 -0.100918 0.057115 0.352210 -0.243583 0.386219 0.195513 0.452948 -0.067425 0.322659 0.190970 0.983924 -0.594098 0.468217 -0.669989 -0.341432 0.383859 0.140123 0.143626 0.214312 0.348731 0.050276 -0.336680 0.129689 0.245775 -0.562100 0.156492 -0.026815 -0.128558 0.412058 0.531076 -0.047116 0.396751 0.417074 0.034387 -0.117403 -0.113628 -0.339881 -0.374699 0.093816 0.156223 0.055025 0.683063 0.273275 -0.438150 0.017579 0.086237 -0.040148 0.438922 -0.054290 0.333635 0.320065 0.083887 0.313828 0.059166 -0.101579 0.195834 -0.066649 -0.022169 -0.381926 -0.439194 -0.161919 0.343780 -0.637121 -0.255870 -0.142047 0.302514 -0.060388 -0.146331
1004 0.144751 -0.126428 0.349622 0.305595 -0.655975 0.117199 0.159946 -0.681158 0.345796 -0.733734 0.562699 -0.561832 -0.423270 -0.292027 0.386945 0.258375 -0.307935 0.015827 0.151020 -0.000185 -0.127243 0.088315 -0.029516 0.296053 -0.232805 -0.150449 -0.512574 -0.026379 0.121734 0.378089 -0.626266 -0.008466 0.234533 -0.001978 -0.133430 0.107978 0.165604 0.330167 -0.637931 0.003547 -0.174922 0.129346 -0.003672 0.047364 0.403398 -0.147963 0.860064 -0.327520 0.012424 -0.141924 -0.338947 -0.047144 -0.334632 0.276907 0.310264 -0.315854 0.054660 -0.402521 -0.311634 -0.005407 0.105807 -0.156720 0.418595 -0.157864 0.095319 0.305576 -0.278371 -0.044728 0.235437 0.416407 0.446377 0.328495 0.783167 -0.663781 -0.045750 0.225301 0.085684 -0.392329 0.348509 -0.017736 0.121654 -0.388674 -0.699897 -0.247187 -0.785116 -0.323725 0.189166 0.394846 -0.188992 0.681170 0.108447 0.091368 0.650179 -0.156127 0.733547 -0.196791 -0.138215 -0.167951 0.185563 0.171125 -0.278407 0.288194 0.292922 -0.071615 0.437268 -0.061045 -0.330925 -0.253335 0.134153 -0.392877 0.243366 0.128415 -0.515084 -0.059447 0.085343 -0.415900 -0.117205 0.115931 -0.407970 -0.251823 -0.197817 0.641737 -0.017891 0.115805 0.290669 -0.229053 0.377383 0.343071
979 0.362513 0.083994 0.715150 0.202824 0.707658 -0.774399 0.203216 -0.374826 0.160530 0.175893 0.656114 0.533462 -0.128242 -0.222320 0.996842 -0.031531 -0.212016 -1.015504 -0.375224 -0.319755 -0.098459 0.229905 -0.118160 0.007629 -0.154196 -0.378899 0.137362 -0.425837 -0.382484 -0.198546 0.169893 0.145839 -0.246998 -0.236034 0.402437 -0.348658 0.309320 -0.302991 -0.110737 0.125535 -0.003973 0.204583 -0.037219 -0.282325 0.115700 0.165787 0.165307 -0.190140 -0.535827 -0.283783 -0.300321 0.298942 0.455060 -0.522327 0.051713 0.500384 0.331744 -0.241840 -0.358083 0.012143 -0.406498 -0.006616 0.243227 -0.163621 -0.611885 0.017148 -0.029263 -0.324027 0.050433 -0.282297 0.334319 0.218133 -0.063624 -0.752997 0.383969 0.069746 0.113679 0.227552 0.194065 0.584326 0.599453 0.403065 -0.252803 -0.215541 0.032098 -0.544273 0.284477 0.205741 -0.009959 0.229971 -0.029128 0.242911 -0.139466 -0.441884 0.413794 0.360265 0.635371 -0.225080 -0.175018 0.122161 -0.159289 0.210614 -0.202512 0.123615 -0.404043 -0.266777 0.769554 -0.162219 -0.315140 -0.039425 0.237886 0.448617 -0.144952 -0.178847 0.144225 0.238592 0.338411 -0.041467 -0.253039 -0.541077 0.190420 0.107312 -0.187632 -0.389944 -0.172790 0.040852 -0.031509 0.576664
876 -0.320856 0.251219 0.173620 0.317077 -0.296796 0.041363 -0.345686 -0.604281 0.026405 -0.400640 0.894239 0.341744 -0.191124 0.094659 0.232227 -0.341626 0.018809 0.261704 0.393637 0.296830 -0.275680 -0.145421 -0.178791 0.297132 -0.086029 0.060196 -0.099709 -0.295960 0.145238 0.428378 -0.492595 0.247796 0.320028 -0.110645 0.387214 0.251445 0.092329 0.147751 -0.746804 0.269249 0.030121 -0.066137 0.089559 0.212870 0.357230 -0.150846 0.383255 -0.338243 0.283411 -0.332716 0.129809 0.497178 0.664545 0.193753 0.378797 0.524897 0.480606 0.055317 -0.152603 -0.274048 -0.624457 0.157511 0.292803 0.220761 0.259588 -0.030885 -0.290203 -0.010182 -0.174322 0.186617 0.246034 -0.034996 0.607692 -0.904695 0.045406 -0.193217 0.919211 0.049886 1.009969 -0.191628 0.222674 -0.294050 -0.021061 -0.269644 -0.161899 -0.122442 0.076857 0.083011 -0.124278 -0.228076 0.026464 0.604225 0.472186 -0.508155 0.382139 0.004107 -0.510503 -0.381489 0.131007 0.050350 0.041743 0.313455 0.409698 -0.280967 -0.035318 0.253151 -0.061983 -0.154544 -0.148164 0.019106 0.688135 0.246289 -0.009419 -0.174446 -0.074647 -0.141164 0.307329 0.489052 -0.161444 -0.139212 -0.167048 0.296932 -0.077419 -0.673447 -0.251014 -0.152760 0.080567 0.735890
1150 0.443825 0.238111 0.164883 -0.035003 0.226202 0.048458 -0.660631 -0.989760 -0.143287 -0.251230 -0.003536 -0.128388 -0.481259 0.116830 0.466660 -0.129037 0.263572 -0.554460 0.246195 -0.504387 -0.406857 0.075168 0.006148 -0.505797 -0.345016 0.375584 0.261339 -0.366950 0.149617 0.725339 -0.199296 -0.062565 -0.343576 -0.387685 -0.229077 -0.030635 0.107680 -0.549069 -0.660401 0.486969 0.282557 -0.136059 -0.351234 0.257994 0.161456 0.237353 0.068467 -0.368342 -1.077498 -0.557205 0.376919 0.050511 0.430649 -0.126086 -0.415380 0.152987 -0.004496 -0.068280 -0.297382 0.163558 0.095480 -0.103808 -0.177774 -0.113728 0.117665 0.140025 -0.133431 0.018687 0.285102 -0.222055 -0.503061 0.468729 0.090991 0.011916 0.580671 0.159362 0.303101 0.102469 0.567038 0.157673 0.018092 0.100517 -0.232642 -0.419009 -0.263086 -0.142662 -0.163517 0.662072 0.241752 0.112971 -0.047433 0.665665 0.454479 0.152315 0.273615 -0.089894 0.233194 -0.685208 -0.259862 -0.073550 0.512318 0.519151 0.247003 0.136551 -0.234833 -0.175193 -0.124872 -0.374339 -0.660506 0.704064 0.311838 0.610003 -0.214669 -0.577487 0.675332 0.148212 0.301787 -0.173148 -0.442506 0.168752 -0.317394 0.649957 -0.335210 0.096879 -0.316986 0.826670 -0.074946 0.222360
295 0.122063 -0.177529 -0.408021 0.321944 -0.361101 -0.187125 -0.036732 -0.619219 0.000608 -0.125042 0.491571 0.049696 -0.426789 -0.194595 0.107213 -0.059652 -0.277112 -0.492812 0.300167 -0.340205 -0.180155 -0.560732 -0.293691 0.388446 -0.091745 -0.167654 -0.056369 0.240386 0.362867 0.564550 -0.342849 -0.164618 0.556480 0.241570 0.630756 -0.010024 0.142907 0.297329 -0.069607 0.138390 0.162763 0.088462 0.575206 0.043110 0.298840 -0.191473 0.004717 -0.268945 -0.465015 0.233372 -0.091968 0.367605 0.410753 0.118793 0.076382 0.264102 0.261292 0.097639 -0.345868 0.097498 -0.449291 -0.343254 0.072993 -0.386685 0.367932 -0.029181 -0.674715 -0.549359 -0.289411 0.619473 0.242894 0.004965 0.315675 -0.658571 -0.018860 -0.109462 0.486197 0.950195 0.771458 0.080368 -0.078039 -0.421305 -0.161300 -0.324875 -0.503068 0.094301 -0.045491 0.318386 -0.296455 -0.302016 0.175935 0.191619 0.829411 -0.491926 0.037877 0.219847 -0.252269 -0.613860 0.182072 -0.222036 -0.307782 0.687674 0.037068 -0.110355 0.011615 0.428448 0.318766 -0.399533 -0.077724 -0.190737 0.745786 0.178852 0.038295 -0.374466 -0.392559 -0.050961 0.201048 0.371202 -0.181527 -0.494529 -0.785209 0.135671 0.073677 -0.228976 -0.004782 -0.219067 0.499935 0.448599
416 0.027711 0.180415 0.485127 0.018386 0.043739 -0.139193 -0.222909 -0.288005 0.068975 -0.128253 0.305804 0.635658 -0.367985 0.241106 0.892617 -0.245127 0.153237 -0.587350 -0.315161 -0.468817 -0.266681 0.627075 0.075856 -0.346347 -0.645709 -0.405405 -0.269792 -0.177713 0.043858 0.240552 0.242870 0.105941 0.197569 -0.250124 0.451085 -0.280461 0.106323 -0.788877 -0.029391 0.310210 0.049291 0.185358 0.003319 -0.013578 -0.032790 -0.133667 -0.046722 -0.538600 -0.537287 -0.300972 -0.101111 -0.211621 0.869058 -0.198705 -0.097497 0.262133 -0.271413 -0.045574 -0.319330 0.130604 -0.517274 0.029721 0.733744 -0.042155 -0.416128 0.060879 -0.413095 -0.378684 -0.216388 -0.140459 0.380380 0.700707 -0.125033 -0.084016 0.234672 -0.242336 0.134241 0.255279 0.330501 0.335126 0.868799 0.214926 -0.356439 -0.332220 0.551151 -0.494180 -0.006821 -0.007147 0.076769 0.005946 -0.129904 0.662479 0.231404 0.087796 0.551666 0.492167 0.184425 -0.373216 0.309781 0.291497 -0.500748 -0.405426 -0.167133 0.237083 -0.196930 0.066220 0.542985 -0.356860 -0.513115 0.081920 0.053583 0.473614 -0.606436 -0.734021 0.440345 -0.291472 0.136958 -0.136475 -0.136517 -0.389841 0.382503 0.721702 -0.103372 -0.202746 -0.216181 -0.076779 -0.084372 0.562548
848 0.877955 0.290149 0.425732 0.076199 0.202124 -0.335813 -0.368460 -0.192187 0.101817 -0.117181 0.812851 0.246179 -0.056377 -0.299283 0.676791 -0.320092 -0.295451 -0.845954 -0.233556 -0.183956 0.452768 0.046664 -0.071278 0.023219 -0.338990 -0.626589 -0.233338 -0.266164 -0.377758 -0.082515 -0.398535 -0.350592 0.201836 -0.225958 -0.026716 -0.009877 -0.061289 -0.327930 -0.380999 0.088724 -0.101649 0.354361 -0.148118 -0.257299 -0.516168 0.142556 0.213765 -0.201115 -0.516883 -0.159254 -0.389959 0.182234 0.544182 -0.373411 -0.208422 0.439729 0.021214 -0.191894 -0.436949 -0.080846 -0.166168 0.067169 0.586310 -0.532999 -0.254933 0.547580 -0.144769 -0.311751 0.248419 0.174560 0.152304 0.226231 -0.210799 -0.700666 0.376532 0.263882 0.062940 0.655340 -0.013264 0.311296 0.324772 0.383576 -0.655159 -0.217024 0.360953 -0.393449 -0.147948 0.374293 -0.092919 0.430155 0.307322 -0.190348 -0.044836 -0.165510 -0.171006 0.482116 0.337315 -0.398723 0.100745 -0.174752 0.023762 0.574967 -0.134965 0.477809 -0.212281 -0.153391 0.467205 0.123028 0.005010 0.407822 -0.148352 0.144649 -0.126893 -0.029023 0.406351 0.175609 0.250521 0.494799 -0.422857 -0.030688 -0.148897 0.221379 -0.308987 -0.138479 -0.303006 0.558680 0.000958 0.261425
2832 -0.013188 -0.117715 -0.286117 0.549461 0.099429 -0.247247 0.164337 -1.268186 0.382160 -0.402169 0.604949 0.510698 -0.297223 0.374286 0.489181 -0.190529 -0.524779 -0.776615 0.066678 -0.818332 -0.514555 -0.032190 0.075686 0.048353 -0.002447 -0.087311 0.311738 0.021672 0.107330 0.907516 -0.474749 0.198424 0.170656 -0.807845 0.024821 -0.293497 -0.157186 -0.536459 -0.500789 0.276413 0.305197 0.312927 -0.283859 0.052272 0.550577 0.074133 0.311454 -0.330540 -0.998304 -0.883448 -0.690334 -0.042870 -0.064725 -0.589302 -0.067764 0.716510 -0.268480 -0.098768 -1.026600 -0.254340 -0.148974 -0.358813 0.959738 0.303446 0.448396 0.267284 -0.726693 0.370681 0.304894 -0.374978 0.289371 0.348933 -0.091996 -0.677049 0.569206 0.570967 0.130426 0.378466 0.738081 -0.012042 -0.431058 -0.809155 -0.164069 0.065301 -0.678400 -0.500945 -0.921799 -0.551379 0.071892 0.186200 0.334589 0.011686 0.573191 0.239020 -0.279566 -0.266311 -0.068382 -0.308062 -0.441559 -0.439155 0.156817 0.183322 -0.493476 0.152915 -0.365549 -0.118996 0.397133 0.019300 0.488227 0.324808 -0.019799 0.165451 -0.367876 -0.889346 -0.260697 -0.786390 0.190574 0.492315 -0.514878 -0.513675 -0.063621 0.891374 -0.601619 -0.668209 0.332947 -0.173268 -0.285303 0.109467
2996 0.306663 0.063942 0.084709 0.375087 -0.559086 -0.119969 -0.357687 -1.226831 -0.288646 -0.430616 0.420181 -0.688532 -0.266645 -0.372443 0.869813 -0.633352 -0.674779 -0.458140 -0.396997 -0.621833 0.247638 0.182652 -0.546452 0.285783 -0.364255 -0.548040 0.065604 -0.897409 -0.191309 -0.137072 0.227167 0.117659 0.551545 -0.119003 0.653889 0.321385 1.172722 0.171164 -0.201787 -0.017595 0.364575 0.009101 0.390720 -0.437606 0.210125 -0.040151 0.113222 -0.683396 -0.257900 -0.735887 -0.152120 -0.389475 0.673609 0.299783 0.967153 0.187048 0.504833 -0.441270 -0.614194 0.144133 -0.037077 -0.248378 -0.248193 0.340510 0.033437 -0.031002 -0.148429 -0.258286 -0.182754 -0.802197 0.258698 -0.345686 0.685395 -0.845823 0.177143 0.204196 0.367787 -0.120036 0.190039 0.500004 0.507332 -0.409761 0.008717 -0.606389 -0.089531 -0.671015 0.069899 -0.526099 -0.493816 0.131753 -0.440697 0.283428 0.179472 -0.708429 0.219960 -0.451981 -0.049449 0.004764 -0.811119 0.031083 -0.231018 0.596290 0.262603 0.797235 -0.285890 -0.830454 0.099663 -0.144014 0.612359 -0.145789 0.462769 -0.101610 -0.260571 -1.334339 0.177232 -0.129343 0.584863 0.113901 0.430602 0.203462 -0.189376 1.083769 -0.242372 -0.404700 0.721459 0.414529 0.144977 0.698643
1386 0.583474 0.534901 0.313500 0.726674 -0.055953 -0.581994 -0.086761 -0.434611 0.133821 -0.132430 0.295526 -0.250631 -0.083854 -0.250470 0.953279 -0.383082 -0.206393 -0.736020 0.058302 0.361439 -0.295429 0.295640 -0.022370 -0.291881 0.108388 0.069127 0.746192 -0.339419 -0.620625 0.140052 -0.544532 -0.609835 -0.366516 -0.644895 -0.243836 0.053923 0.159159 0.124372 -0.605355 0.213092 -0.000956 0.193696 0.115773 0.157170 -0.028635 0.011761 -0.279477 -0.356224 -0.671819 -0.901819 0.115405 0.126078 0.476153 -0.547244 0.265331 -0.104905 0.063045 -0.206846 -0.754300 -0.116050 0.120157 -0.304597 0.346492 -0.016618 0.751614 0.098522 -0.520884 -0.825906 0.076186 0.395652 0.027366 -0.045122 0.340568 -0.229130 0.874027 0.034310 -0.019783 0.351845 0.454830 0.629226 0.305410 -0.567568 -0.305881 -0.145448 -0.659105 -0.367684 0.423097 -0.120340 -0.047529 -0.495046 -0.316011 0.611602 0.283861 0.736090 -0.474874 0.041305 0.359694 -0.546734 -0.332468 -0.058952 0.276694 0.004279 -0.583983 0.247039 0.122079 0.495988 -0.094871 -0.024908 -0.490942 0.059200 0.664991 0.270813 0.449244 -0.314559 -0.582723 -0.591432 -0.140631 0.400904 -0.189077 0.194153 -0.365688 1.219317 0.176950 -0.637827 -0.634691 0.401703 0.011334 0.117070
202 0.253692 -0.274136 0.290614 0.303531 0.252185 -0.556371 0.143253 -0.171098 0.575587 -0.430909 0.773566 0.075340 0.159452 -0.622317 0.623641 -0.680687 -0.511514 -0.497546 -0.326914 -0.405907 -0.382937 0.099773 -0.252896 -0.217237 -0.556275 -0.219280 -0.414892 -0.577972 -0.375610 0.022471 0.216318 -0.428165 0.089740 -0.394114 0.286574 -0.265395 -0.085327 -0.346654 -0.114786 0.498188 0.464410 -0.092089 -0.004599 0.064129 -0.524738 -0.043899 0.517177 -0.113006 -0.429007 -0.701457 0.111291 0.234635 0.859106 -0.348699 0.307270 -0.055448 -0.256389 -0.028934 -0.404006 0.111777 -0.211045 -0.284641 0.472269 -0.271170 -0.091565 -0.218461 0.164243 -0.431002 0.147855 0.369595 0.296912 0.361736 -0.022123 -0.908671 0.761396 -0.394484 0.422099 0.213053 0.241403 0.110559 0.261258 -0.047669 0.165734 0.052705 0.487101 -0.637099 -0.417388 -0.239320 -0.575023 0.943360 -0.009370 0.141000 0.111835 0.114679 0.254371 0.132860 0.233308 -0.092773 -0.032585 -0.548191 -0.298671 -0.286984 0.251552 0.128586 -0.094119 0.015730 0.391753 -0.183177 0.283572 -0.108961 -0.098372 0.350147 0.090964 -0.283344 0.444209 -0.061784 0.179150 -0.324397 -0.229982 -0.115004 -0.198527 0.189992 -0.146138 0.080786 0.166431 0.314344 -0.114401 0.449299
389 0.297555 0.265066 0.276514 0.452971 0.568149 -0.780665 -0.116323 -0.627162 -0.022976 -0.348199 0.828392 0.165690 -0.039742 -0.442996 1.035842 -0.648766 -0.202983 -0.527713 -0.498582 -0.701604 -0.260732 0.096464 -0.061196 -0.124896 -0.391966 0.055308 -0.057774 -0.828637 -0.321280 0.225274 0.279531 -0.467868 -0.413800 0.381950 0.277847 -0.069146 -0.147227 -0.295517 -0.340258 0.174101 0.510080 0.204137 -0.132635 -0.011382 -0.189137 0.017406 0.158371 -0.347746 -0.165374 -0.924305 0.176622 0.186446 0.788095 0.172622 0.227949 -0.313411 -0.168762 0.289685 -0.481420 0.452417 0.021743 -0.038122 0.430460 -0.236296 0.222218 0.096707 -0.165656 0.133182 0.047926 -0.343032 -0.254171 0.137333 0.012323 -0.596636 0.317231 -0.050693 0.354399 0.376322 0.200837 -0.209755 0.377394 -0.078573 0.552925 -0.108158 0.058480 -0.449584 -0.054681 -0.514670 -0.535546 0.573872 -0.208632 0.279259 0.257909 -0.163633 0.275423 0.581559 0.540271 -0.091786 0.082424 -0.036944 -0.610469 0.030396 -0.195739 -0.164572 -0.083747 -0.294480 0.809779 0.158450 0.242472 -0.284315 0.305216 0.718122 -0.340877 -0.035364 0.181478 -0.459199 -0.095131 -0.333240 -0.466425 -0.406837 -0.335879 0.479997 -0.102452 -0.045862 0.203625 0.230817 -0.238766 0.257926
495 0.350503 0.308297 0.443635 0.104648 0.775742 -0.588337 0.136351 -0.269244 0.084467 0.221290 0.603228 0.471996 0.023490 -0.058286 1.004374 -0.325006 -0.358010 -1.162902 -0.277813 -0.310063 -0.021740 0.103606 -0.060609 -0.088834 -0.174284 -0.137588 0.155817 -0.390694 -0.394836 -0.329129 0.214774 0.130464 -0.585276 -0.343760 0.366262 -0.477614 0.471999 -0.156137 -0.104460 0.107268 -0.139481 0.397207 -0.229952 -0.004048 0.020850 0.185946 0.318985 -0.305498 -0.291694 -0.428556 -0.201587 -0.001137 0.512608 -0.274370 0.251402 0.375673 0.465219 -0.300386 -0.262441 0.120825 -0.381294 -0.310513 0.175810 -0.073838 -0.562093 -0.030167 0.140451 -0.483037 0.110253 -0.310182 0.435587 0.052977 -0.068264 -0.708325 0.345241 0.047064 0.122193 0.064836 0.116103 0.200934 0.655805 0.243069 -0.394523 -0.308371 0.224311 -0.368280 0.353428 0.044598 -0.123446 0.203228 -0.011720 0.375459 0.119242 -0.493380 0.560563 0.229878 0.548061 -0.631770 -0.058146 0.323775 -0.086463 0.366782 -0.071001 -0.029430 -0.483626 -0.364025 0.657225 0.041495 -0.451003 -0.122838 0.061294 0.474419 -0.398162 0.031724 -0.049650 0.045459 -0.111988 0.053856 -0.521650 -0.362700 0.061716 0.380443 -0.489865 -0.331278 -0.348256 -0.090741 0.057156 0.821841
447 1.060595 -0.409961 -0.557421 0.481580 -0.280934 -0.118232 -0.039144 -0.503253 0.480362 -0.296968 0.066066 -0.242519 -0.119960 -0.320400 0.701662 0.021241 -0.210313 -0.930227 0.052850 -0.463769 -0.408663 -0.211925 -0.172358 0.423019 -0.146500 0.135942 -0.315033 -0.074366 -0.201776 0.405333 -0.313455 -0.414815 0.389237 0.003545 0.538809 -0.240035 -0.001056 0.268714 -0.468781 0.118600 0.048704 0.062339 0.653287 0.277461 0.386796 -0.339908 -0.002945 -0.051811 -0.396765 -0.016746 -0.375767 0.253914 0.296768 0.297735 -0.016078 0.149737 0.595728 0.053365 -0.480500 0.036714 0.009813 -0.038640 0.108986 -0.114629 -0.163154 -0.161706 -0.553225 -0.395458 -0.662142 0.505618 0.297335 -0.298705 0.093229 -0.597555 0.112776 0.294154 0.058862 0.889561 0.518710 0.006565 -0.026527 -0.594265 -0.423522 -0.298642 -0.228945 -0.252286 -0.013043 0.307347 -0.252622 -0.044128 0.047678 -0.133500 0.440468 -0.521561 0.068811 0.363435 -0.146262 -1.003417 0.003375 -0.472584 -0.179242 0.364366 0.126968 -0.114114 0.251637 0.077528 0.050711 -0.359432 -0.073948 -0.311883 0.508440 0.240464 -0.029336 0.225368 -0.147388 0.009987 -0.297545 0.367811 -0.424030 -0.647056 -0.345124 0.502739 0.116218 -0.104206 -0.137740 -0.406307 0.360113 0.219576
441 0.310855 0.459609 -0.069828 0.135273 0.192259 -0.011360 -0.768345 -0.916371 -0.410719 -0.343190 0.246202 -0.399818 -0.726595 -0.460855 0.397297 0.364091 -0.082726 -0.512625 0.319140 -0.486126 -0.524059 0.386621 -0.022433 -0.214111 0.027500 0.380235 -0.193946 0.017937 -0.261257 0.479375 0.187368 0.195854 -0.114874 0.119947 -0.132947 -0.321246 0.252583 -0.192860 -0.478995 -0.032255 0.062047 0.151183 -0.103267 0.537153 0.526099 -0.402478 0.130202 -0.495333 -1.159827 -0.326251 -0.104122 0.172533 0.206887 0.335405 -0.102788 -0.285655 0.272639 -0.145497 -0.156578 0.131458 0.161938 -0.022651 -0.387152 0.195187 0.366415 0.092870 -0.031887 -0.011566 0.638408 -0.298431 -0.056311 0.418626 0.423747 -0.218535 0.381503 0.340045 0.321554 -0.193148 0.136769 -0.158357 -0.190273 0.041110 -0.250839 -0.188292 -0.818092 0.236637 0.041836 0.166247 0.136306 -0.110310 -0.309779 0.656916 0.421713 0.071976 0.348404 -0.553721 0.017552 -0.321655 0.066996 -0.449998 0.233324 0.347317 0.244756 0.195449 -0.065584 -0.141448 -0.240963 -0.142036 -0.231004 0.289226 0.567260 0.261893 -0.311030 -0.500296 0.366943 0.333878 0.084947 0.171465 -0.316047 -0.154766 -0.346761 0.436559 -0.203181 -0.413174 -0.111430 0.155662 0.016974 0.702753
1168 0.178062 0.360485 -0.040505 0.558211 0.231599 -0.246054 0.374154 -0.941141 0.240516 -0.476147 0.353871 -0.015969 -0.423707 -0.100280 0.157595 -0.125159 0.026897 -0.681022 0.039353 -0.056156 0.049121 -0.098104 0.232680 -0.050016 0.038981 -0.379400 -0.150485 -0.088380 0.378588 0.428564 -0.096919 0.567909 0.519164 -0.150176 0.319087 -0.109080 0.032295 0.486916 -0.751245 0.211936 -0.349479 0.238724 0.118186 0.267593 0.158162 -0.249744 -0.126805 -0.129947 -0.556801 -0.407921 0.457867 0.067462 0.218639 -0.107534 0.540481 0.078118 -0.540468 -0.841454 -0.370508 -0.211434 -0.459056 -0.864417 -0.011419 0.078582 -0.178046 0.083670 -0.254786 -0.172713 -0.361688 -0.411452 0.843815 -0.189993 0.179096 -0.362524 0.106164 -0.563821 0.056416 -0.268642 0.260995 0.286335 0.080157 -0.783016 -0.032421 0.186577 -0.345807 -0.536779 0.007859 0.212725 -0.254992 0.291836 -0.063812 0.217035 -0.234001 -0.513569 -0.544919 0.287913 -0.403902 -0.148702 0.300720 -0.072213 -0.054306 -0.004414 0.124247 -0.234474 0.271819 0.622968 -0.191698 -0.257997 0.230139 0.065474 0.749104 1.261299 -0.415162 -0.367648 0.115259 0.368986 -0.114968 0.698706 -0.186088 -0.588929 0.034643 0.327464 -0.390155 -0.482044 -0.432901 -0.044704 0.276092 -0.007665
483 0.076245 0.135067 0.110375 0.539372 -0.480856 -0.024071 0.420393 -0.787723 0.653387 -0.523395 0.324107 -0.259744 -0.123730 -0.216758 0.570822 0.159050 -0.321840 -0.029619 -0.161222 -0.097335 -0.144270 0.327496 -0.373716 0.200418 -0.220923 0.023817 -0.080723 -0.490922 -0.165524 0.163044 -0.092625 0.169192 0.367288 0.164824 -0.121622 -0.355297 0.274687 -0.029299 -0.593038 0.161494 -0.592053 0.334696 0.034078 0.439954 0.041588 0.115461 0.582676 -0.249968 -0.218259 -0.049575 -0.536683 -0.449997 0.222634 0.063967 0.023703 0.195848 0.486159 -0.217090 0.081699 -0.053103 -0.096578 -0.112011 -0.184990 0.504465 0.100110 0.471788 -0.142392 0.055444 -0.240383 -0.103119 0.265913 0.035808 0.774225 -0.567344 0.127113 -0.044796 -0.101261 0.152814 0.467819 -0.059026 0.179993 -0.706206 -0.613150 -0.495732 -0.633164 -0.570878 0.445697 0.094773 -0.028853 0.211774 -0.007952 0.171230 -0.061103 -0.318892 0.476142 -0.301674 -0.199884 -0.421986 0.206019 -0.211843 0.400793 0.315007 0.002169 0.089369 0.180069 0.468804 -0.176266 -0.111503 0.348101 0.130801 0.131536 0.142112 -0.396974 0.054628 -0.137941 0.010038 -0.382182 -0.248454 -0.654124 -0.211610 -0.262797 0.759314 -0.431948 -0.171035 0.352775 -0.328434 -0.282397 -0.031756
685 0.005810 0.011788 0.165727 0.020085 -0.241842 -0.139457 -0.084218 -0.942376 -0.233419 0.291162 0.476186 -0.341875 -0.379548 -0.075732 0.421972 -0.150746 -0.320859 0.075138 0.417596 -0.102879 -0.104123 -0.141901 0.049282 -0.031319 0.029670 -0.204177 0.176820 -0.426787 -0.123058 0.081406 -0.445174 0.154375 0.039859 -0.196921 -0.141920 -0.036320 -0.028686 -0.259275 -0.376739 -0.048367 -0.613411 -0.018804 0.128941 -0.139369 0.154169 0.003619 0.521178 -0.199709 -0.273778 -0.023950 -0.051187 0.512141 0.341255 0.315245 -0.322958 0.572910 0.309348 -0.050689 -0.178869 -0.553959 -0.123859 -0.230504 0.177564 0.130499 0.325657 0.118357 -0.605619 -0.285378 0.285883 0.082988 0.371431 0.192041 0.610709 -0.665074 -0.251899 0.250048 0.049880 0.402268 0.332354 0.400249 -0.237942 -0.396096 -0.612429 0.024321 -0.127201 -0.057544 0.183506 0.073438 0.321759 -0.232620 0.574711 0.563160 0.301765 -0.074831 0.618260 -0.102285 -0.165332 -0.587638 -0.031084 0.323560 0.110717 0.455978 0.481943 -0.277475 -0.046788 1.001263 0.233669 0.027269 0.036170 0.476156 0.269864 0.088440 -0.218749 -0.066295 0.196191 -0.405340 -0.033564 0.251277 -0.102234 0.070110 -0.391915 0.536321 -0.220007 -0.403537 -0.183753 0.228527 0.214948 0.269999
1374 0.056039 -0.117888 0.084359 0.415754 -0.209103 0.202278 0.119963 -1.078926 0.172531 -0.062745 0.293563 -0.032841 -0.530628 -0.566828 0.025407 -0.372001 0.444275 -0.865214 -0.016606 -0.070064 -0.292213 0.122768 -0.406605 -0.112406 -0.330388 -0.414689 0.459932 -0.417205 0.474786 0.515452 -0.238136 0.383918 -0.157461 -0.362165 0.540640 -0.002804 0.459932 -0.493496 -0.723638 0.009490 0.088855 0.103267 -0.276451 0.266891 -0.034886 -0.433274 0.143069 -0.393851 -0.321391 -0.068053 -0.709735 -0.236279 0.091922 0.545607 0.405287 0.096472 0.398375 -0.720598 -0.910580 -0.406623 -0.372042 0.037676 0.251314 -0.376358 0.214031 0.044576 0.482176 -0.318585 0.368173 -0.090478 1.088017 -0.290606 0.429869 -0.670335 0.095088 0.347544 0.405874 0.306357 0.289707 0.285505 0.046784 -0.209904 0.136903 0.046942 -0.644048 -0.018795 0.116167 -0.101939 0.393164 0.746814 0.183080 0.595227 0.255673 0.080428 -0.103743 -0.103707 -0.479511 -0.032814 -0.103152 0.305639 -0.062831 0.796162 0.416875 -0.332761 -0.088134 0.157314 0.128565 0.058005 -0.185868 0.151167 0.618012 0.737843 0.054255 0.130036 0.003049 0.281128 0.054069 0.120426 -0.414725 -0.354939 -0.258067 0.015295 -0.171277 -0.227027 -0.360874 0.193457 -0.041033 -0.344377
1759 0.339941 0.358253 -0.163937 0.051265 -0.422491 -0.535894 0.586695 -0.522150 0.062335 -0.647903 0.359209 -0.647484 0.119333 -0.479017 1.258184 -0.487521 -0.092453 -0.551293 -0.367284 0.228950 0.103029 0.615082 0.151643 -0.537144 -0.302706 -0.480595 0.071386 0.163245 -0.057440 0.628924 -0.345993 -0.019522 -0.285109 -0.124913 0.044496 0.078823 0.230505 0.283682 -0.844226 -0.251133 0.052533 -0.377042 -0.701164 0.305193 -0.253693 -0.020065 0.539078 -0.493673 -0.754230 -0.490743 0.554458 0.574546 0.874460 0.342471 -0.011839 0.490271 0.043857 -0.461679 -0.613052 0.239922 0.348062 -0.075845 0.009146 -0.841317 0.617302 0.030193 -0.541516 0.007366 -0.311949 0.535927 0.095129 0.363940 0.205586 -0.236529 0.564605 0.002005 -0.223098 -0.012826 0.930543 0.032676 0.493181 -0.393216 0.017711 0.181409 -0.024435 -0.180351 0.366913 -0.067367 -0.764732 0.697457 0.340700 0.225537 0.817720 -0.113041 0.024886 -0.056658 0.610563 0.249431 0.702360 0.295927 0.166986 0.459635 0.545979 0.695163 -0.021041 0.059995 0.168551 0.933668 -0.230636 0.439481 0.710298 0.348036 -0.024915 -0.588626 0.057353 -0.364643 0.280964 -0.025786 -0.551589 -0.772706 -0.450209 0.561553 0.038468 -0.501844 0.028798 1.068985 -0.028808 0.579242
522 0.420757 -0.000939 0.234972 0.550627 -0.391726 -0.082129 0.114741 -1.173474 0.099109 -0.266181 0.024569 -0.446413 -0.285086 -0.484836 -0.012176 -0.059308 0.309285 -0.565132 0.004057 -0.063510 -0.326119 0.181766 -0.210278 -0.140573 -0.536483 -0.115148 0.349533 -0.537544 -0.229570 0.046845 -0.341063 0.270005 -0.092353 -0.287864 0.213948 0.190962 0.307186 -0.303340 -0.551390 -0.112968 -0.121253 0.274528 -0.038781 0.319771 0.017118 -0.656743 0.313020 -0.256104 -0.063762 -0.012780 -0.384139 0.043140 0.204119 0.520357 -0.068968 0.083306 0.251384 -0.502091 -0.444212 -0.038056 -0.089477 0.056693 0.123307 -0.169011 0.540171 0.285029 0.092894 -0.187236 0.611999 0.254148 0.953671 -0.121373 0.561532 -0.719132 -0.167433 0.514903 0.106846 0.221978 0.208694 0.255620 0.125579 -0.440040 0.001192 0.101136 -0.621645 -0.030764 0.140772 0.383762 0.305556 0.418198 0.292903 0.485170 0.256198 -0.185784 -0.195365 -0.330230 -0.185210 -0.284513 0.101366 0.123622 -0.168260 0.719133 0.379679 -0.254430 0.071594 0.279707 -0.041126 0.226542 0.078808 0.241896 0.175134 0.087956 0.325109 0.121483 0.146579 0.159468 -0.193750 -0.065368 -0.480111 -0.337063 -0.134947 0.462673 -0.063525 -0.044481 -0.034183 0.168242 -0.033533 -0.200626
1637 0.091775 0.002481 -0.010355 0.326640 -0.085957 -0.234729 -0.109204 -0.789855 -0.460369 -0.124434 0.432129 0.238534 -0.041136 -0.002953 0.837140 0.135342 -0.724791 -0.232948 0.207440 -0.906653 -0.479924 0.176340 0.252535 -0.501139 -0.601242 -0.179441 -0.442350 -0.269063 0.101072 0.266467 -0.271049 0.599430 -0.252294 0.170923 -0.004744 0.822477 0.573784 0.107041 -0.147758 0.672621 0.658240 -0.495472 0.021494 0.370055 0.242408 -0.143000 0.160795 0.100209 -0.421752 -0.637934 -0.287233 0.074005 0.234921 -0.149694 -0.057319 0.116654 0.151032 -0.094620 -0.428069 0.276841 -0.170094 -0.019546 0.207172 -0.301003 0.823763 -0.164905 -0.562651 -0.168719 -0.123901 0.014107 0.194332 -0.163781 0.061039 -1.054776 -0.094095 -0.409646 -0.292981 -0.042760 0.671744 0.044328 0.180874 0.229997 -0.135881 -0.213463 -0.237670 -0.173810 0.012192 0.088616 -0.136901 0.311852 0.057448 0.313884 0.201155 -0.079330 -0.143047 -0.113644 -0.394814 -0.461060 -0.030325 -0.832676 -0.089177 0.400994 0.109634 0.339402 -0.207455 0.099674 -0.013284 0.507460 -0.647262 0.120111 0.884348 -0.243672 -0.260324 -1.222643 0.240251 0.089593 0.426724 0.869407 -0.935696 -0.462566 -0.242438 -0.101869 -0.397777 -0.329786 -0.040145 0.101780 0.221486 0.937789
1500 0.087830 0.556839 0.094410 0.199541 0.272664 0.226065 -0.739116 -1.021487 -0.026524 -0.609749 0.320212 -0.373690 -0.643573 -0.024058 0.881379 -0.086070 -0.045352 -0.622804 0.196465 -0.261596 -0.327564 0.142357 0.191854 -0.506697 0.074132 0.047745 0.181618 -0.122572 0.040814 0.481378 0.486869 -0.432329 -0.508965 -0.165650 -0.225504 -0.451029 0.361238 -0.235287 -0.909644 0.176197 0.072541 0.452228 -0.164436 0.271754 0.198050 0.095375 -0.353725 -0.162597 -1.100938 -0.424385 0.177007 -0.125321 0.533691 0.296479 -0.083140 -0.215131 0.103270 -0.094812 -0.621862 0.241469 0.229960 -0.481660 -0.234023 -0.057030 0.073152 0.018558 0.419530 0.223845 0.309031 -0.171806 0.245556 0.543254 0.312343 -0.089205 0.554053 0.096428 0.216185 -0.036553 0.627476 0.314947 -0.129882 -0.147749 -0.149545 -0.041232 -0.255925 -0.218166 0.101409 0.297851 -0.008610 0.108389 -0.468920 0.587445 0.950449 -0.207544 0.098298 -0.301991 0.178483 -0.381085 -0.022121 -0.150650 0.834418 0.486771 0.171460 0.184957 -0.322169 -0.373982 -0.236551 -0.491815 0.123940 0.043830 0.604719 0.292037 0.057822 -0.849221 0.351015 0.266597 0.185110 -0.526367 -0.169127 0.153979 0.100638 0.427551 -0.415678 -0.149704 -0.302419 0.532285 0.047452 -0.093680
40 -0.131240 0.078344 0.469300 0.410607 0.248404 -0.115286 0.048739 0.031471 0.077311 -0.417969 0.450988 0.546184 -0.070494 0.007749 0.707600 -0.200733 -0.219922 -1.105207 -0.621297 -0.771441 -0.079437 0.200242 0.020149 0.028154 -0.568216 -0.563594 0.169865 -0.502388 -0.508450 0.088935 -0.233600 0.118823 -0.163233 -0.269436 0.443539 -0.202083 0.054876 -0.397305 -0.056444 -0.082351 -0.327460 0.262567 0.269249 -0.139925 -0.144722 -0.300702 -0.209355 -0.279665 -0.457184 -0.607020 -0.379158 0.006544 0.632920 0.068998 0.404261 0.351234 0.200375 -0.093279 -0.321051 -0.012608 -0.028259 -0.315670 0.203754 -0.077644 -0.454567 -0.326870 -0.462444 -0.313156 0.071289 0.052549 0.089212 0.189410 -0.166243 -0.298282 0.374185 0.223723 0.293075 0.094073 0.268026 0.282898 0.702783 0.244373 -0.611739 -0.405345 0.254883 -0.412183 -0.045280 0.110236 0.064197 0.684235 -0.650868 0.234959 -0.055045 -0.150598 0.332788 0.776084 0.320541 -0.552162 0.129696 -0.361760 -0.115359 0.014452 0.375254 0.067939 -0.155091 -0.277637 0.863010 -0.279576 -0.435124 0.242557 0.180625 0.120770 0.217078 -0.071407 0.548213 0.048605 -0.122773 0.225272 0.085385 -0.492490 0.189868 0.617616 -0.108286 0.246431 0.024028 0.063316 0.489507 0.414459
1811 -0.214592 0.114765 0.662310 0.646815 -0.059581 -0.106804 -0.070341 -0.365119 -0.152479 -0.486822 0.488250 -0.097989 -0.100892 -0.113924 0.338172 -0.454933 -0.038145 -0.594410 0.409084 -0.467881 0.231815 0.226542 -0.323532 -0.156320 -0.157910 -0.418439 0.134877 -0.481434 0.241282 0.269512 0.080737 0.055174 -0.205362 -0.234836 0.192356 -0.323827 0.353831 -0.481839 -0.823638 0.680768 -0.214070 0.015591 0.578837 -0.013621 -0.069398 -0.086708 0.156910 0.096196 -0.287729 -0.086578 -0.099722 -0.394391 0.041550 0.424755 0.887168 0.051172 0.034508 -0.902889 -0.822797 0.171853 -0.640001 0.313926 0.600346 -0.615494 0.026097 -0.001532 0.276249 -0.479435 0.029797 -0.075237 0.385776 0.410251 0.147827 0.001842 0.312475 0.214956 0.117143 0.052334 0.274218 0.074021 0.373245 -0.293938 0.090464 -0.188735 -0.371356 -0.368698 0.076982 -0.018844 -0.063182 0.618875 0.683007 0.098487 0.337688 0.075818 -0.658139 -0.002606 0.064098 0.406850 -0.238689 0.445856 -0.237961 0.747866 0.462562 0.398043 0.026440 -0.106253 0.176347 0.142433 -0.444943 0.748596 0.615724 0.715020 0.006174 -0.752095 -0.354839 0.521406 -0.445734 0.457654 0.187321 -0.076175 -0.388760 0.137510 -0.745848 -0.457220 -0.216040 0.088062 0.355091 -0.103280
429 -0.191216 0.220167 -0.226629 0.525293 -0.177416 -0.227318 0.350292 -0.271401 -0.071907 0.076738 0.646912 -0.042257 -0.212586 0.168131 0.078154 -0.269900 -0.160100 -0.260541 0.550942 -0.111459 -0.127805 -0.661768 0.015595 -0.292248 0.205328 -0.224939 -0.140107 -0.271637 0.345679 0.329249 -0.252176 0.103757 0.473750 -0.222949 0.659374 0.170562 0.171928 0.388489 -0.243825 0.356378 0.028587 0.137220 0.044599 0.011270 0.042862 0.161991 -0.019404 -0.109863 -0.095796 -0.163379 0.062921 -0.046162 0.687730 -0.286840 0.257261 0.763617 -0.094119 -0.224394 -0.430434 -0.359153 -0.308858 -0.551427 0.337946 -0.253359 0.143474 -0.261277 -0.687345 -0.088468 -0.109473 0.214100 0.527715 -0.011812 0.504407 -0.599666 -0.096146 -0.479590 0.448119 0.500536 0.742995 -0.150912 0.635147 -0.356540 0.415994 -0.086599 -0.527564 0.262480 0.261959 0.396221 -0.088243 0.003364 0.132593 0.075775 0.232267 -0.405485 -0.284562 -0.143480 -0.117849 -0.329699 0.142314 0.091771 -0.192132 0.516287 0.127985 0.135966 -0.307064 0.065284 0.290807 -0.009326 0.183739 0.084387 0.887837 0.588391 -0.209177 -0.380919 -0.335894 0.152643 0.438395 0.754235 -0.071687 -0.479865 -0.377430 0.052676 -0.113382 -0.435581 -0.097564 0.376333 0.022357 0.428125
1727 -0.229437 0.332196 0.427897 0.666083 -0.235563 0.179362 -0.049693 -0.608254 0.023579 -0.487486 0.561183 -0.015971 -0.407090 0.204669 0.127222 -0.648883 -0.106824 -0.649060 0.241714 -0.289397 0.056175 0.118623 -0.023445 -0.041865 -0.217672 -0.499754 0.168041 -0.486379 0.258439 0.420440 0.304302 0.170204 -0.026792 -0.331026 0.175076 -0.189857 0.420462 -0.147140 -0.726758 0.550287 -0.140557 0.076409 0.456838 0.135076 -0.211515 -0.301647 -0.052061 0.231527 -0.545388 -0.059851 -0.238133 -0.371678 -0.186918 0.376205 0.888745 -0.162682 0.175800 -1.222117 -0.990993 -0.023933 -0.639567 0.029642 0.657230 -0.646194 0.165391 0.026290 0.325139 -0.504067 0.252608 0.032739 0.522058 -0.027159 0.003489 -0.124963 -0.131667 0.145107 0.224555 0.131139 0.179598 0.214338 0.302052 -0.369648 0.109233 -0.191989 -0.563358 -0.217470 -0.060038 -0.102100 -0.146766 0.734590 0.465287 0.185931 0.451821 0.104396 -0.562752 0.083509 -0.100456 0.275870 -0.076436 0.281062 -0.195985 0.470211 0.404074 0.103243 -0.128965 0.236801 0.291557 0.253931 -0.353964 0.637361 0.623676 0.720170 0.009770 -0.562789 -0.322007 0.219787 -0.330660 0.298142 0.383741 -0.314781 -0.396896 0.055584 -0.936897 -0.458846 -0.105576 0.127071 0.504637 0.228682
506 0.180424 -0.309437 0.300188 0.543838 0.248883 -1.042022 -0.211007 -0.293714 0.509100 -0.090039 1.111165 -0.014636 0.152384 -0.165371 0.701336 -0.485578 -0.331097 -0.814064 -0.360943 -0.388916 -0.048353 0.414658 -0.304887 -0.020507 -0.443566 -0.361299 -0.116163 -0.202524 -0.822162 0.180253 0.035067 -0.206307 0.017011 -0.304000 0.372924 -0.093432 0.049285 -0.435610 0.088001 0.027707 0.394102 0.033995 0.262201 -0.143249 -0.423003 0.257331 0.718853 -0.107038 -0.718293 -0.330466 -0.594866 -0.032127 1.187929 -0.260798 -0.107889 0.234252 0.335973 -0.229152 -0.296791 0.431328 -0.198279 -0.017691 0.092283 -0.550101 -0.459763 -0.147681 0.062144 -0.617283 -0.135373 0.229840 0.433911 0.570348 -0.224100 -0.830961 0.721112 0.137925 0.368717 -0.129929 0.087759 0.256022 0.306102 -0.003525 -0.066638 0.037083 -0.067522 -0.403361 -0.323169 0.118518 -0.246697 0.377775 -0.482795 0.293052 -0.150007 0.250298 0.249253 0.492275 0.037317 -0.328724 0.001307 -0.266581 -0.006521 0.313271 0.211905 0.648975 -0.172175 -0.095479 0.536725 -0.062711 0.171466 0.360170 -0.235584 -0.111922 -0.127940 0.021334 0.341933 -0.167729 0.262002 0.336963 0.292773 -0.460295 0.179422 0.257983 -0.350755 0.075742 0.082353 0.209343 0.673381 0.434067
57 0.090279 0.012342 0.058412 0.158953 0.443117 0.070463 -0.012755 -0.312809 0.007860 -0.353357 0.900435 -0.337998 -0.051800 0.084187 0.429351 -0.168877 -0.488657 -0.724412 -0.117754 -0.316573 -0.049994 -0.018285 -0.198808 -0.891214 -0.529904 -0.513097 0.151015 0.336361 0.280494 0.215192 -0.307667 -0.303456 -0.410446 -0.021861 0.348536 0.151858 -0.000476 -0.664276 0.153561 0.542886 -0.476814 0.378516 0.149285 0.095069 -0.030650 0.202708 0.564508 -0.353520 -0.075832 -0.069294 -0.391656 -0.320741 0.353147 -0.102428 0.398957 0.053625 0.364904 0.030367 -0.309409 -0.159395 -0.571692 -0.281870 -0.276322 -0.265036 0.094200 0.490989 -0.247411 -0.594867 -0.465436 0.458135 0.763100 0.070109 0.509410 -0.569379 1.072165 -0.422419 0.141841 0.458595 0.484412 0.087150 -0.105223 -0.196939 -0.123883 -0.325799 0.596910 -0.573205 -0.409839 -0.434191 -0.109191 0.300185 0.085428 0.468165 -0.062574 -0.333681 -0.259431 0.010960 0.179213 -0.435946 -0.071739 -0.164020 0.576563 0.204342 -0.196383 0.348703 0.018683 -0.112498 -0.299940 0.933654 -0.261465 -0.063808 0.423529 0.463910 -0.268208 -0.588614 -0.284808 0.130599 0.352098 -0.039824 -0.007435 0.011241 -0.056945 0.236222 -0.499025 0.364311 0.045572 -0.087398 0.068190 0.140415
1083 0.237068 0.213907 0.218931 -0.017560 0.118334 0.033930 -0.769223 -1.224853 -0.105256 -0.423965 0.191939 -0.211369 -0.419998 0.310410 0.324455 -0.053285 0.034781 -0.198875 0.012240 -0.752644 -0.450526 -0.090644 -0.290731 -0.381651 0.123857 0.314938 -0.071767 -0.297555 0.164957 0.559754 -0.295845 -0.014103 -0.491818 -0.651278 0.159085 0.110398 0.339419 -0.619351 -0.454903 0.001848 0.345415 0.012286 -0.456195 0.416505 0.333597 -0.128098 0.096946 -0.657723 -1.362976 -0.873790 0.385648 0.319809 0.234759 0.137318 0.041574 -0.122399 -0.012832 -0.247816 -0.624422 0.067853 0.377114 -0.140628 -0.236240 0.014647 -0.275824 0.063873 -0.403525 0.166948 0.083566 -0.393342 -0.331531 0.110136 0.395331 -0.230003 0.488098 -0.337193 0.480813 0.064059 0.764050 0.431321 0.166927 -0.091303 -0.395530 -0.374574 -0.405254 0.255680 -0.208126 0.196723 0.406832 -0.074615 -0.416173 0.175407 0.499444 0.260005 0.189757 0.163269 0.568320 -0.539639 -0.144200 -0.350367 0.372341 0.065320 0.403094 0.291847 0.056983 -0.296371 -0.156621 -0.325309 -0.754118 0.499352 0.202715 0.368681 -0.011569 -0.834141 0.273773 0.278494 0.094847 0.127189 -0.039233 -0.053548 -0.211571 0.393396 -0.610742 0.132292 -0.188649 0.368560 0.109794 0.287644
1980 -0.100963 0.096868 -0.087924 0.534470 -0.043491 0.135453 -0.027997 -0.703935 0.520331 -0.559918 -0.023910 0.070007 0.386646 -0.334514 0.649754 0.040650 -0.157843 -0.249577 0.071210 -0.438004 0.631956 0.195957 0.083954 -0.132819 -0.510888 -0.105295 0.160944 -0.245677 0.126981 0.247570 -0.735927 -0.496581 0.297734 0.239692 -0.146682 -0.514372 -0.015747 -0.226461 -0.228649 -0.001712 0.068535 -0.324399 0.121410 0.251133 0.403992 0.042198 0.083276 -0.182005 -0.746637 -0.655379 -0.241574 0.224085 0.766821 0.061980 0.353250 -0.425233 -0.033414 -0.342578 0.103363 0.506565 -0.252722 0.015699 0.450532 -0.454919 0.211238 0.516798 0.162678 -0.105796 -0.455268 -0.129897 0.105218 -0.130292 -0.091753 -0.014837 0.194866 0.253858 0.002447 0.349875 0.809880 -0.171476 0.065384 -0.277708 0.009807 -0.443467 0.230356 -0.007355 -0.149982 -0.094052 0.239951 0.724362 0.305196 0.277166 0.631599 -0.131925 -0.094033 0.095510 0.201123 0.031620 -0.384933 -0.326413 -0.174641 0.274298 -0.262887 -0.020808 -0.485622 -0.409601 0.124340 0.704274 0.287289 0.060378 0.377274 0.665302 0.060924 -0.918096 0.092605 0.133532 -0.098870 0.136378 0.252588 -0.013306 -0.093725 0.757639 -0.480081 -0.632047 -0.027991 -0.195973 -0.450447 0.124437
3043 -0.100023 0.214103 0.651729 0.747735 -0.278049 -0.456484 0.701390 -0.197181 0.362753 -0.305729 1.017970 -0.786939 -0.166267 0.168529 0.556685 0.322323 -0.395595 -1.020388 0.189589 0.132664 -0.051720 -0.561342 -0.126443 -0.570501 -0.325252 0.055525 0.057619 -0.370078 -0.449362 0.591479 0.184440 0.113299 -0.102888 -0.171863 0.058413 -0.363250 -0.097416 0.281014 -0.256065 0.061340 -0.326396 0.478103 -0.170907 -0.191880 -0.039906 0.021986 0.382587 0.092135 -0.699137 -0.053692 0.255501 0.480930 0.594040 -0.597651 0.764284 0.037972 0.275765 0.424381 -0.594829 0.570657 0.092840 -0.778685 0.611569 -0.205517 0.142239 -0.138685 -0.330111 0.176893 -0.235798 0.471070 0.508310 -0.315348 0.436974 -0.581256 -0.135039 0.012191 0.223922 0.120524 0.812987 -0.111437 -0.031978 -0.716455 -0.043309 0.523033 -0.636927 -0.257589 0.026913 0.238321 -0.007193 0.413721 0.050431 0.463192 0.136149 0.340858 0.026912 0.223079 -0.019815 -0.617007 -0.115113 -0.602730 0.174981 0.238968 0.703673 -0.114225 -0.014612 -0.035523 -0.100501 0.420796 -0.508309 -0.066817 0.663575 0.493258 -0.226299 -1.007947 0.327519 0.384335 0.497187 0.023917 -0.004839 0.186279 -0.229055 0.371364 -0.860840 -0.449031 -0.150032 0.248847 0.045760 0.169198
1634 0.092738 0.416725 -0.314697 -0.028170 0.034336 -0.218028 -0.730123 -0.749293 -0.337871 -0.097717 0.452156 -0.405973 -0.673598 -0.017931 0.344408 0.174683 0.099300 -0.503291 0.224736 0.033922 -0.564686 -0.027541 -0.085356 -0.059462 0.194771 -0.192354 -0.327480 -0.240929 -0.405508 -0.018127 -0.130687 0.305694 0.081812 -0.567426 -0.050407 -0.472363 0.184470 -0.130521 -0.374864 -0.143711 -0.166419 0.325364 -0.081574 0.329630 0.118856 -0.447117 0.102353 -0.453189 -0.939397 -0.244663 -0.105388 0.047905 0.606386 -0.085712 -0.107893 -0.046824 0.238423 -0.223733 -0.523288 0.239701 -0.261684 -0.207382 -0.144699 0.411531 0.424984 0.332928 -0.113925 -0.791720 0.447419 0.674359 0.481541 0.440814 0.659703 -0.199889 0.443078 0.213157 0.305933 -0.177091 0.829324 0.251601 -0.059857 -0.385157 -0.407058 0.081239 -0.671940 0.263233 0.206588 -0.354832 0.046720 -0.376496 0.301729 0.643324 0.211035 0.642590 0.208110 0.282169 0.016154 -0.268995 0.065245 -0.162566 0.452503 0.371596 -0.027289 -0.042692 0.309901 0.343902 0.321602 0.235535 -0.002339 0.348077 0.080560 0.330212 -0.201860 0.117430 0.001806 0.050642 0.384199 0.180297 0.354060 0.048921 -0.087139 0.923357 0.164650 -0.361933 -0.327244 0.104206 0.333167 0.364939
2006 0.163050 0.270279 -0.159030 0.802901 0.126208 -0.087630 0.114715 -1.043957 0.594557 -0.392739 0.087490 0.002320 -0.108311 -0.159964 0.385612 -0.088142 -0.618788 -0.181603 -0.094192 -0.481079 0.331582 0.246859 0.172247 -0.148136 -0.336967 -0.424373 -0.127295 -0.495867 -0.069128 0.304930 -0.375766 -0.276549 0.229883 0.477914 -0.233994 -0.041071 -0.562962 -0.227941 -0.161112 -0.050811 0.190754 -0.218508 -0.089817 0.065187 0.191752 0.088312 0.279647 -0.106038 -0.776968 -1.270874 0.040011 0.147452 0.710645 0.058098 0.190405 -0.059144 0.323530 -0.353148 -0.033973 0.601536 -0.070104 -0.313238 0.091693 -0.367957 0.207029 0.106037 0.094334 -0.120857 0.113674 -0.320839 -0.322480 -0.444699 0.126765 0.245095 -0.024711 -0.212139 0.178452 0.261876 0.674182 -0.064165 -0.016335 -0.363576 0.101588 -0.668321 0.402628 0.108070 -0.079617 0.167846 0.386641 0.487690 0.207840 0.148938 0.393999 -0.133679 0.050395 0.254210 0.320944 0.220362 -0.472997 -0.562580 0.125987 0.235733 0.035521 -0.297392 -0.223737 -0.628312 0.268993 0.866790 -0.158373 -0.104285 0.382798 1.095183 -0.187864 -0.601473 -0.166866 0.182508 -0.115708 0.198706 0.275160 0.084767 -0.257060 0.622762 -0.634526 -0.877049 0.348414 -0.029893 0.124317 0.292793
810 0.119170 0.009731 0.609030 0.210625 -0.025518 -0.558411 0.229856 -0.511757 -0.102054 0.061738 1.452365 -0.049865 -0.631714 0.125557 1.069492 -0.140195 0.069957 -0.763586 -0.118032 -0.501162 -0.417424 0.212807 0.333004 -0.139138 -0.796200 -0.709283 0.049308 -0.130893 -0.139467 0.365039 -0.359846 0.075409 -0.007109 -0.190006 0.388128 -0.380039 0.050002 -0.866581 -0.333385 0.171449 -0.316479 0.385486 0.235443 -0.343806 0.437548 -0.198253 0.122949 -0.463261 -0.561994 0.148980 -0.039172 -0.121166 0.577961 -0.390183 0.370496 0.156390 -0.259629 0.549185 -0.573513 0.008065 0.101230 -0.480316 0.806167 -0.239774 -0.241719 0.113378 -0.408894 0.219405 -0.624461 0.110931 0.061465 0.527961 0.167827 -0.472197 0.315843 -0.473214 -0.043520 0.279999 0.612434 0.535078 0.424347 -0.011239 0.048667 0.302265 -0.215192 -0.261646 0.067848 -0.032395 0.058713 0.045800 -0.334650 0.209327 0.072941 -0.064947 0.121388 0.455341 0.220710 -0.206496 0.467359 -0.245834 -0.202097 -0.112590 -0.144412 0.070860 -0.348045 0.179254 0.860480 -0.093740 0.038055 -0.129002 0.357583 0.188151 -0.470331 -0.304033 0.703192 -0.340947 0.463188 -0.234402 -0.171358 -0.284830 0.181746 0.605045 -0.105047 -0.105553 -0.223994 0.054732 -0.260521 0.214716
855 -0.352946 0.675465 0.344465 0.850286 0.467386 -0.694139 0.075004 -0.450452 -0.559815 -0.615255 0.123046 0.421991 0.011686 -0.380400 0.500511 -0.206658 -0.703676 -0.835614 -0.588937 -0.827574 -0.125738 -0.011844 -0.629627 -0.009581 -0.342980 -0.201291 -0.156155 -0.446405 -0.027641 -0.227140 -0.214297 -0.264786 0.188468 -0.176620 0.472782 0.297582 0.200583 0.009811 -0.261041 0.274569 -0.385526 -0.230225 0.593845 0.077611 0.602145 0.165990 0.489003 -0.031116 -0.597237 0.109412 0.804287 -0.039988 0.474293 -0.041318 0.175616 0.480773 0.274416 -0.244438 -0.694279 -0.183771 -0.115808 0.176157 0.573827 0.309208 -0.090353 0.054402 -0.102109 -0.280351 -0.333743 0.093575 0.115904 0.353456 -0.014769 -0.279319 0.355670 0.128237 0.028390 0.148008 0.523765 0.174058 -0.089456 0.091761 -0.324237 0.335631 -0.329085 -0.431779 -0.222575 -0.327014 -0.056610 0.380227 0.249522 0.096705 0.388814 0.406554 0.271943 -0.467967 -0.273607 0.383918 -0.439151 -0.378675 0.230684 0.338981 0.479296 0.050283 0.342974 -0.218726 -0.093085 0.182747 0.240988 0.463036 0.215692 0.415165 0.247135 -0.793256 -0.463566 0.259577 0.059984 0.296968 0.065786 -0.169526 0.032900 0.630601 0.074952 0.000813 -0.090641 -0.037820 0.556666 0.458571
769 0.057675 0.133160 0.157672 0.256918 -0.045147 0.082256 -0.067464 -0.919424 -0.111515 0.243701 0.290057 -0.563865 -0.515568 -0.330861 0.693481 0.148022 -0.096452 0.085570 0.063045 0.012192 -0.078169 -0.138618 0.281036 -0.359824 -0.250429 -0.302333 -0.035672 -0.264143 -0.109196 -0.032568 -0.674453 0.047352 -0.039886 -0.237393 -0.351714 -0.075785 0.033192 0.253791 -0.793159 0.389017 -0.552134 0.101890 0.135098 0.215199 0.318780 0.066326 0.382730 -0.253087 -0.426418 0.151174 -0.250320 0.336434 0.562463 0.208909 -0.212365 0.246321 -0.004475 0.186399 -0.426374 -0.127696 -0.051551 -0.121089 -0.057775 -0.293264 0.047220 0.519888 -0.527000 -0.390967 0.210805 0.329314 0.454811 0.306874 0.676537 -0.672130 -0.109029 0.490619 -0.115625 0.580972 0.241897 0.490954 -0.205585 -0.196763 -0.573186 0.010064 -0.256650 0.045231 0.713409 -0.056760 0.229499 -0.234625 0.379311 0.767694 0.215142 0.159906 0.065279 -0.387819 -0.142391 -0.027434 -0.099631 -0.131076 -0.033886 0.348197 0.164096 -0.140635 -0.236399 0.680224 0.474591 0.015091 0.143314 0.194294 0.222848 -0.050542 -0.165160 -0.059894 -0.120151 -0.218874 0.162590 0.487991 -0.479364 0.372703 -0.175075 0.639790 0.142687 -0.135321 -0.267627 0.297118 0.455754 0.347183
608 0.110921 0.102014 0.351297 0.241402 -0.277531 -0.048457 0.565832 -1.084458 0.686087 -0.493650 0.301487 -0.006367 -0.039234 -0.130694 0.338072 -0.062685 -0.144018 -0.352080 -0.127814 -0.430175 -0.467263 0.520028 -0.215620 -0.023499 -0.210236 -0.054845 -0.118667 -0.414415 -0.484430 0.204045 -0.193564 0.077681 0.461331 -0.317217 0.252759 0.046187 -0.028862 0.170747 -0.325508 -0.076795 -0.142136 -0.007096 -0.122437 0.750249 0.412629 0.028243 0.333449 0.076310 -0.286075 0.030618 0.472680 -0.415305 0.139769 0.210298 0.032845 -0.056335 0.880232 -0.150258 -0.373750 0.180314 0.384101 0.117172 -0.202579 -0.002811 0.039884 0.241855 -0.092465 0.296229 -0.379978 -0.154181 -0.037066 0.142155 0.984995 -1.012375 0.186622 -0.303324 -0.453152 0.043617 0.227805 0.409031 0.197773 -0.590611 -0.408645 -0.232514 -0.528450 -0.383563 0.269388 0.387714 -0.085166 0.455790 0.445713 0.571937 0.106100 -0.545945 0.225040 0.040393 0.097323 -0.544977 0.087220 0.205510 0.183918 0.358230 0.208479 0.134066 0.420372 0.380333 0.119075 -0.132762 0.455285 0.238760 -0.055616 0.075233 -0.241237 -0.038785 0.431187 0.187006 -0.064619 0.479127 -0.331460 -0.421855 -0.208449 0.421086 -0.478866 -0.193022 0.610877 -0.193391 -0.023160 -0.256082
2137 -0.298512 0.424867 0.079839 1.000017 0.083031 0.623994 0.407005 -0.929109 -0.214990 -0.257865 1.209721 -0.253377 -0.133992 -0.013811 0.244629 0.138600 -0.692551 -1.145306 -0.481347 0.048005 -0.510473 -0.402380 0.689318 -0.203994 -0.600418 -0.011589 -0.224484 -0.533547 -0.606918 0.301037 0.353303 -0.131815 0.238174 0.175307 0.308864 0.557264 0.428119 -0.854799 -0.272447 -0.372548 -0.045314 -0.667459 0.258324 0.159270 0.455154 0.521636 0.898204 -0.619652 0.087512 -0.456581 0.008041 -0.502143 0.334725 0.415774 0.042224 0.639993 0.504194 -0.156900 -0.408087 -0.269210 -0.486847 0.375790 0.586920 -0.858622 -0.081380 0.124171 -0.377762 -0.345050 -0.798002 -0.468766 0.820140 0.465057 0.248432 -0.895255 0.068577 0.308362 0.622858 -0.255768 0.998472 -0.060919 -0.104616 -0.360059 0.117514 -0.678162 0.186421 0.419634 -0.559330 -0.139237 -0.138464 0.129365 -0.118347 0.970764 0.232110 0.052803 0.055887 0.606821 -0.072987 -0.134600 0.220253 -0.181952 -0.200556 0.156214 -0.069235 0.604390 0.601827 -0.393929 0.637881 -0.350139 0.153209 -0.345841 0.869317 0.976347 -0.488684 -0.882707 -0.140447 0.181977 -0.128615 0.372988 -0.083289 -0.075641 0.390070 0.478852 -0.564508 -0.429583 -0.257546 0.493358 -0.047047 0.139618
916 0.036695 -0.033564 0.516576 0.141771 0.312172 -1.105543 0.233693 -0.500781 0.029238 -0.669276 0.646821 -0.256141 0.048971 -0.044778 0.542355 -0.109501 -0.223790 -0.898001 -0.627271 -0.342933 0.259884 0.413625 -0.192273 -0.146566 0.223437 -0.617850 -0.589070 -0.435443 -0.321840 0.189018 -0.271737 -0.465500 -0.164342 -0.243912 0.474195 -0.215771 0.157952 0.129705 -0.555858 0.368078 -0.111020 -0.232009 -0.091103 -0.154295 -0.072373 -0.027768 0.409786 0.113331 -0.190853 -0.793880 0.122939 0.587486 0.634005 -0.124614 0.221211 0.443569 -0.690211 -0.283759 -0.482479 0.093538 0.204055 -0.351127 0.218133 -0.402694 -0.234390 0.048021 -0.594020 -0.722877 0.125150 0.195462 0.456150 -0.051210 0.391610 -0.577893 0.405518 -0.023258 -0.042871 -0.114359 0.362952 0.495276 0.274580 -0.014702 0.135939 0.186768 0.169185 -0.761245 -0.214346 0.266519 0.087377 0.431401 0.292447 0.162898 -0.085759 -0.030874 -0.345474 0.422118 0.305286 0.034316 -0.301664 0.132287 -0.038819 0.130917 -0.056718 0.308682 0.631466 -0.261116 0.468565 0.208038 -0.073517 -0.006184 0.307162 0.254784 0.098305 0.118559 0.190600 0.512049 -0.474426 0.010973 0.414508 0.041246 0.450297 0.658309 -0.291163 0.213214 -0.097568 0.062737 0.462478 0.001472
51 0.419250 0.110624 0.312757 0.669952 -0.350979 0.267243 0.399733 -1.046404 0.588954 -0.545538 0.254391 0.150099 0.078729 -0.367216 0.351877 0.067439 -0.273750 -0.091631 -0.459979 -0.277923 -0.075498 0.085921 -0.024972 0.122934 -0.281424 -0.068585 -0.227455 -0.376906 -0.551242 0.406036 -0.364498 0.302714 0.220897 0.014702 -0.128485 -0.082262 0.068294 0.316139 -0.700666 0.069110 -0.147931 0.178527 0.142767 0.294332 0.316067 -0.122088 0.512909 0.016803 0.146921 0.029052 -0.209828 -0.483919 0.253446 0.162375 0.025902 0.058134 0.141003 -0.419629 -0.066981 -0.044550 0.163721 -0.032488 -0.211058 0.280032 0.162070 0.141194 -0.236045 -0.062092 0.042467 0.024691 0.362796 -0.050833 0.735891 -0.484809 0.131022 0.149726 -0.015681 -0.263112 0.340623 0.267362 0.225807 -0.853757 -0.353284 -0.049016 -0.331914 -0.541554 0.340234 0.215337 -0.145524 0.365591 -0.168324 0.598855 0.321055 0.054420 0.441307 -0.519897 -0.547193 -0.401803 0.299359 -0.291193 0.096688 0.601701 0.257604 -0.082179 0.110737 0.333510 -0.093625 -0.190801 0.376375 -0.257749 0.087585 0.070476 -0.249821 -0.090086 0.157516 -0.076205 0.069636 0.105999 -0.916930 -0.415757 -0.411235 0.549728 -0.289724 -0.270505 0.138384 -0.069440 0.075456 -0.205815
