65 128
0 0.245587 0.129620 -0.393026 0.131425 -0.022637 0.892826 0.697055 0.131355 -0.635401 0.238381 -0.289200 -0.655259 -0.743960 0.593843 0.091597 -0.307477 -0.591495 0.603327 0.027254 -0.677312 0.496278 0.347808 0.501735 0.353913 -0.351836 0.267309 -0.476661 -0.084509 -0.449547 0.146805 -0.492773 0.178837 0.316722 -0.503098 -0.531824 0.553403 0.654446 0.069798 -0.300446 0.087362 -0.501800 -0.225789 0.517028 0.475149 0.899509 -0.196813 -0.106378 0.125903 0.133632 -0.589831 0.151077 -0.214775 -0.062569 1.091955 0.023212 0.350559 -0.618360 -0.928651 0.250585 0.416020 -0.448148 -0.096262 -0.981369 0.240481 -0.159818 -0.394762 -0.071486 -0.043619 -0.633443 0.070696 0.826092 -0.626792 -0.011759 -0.064983 0.770829 -0.549872 0.008590 -0.375488 0.402297 -0.587351 -0.556837 0.172699 -0.177838 -0.262459 0.076860 -0.301169 -0.661247 0.331713 0.086703 -0.652671 -0.028829 -0.139076 -0.247520 -0.824141 -0.937637 0.472173 -0.268170 0.318437 -0.053585 -0.269135 0.046194 -0.693915 -0.154339 -0.293158 0.421668 -0.561119 0.078064 0.144516 -0.438780 -0.389215 -0.532715 -0.087748 0.090166 -0.143551 -0.146626 -0.372123 0.177229 0.041618 -0.178809 -0.409180 -0.028464 -0.259824 0.657376 0.360855 -0.369670 -0.126446 -0.330469 0.510583
1 -0.185518 0.242597 0.173067 0.253076 -0.047093 -0.113114 0.554461 -0.185042 -0.578145 0.123503 0.182313 0.180164 0.631870 0.053164 0.702857 -0.174186 -0.294944 0.326218 -0.244762 0.392802 -0.227657 -0.092092 0.031313 0.460731 -0.407789 0.062680 -0.434105 -0.462285 -0.773952 -0.207196 0.102099 0.149948 -0.006674 -0.477490 0.172701 -0.526641 1.007477 0.164362 -0.167024 -0.325934 -0.082843 -0.008385 -0.176782 0.138271 0.001868 -0.273547 -0.562318 0.499003 -0.012348 0.562227 0.976705 0.199524 0.000192 0.012227 -0.364291 0.129094 0.265762 -0.274796 0.582292 -0.611506 -0.158486 0.067677 -0.869929 -0.030812 -0.401473 0.610225 0.449008 -0.193511 0.063151 -0.058783 0.058452 0.084270 0.153353 0.339149 0.092572 -0.220112 -0.329352 0.466529 -0.140408 -0.226321 0.701952 0.195552 -0.332409 -0.284221 0.381861 0.120699 -0.108381 -0.315855 0.289336 0.296512 0.450343 -0.107170 0.674251 0.376283 -0.487056 -0.071495 -0.314958 -0.106601 0.307048 0.563708 1.007053 -0.475268 -0.391097 -0.256690 -0.479582 0.409999 0.674331 0.314400 0.205442 0.261275 -0.227403 0.382328 -0.149597 0.120720 0.035406 0.473701 0.389766 -0.186196 0.147430 -0.045704 -0.701785 -0.281426 1.047335 0.200625 -0.305520 -0.418496 -0.224435 0.009876
2 0.303805 0.213784 0.812510 -0.293302 -0.746354 -0.492295 0.438212 -0.236697 0.521026 -0.407479 0.289242 -0.358979 -0.236210 -0.331887 -0.579294 -0.253561 -0.231960 -0.153137 -0.032477 -0.079211 -0.665239 -0.575931 0.378868 0.689722 -0.630175 0.223354 -0.309987 -0.554230 -0.232900 0.132406 0.549247 -0.058148 0.490873 0.255754 -0.201371 -0.117522 0.956066 -0.436314 0.386148 0.052639 -0.406581 -0.299603 0.728856 -0.047856 -0.078147 -0.028818 0.572239 -0.113832 -0.059065 -0.126235 -0.122134 0.105278 -0.385672 -0.337134 -0.041811 0.198241 -0.931427 0.022835 0.151726 -0.113776 -0.266700 -0.053393 -0.332722 0.584005 0.034922 0.507853 -0.390942 0.296058 0.314791 -0.434128 -0.185713 0.366232 0.596552 0.186842 0.451874 0.271382 0.113153 0.223682 0.666804 -0.646683 0.023412 -0.544988 -0.551550 0.180098 0.314961 0.707538 -0.436253 -0.878199 -0.428135 -0.353203 -0.958655 0.644465 -0.042696 -0.048744 -0.815407 -0.262915 -0.330152 -0.144032 0.380092 -0.731133 -0.052298 -0.064548 -0.208059 0.973691 -0.118372 -0.017786 0.477189 -0.064679 0.118396 0.985148 0.077777 0.461156 -0.318199 -0.668042 -0.282572 -0.496752 -0.091645 0.144062 -0.340566 0.312409 0.412893 -0.543713 -0.115555 0.053238 0.474051 -0.687319 -0.407218 0.112068
3 0.053951 0.693088 0.859925 0.435074 -0.387008 0.608120 0.219978 0.355593 -0.179758 -0.152114 -0.648957 -0.177507 0.091895 0.249535 0.019454 0.520889 0.268210 0.588841 -0.186436 0.052821 -0.686994 0.337377 0.449491 0.279505 0.185192 -0.013295 -0.518937 -0.448110 0.169215 -0.744475 -0.523920 -0.293115 0.410997 0.329740 0.295439 0.031184 0.445094 -0.024812 -0.426385 0.300522 0.432128 -0.329441 -0.053792 0.408590 0.290203 0.124401 -0.089550 0.221866 0.180822 -0.054827 0.185829 0.042947 0.106292 -0.115489 -0.299363 -0.145352 0.036233 -0.412661 0.271276 0.189626 -0.727329 0.006154 -0.349480 -0.067444 -0.050062 -0.105550 -0.403430 0.083981 -0.108344 0.074197 0.143523 0.530800 -0.369397 0.652321 0.339994 -0.104466 0.237155 0.236538 0.397284 -0.416058 0.142321 0.124537 -0.182207 0.099366 -0.123214 0.389569 -0.641916 -0.946621 0.404020 0.221785 -0.206056 -0.265574 -0.018632 0.020517 -0.486577 -0.001330 0.410748 0.248184 0.624117 0.160085 0.124077 0.237267 0.213372 0.253646 0.063964 0.687671 -0.113803 -0.027682 -0.094121 -0.483121 -0.014194 0.474139 0.030999 -0.388754 0.143307 0.269594 0.126123 -0.523998 -0.137426 -0.336904 0.136185 -0.580468 0.037135 0.072222 0.085489 -0.219332 -0.850832 -0.600896
4 -0.087944 0.259104 -0.596996 -0.061364 -0.300175 -0.725245 0.332396 0.409191 -0.217483 0.254198 0.268839 0.168960 0.022251 0.494648 -0.266355 0.301136 -0.221320 0.483300 -0.499743 0.194978 -0.427106 -0.494602 0.621385 0.677651 -0.302860 -0.758962 -0.237779 0.273841 0.528323 0.672570 0.372213 0.146298 0.224627 -0.251794 0.698357 -0.162712 -0.044033 -0.940738 -0.726103 -0.501419 -0.492835 -0.279078 -0.006876 -0.123039 -0.160666 0.398519 0.181304 -0.012603 0.109367 -0.141512 -0.682291 -0.537662 0.484483 0.267221 0.120300 0.242453 -0.153848 0.122507 -0.247657 -0.379488 -0.452964 0.662209 -0.526027 -0.566029 0.314453 -0.043910 0.208406 -0.493445 0.389394 -0.611590 0.009697 -1.100377 0.768395 -0.043960 0.074983 -0.456121 -0.087410 0.874409 0.339345 0.514121 0.397948 -0.214661 0.222619 0.867968 -0.532892 0.567734 -0.728461 -0.266960 0.150512 -0.629748 -0.248133 -0.008573 -0.557169 -0.303829 0.020054 -0.158256 -0.255838 -0.277508 0.217866 0.438139 0.276526 0.292936 -0.644900 0.358268 0.437400 0.474719 0.243734 -0.210703 0.151481 -0.317525 -0.585060 0.404322 -0.622875 -0.341506 -0.208353 0.271808 -0.043783 0.341230 0.676419 0.180584 0.582354 0.151732 0.214504 0.262707 0.131567 0.246118 0.616775 0.316752
5 -0.341542 0.014445 0.374131 -0.351061 -0.090820 0.368076 -0.186228 -0.113978 -0.527096 -0.130618 0.535763 -0.312268 -0.679815 0.013564 0.305895 -0.188475 0.018434 0.245448 -0.099850 0.053800 -0.656067 -0.625548 -0.585104 -0.406413 -0.380746 0.454073 -0.360846 -0.180243 -0.733896 -0.376166 -0.428857 -0.112116 0.742423 0.669745 0.493351 -0.393382 -0.394270 -0.221614 0.260720 0.096925 -0.388535 0.673630 -0.485619 0.852163 -0.058347 0.429427 1.290812 0.533606 0.038326 -0.515084 -0.157817 0.113391 -1.364823 0.034045 -0.332732 -0.000337 -0.293855 -0.368767 -0.022783 -0.067578 0.541153 0.073535 0.203524 0.274414 0.675803 0.048528 -0.608894 -0.838257 -0.401128 -1.264490 -0.551313 0.615039 -0.238316 -0.717657 0.124246 -0.197169 0.624071 -0.905770 -0.215299 0.529006 0.079950 -0.436087 -0.124950 0.050332 -0.047797 -0.190943 -0.463948 -1.042740 -0.157908 -0.460355 -0.655615 1.066595 -0.459647 -0.189842 -0.374035 0.618593 -0.116267 1.141555 -0.400250 -0.034573 -0.169079 -0.094002 0.741654 0.466612 0.072483 -0.332998 1.099693 -0.164106 -0.127253 0.323614 -0.135382 0.777975 0.138422 0.157596 0.404433 -0.100712 -0.906634 -0.399589 0.238578 0.262220 0.186986 -0.119572 0.369745 -0.034439 -0.418470 0.132893 -0.232593 0.634762
6 -0.066062 0.351203 0.093902 -0.002822 -0.466604 -1.043898 0.370280 -0.227211 -0.157704 -0.574172 0.013799 -0.361266 -0.052023 -0.010650 -0.739155 -0.228570 0.381867 -0.364338 0.071922 0.793383 0.033852 0.232767 -0.079937 0.735074 0.750745 -0.181717 -0.292951 -0.718545 -0.735059 -0.194941 0.063612 -0.240514 0.287032 0.071466 -0.708520 -0.283497 0.260640 0.286022 0.360239 0.167780 -0.061325 -0.180333 0.082164 0.256672 -0.687456 -1.218476 -0.095495 -0.069492 -0.551893 0.086961 0.106957 -0.003678 -0.113667 0.214040 0.577493 0.314773 -0.105911 0.396312 0.122256 -0.276890 0.211424 0.840359 -0.256814 0.395332 1.173167 0.266330 -0.318471 0.735707 -0.230422 0.180308 0.654589 -0.197636 0.230098 0.890718 1.038063 0.442802 -0.175901 0.372231 0.874673 0.192578 -0.525652 -0.461471 -0.051819 -0.264298 -0.636269 0.521074 0.886568 -0.153280 -0.628040 0.176870 -0.448778 0.216391 -0.329957 0.198379 0.306888 0.388178 0.252736 -0.165745 0.370972 0.610595 -0.143261 -0.346779 -0.565484 0.264839 -0.391335 0.159556 0.751727 0.684091 -0.121829 -0.440960 0.193392 -0.218474 0.745835 0.132759 0.227473 -0.055536 -0.996876 -0.117638 0.333646 0.062176 -0.568896 0.529603 -0.008080 0.192046 -0.542031 -0.456037 -0.084687 -0.024231
7 0.035864 0.265720 -0.289426 -0.354461 -0.230855 1.013955 -0.351280 0.610461 0.241072 0.290325 0.351104 -0.502119 0.048407 -0.035162 -0.210455 -0.443475 0.063854 0.520733 0.143244 -0.336070 0.031253 -0.751099 -0.172636 0.464323 0.205432 0.782863 -0.300782 0.194026 -0.641695 0.256348 -0.259282 -0.049896 0.366420 0.488446 -0.441535 0.930598 0.746864 -0.367176 -0.871316 0.112867 0.064422 -0.812018 -0.297662 -0.663322 0.777289 -0.803326 -0.384963 -0.313441 0.169440 0.177610 -0.209265 -0.792162 -0.009154 1.175472 0.257822 0.471538 0.619636 -0.503303 -0.403721 -0.343259 -0.718359 -0.213777 -0.774149 -0.048265 -0.013436 -0.286131 -0.152034 0.109228 0.301950 -0.898219 0.100134 -0.096682 0.409930 0.300780 0.324890 0.181359 -0.677606 0.223049 -0.252780 0.771366 0.161120 -0.478364 -0.021870 -0.732694 0.441800 -0.409330 -0.450489 -0.394121 0.421844 -0.045868 0.141515 -0.246460 0.030856 -0.246530 -0.201375 0.323328 0.335930 -0.855650 0.319520 0.311225 -0.127580 -1.067282 -0.417566 0.128233 -0.176244 0.164582 0.171154 0.094853 0.569467 -0.347130 0.038266 0.023925 0.210230 -0.190846 0.123234 0.258822 0.380213 -0.406089 -0.067871 -0.905424 -0.227098 -0.320384 0.575174 0.357192 -0.036704 -0.533672 0.115393 0.213510
8 0.321361 0.289758 0.699946 0.233067 -0.957430 -0.196670 0.126616 -0.329897 -0.192801 0.548606 0.113930 -0.134139 -0.135793 -0.207478 0.088654 0.354410 -0.464123 -0.119957 0.081789 0.603934 0.484960 -0.804992 0.196728 -0.399304 -0.624034 0.264605 -0.065415 -0.317541 -0.415342 0.279565 0.045815 0.274343 0.326219 0.127586 0.344036 -0.356521 0.264673 -0.348090 -0.201284 -0.511391 -0.357498 0.224436 -0.174465 0.069692 0.260140 -0.615351 0.303791 0.938613 -0.663858 -0.431417 -0.272595 -0.076126 0.075645 0.389026 -0.327840 0.445986 -0.113335 -0.285342 0.279401 -0.309980 0.381905 -0.234273 -0.177433 -0.489163 -0.709854 0.278104 -0.215610 -0.080404 -0.431626 0.001972 -0.165026 -0.484254 -0.388349 -0.139468 0.388684 0.300330 -0.307159 0.612380 0.105019 -0.742009 0.447047 -0.279414 0.252396 0.202831 0.127732 -0.001754 -0.657147 -0.119226 0.592924 -0.328474 0.140480 0.197261 0.151948 0.144023 -0.668340 -0.036523 0.249619 0.069898 0.311958 -0.148584 0.586763 -0.179138 -0.692211 -0.423558 -0.287138 -0.664277 0.039415 -0.093728 -0.077007 0.107912 -0.491665 -0.271254 -0.213061 -0.664621 0.028252 -0.503918 0.469357 -0.729045 0.135992 -0.020038 -0.901554 -0.356451 0.213768 -0.434804 -0.398128 -0.208771 0.281583 -0.339645
9 0.350027 -0.810708 -0.238542 -0.179020 0.200231 -0.238567 0.020716 0.383618 0.101607 0.212041 -0.183647 0.301726 -0.123234 0.621135 0.595071 -0.058939 -0.636247 -0.090082 -0.115667 -0.638087 -0.871992 0.539997 0.254883 0.422120 -0.307933 0.063495 -0.815022 0.439852 -0.166366 0.167721 0.341851 0.061578 1.084581 0.176947 0.278936 -0.073784 0.014648 -0.698086 -0.097682 0.068419 0.221959 0.081704 0.262120 0.420476 0.268971 -0.042238 0.722228 0.441052 0.141737 0.430022 -0.063464 0.479030 -0.030678 0.682697 0.425550 -0.188481 -0.741273 -1.104736 -0.023738 -0.740883 0.155013 0.466285 -0.089894 -0.269578 0.361516 0.550197 0.325650 0.465235 -0.323519 -0.507347 0.346417 -0.530626 0.693472 0.377354 0.111557 -0.307836 -0.145986 0.278647 0.016672 -0.214724 0.176827 -0.328686 -0.005827 0.620553 0.193674 -0.513878 0.011852 0.011867 0.012030 -0.852524 -0.052688 0.477562 0.508222 -0.201832 -0.093926 0.016532 0.337088 1.004077 0.810924 -0.019484 0.718342 0.212414 -0.237708 -0.091582 0.391451 0.032756 -0.504254 -0.070474 0.420427 -0.504642 -0.347637 0.374230 -0.119312 -0.242442 -0.040871 0.489409 0.434497 -0.083923 0.493329 -0.135253 -0.407361 -0.444934 0.332411 -0.473804 0.580194 -0.193798 0.153238 -0.072560
10 0.196580 0.237330 0.628774 0.184659 -0.487270 0.201514 -0.736868 0.269760 0.015292 0.036241 -0.031869 -0.562504 0.194535 0.503330 -0.119505 0.617570 0.040975 0.391407 -0.583668 -0.104338 -0.144071 -0.517560 -0.085797 -0.107608 0.619631 0.256558 0.693303 -0.455419 -0.447154 -0.526218 -0.255973 -0.181574 0.380667 -0.069500 -0.230606 -0.375193 0.019048 -0.787229 -0.901699 -0.476571 0.100426 -0.814961 0.491011 0.093731 0.514494 -0.360659 0.874673 0.693518 0.348640 0.029544 -0.325856 -0.344398 0.041886 0.354128 0.820207 -0.225015 0.337552 -0.514471 -0.152802 -0.786006 0.063532 0.303258 0.027433 0.016909 -0.327939 -0.510460 0.299820 -0.279266 -0.905650 -0.597853 0.498665 -0.940668 0.999291 0.463702 -0.694670 -0.131892 0.843996 0.961287 -0.027214 0.067185 0.879908 -0.321359 -0.107825 0.097486 0.020871 0.086931 -0.606067 0.310828 0.187060 -0.582794 -0.509106 0.291359 -0.013573 0.474773 -0.455250 0.357806 -0.461817 0.205671 -0.721508 0.496208 -0.158140 -0.373405 -0.306222 -0.530037 0.626679 0.244254 -0.140765 0.318351 -0.169310 -0.166852 -0.273332 -0.359933 0.196579 0.462320 0.242161 -0.354558 -0.132189 -0.638695 -0.137628 -0.270290 -0.068957 0.288845 -0.140220 0.059252 0.016245 -0.009877 0.538245 -0.367848
11 -0.614687 0.335573 0.104320 0.050318 -0.367588 -0.160599 -0.222872 0.229645 -0.118228 0.214249 0.086608 -0.587210 -0.474184 0.724119 -0.534146 0.732046 -0.188404 -0.175387 -0.626705 0.055262 -0.464377 -0.046238 -0.012408 -0.941961 0.017755 0.099465 0.079807 -0.305980 -0.322517 0.029245 0.305573 -0.317930 -0.019692 0.385813 0.829028 -0.483799 -0.466683 -0.533685 0.167985 -0.340455 -0.248039 -0.534251 0.641264 0.515200 -0.281125 0.085203 0.000976 0.137236 0.072095 -0.245047 0.089284 0.451925 0.453926 0.212888 0.517925 -0.072907 -0.029305 -0.461833 0.330968 -0.769696 0.356640 -0.424674 -0.527786 -0.776511 0.821061 0.826227 0.017780 -0.133809 0.441594 -0.344886 -0.223298 -0.178884 0.398945 0.047335 -0.039259 0.473337 -0.138751 0.214112 0.380575 0.302228 0.305841 -0.053072 0.201443 0.145014 0.570079 0.914466 0.114568 0.386696 0.020916 -0.435002 0.094815 -0.051154 0.543892 -0.483202 -0.174005 0.039565 -0.429659 0.792088 0.273688 0.798615 -0.666035 -1.049888 -0.508680 -0.508620 0.309237 -0.143019 -0.100160 -0.451969 -0.500543 -0.680502 -0.157736 0.158893 -0.228854 -0.051429 0.108356 -0.446162 0.356415 0.039497 0.099500 0.089363 -0.404306 0.532935 0.829012 -0.520096 0.101412 0.318220 -0.237260 -0.052388
12 -0.168698 -0.896970 -0.194298 0.240633 -0.608316 0.345533 0.417550 -0.531898 -0.488596 -0.164095 -0.348151 -0.409395 -0.327281 0.097061 -0.019380 0.096763 0.374400 0.265416 -0.231670 0.311607 -0.375744 0.344527 0.205966 0.650179 -0.966698 0.045403 0.004325 -0.225596 0.216592 0.551942 -0.276806 0.008356 0.270204 0.190756 -0.025694 0.607913 -0.512188 -0.138237 0.058567 0.154608 -0.174344 0.163774 0.485414 0.564692 -0.122524 0.082867 0.681881 -0.417519 0.174130 -0.288591 -0.011457 -0.224301 0.041723 -0.038135 0.179310 -0.185017 -0.594933 -0.397958 -0.021274 -0.539095 -0.246796 -0.132022 -0.373048 -0.365996 0.349367 0.563730 -0.331708 0.200820 0.141430 -0.287407 -0.080499 -0.009865 0.737789 0.073570 -0.051055 -0.986684 -0.277588 -0.232076 0.094773 0.387515 0.277151 0.025884 -0.224224 0.384345 0.120964 -0.350269 -0.180608 0.334887 -0.128882 -0.369556 -0.236677 0.297386 -0.242334 -0.582788 -0.118702 0.120079 -0.184865 0.474055 0.185955 0.706492 0.258799 -0.597561 -0.084335 -0.169139 0.150534 0.218053 0.582379 -0.684049 -0.207899 -0.273811 -0.853451 0.750056 0.402073 0.037660 0.179133 0.200800 -0.066824 -0.208833 -0.104029 0.142036 0.038148 -0.535191 -0.126450 -0.664158 0.094746 -0.107312 0.068648 0.042758
13 -0.333127 0.796860 0.069048 -0.047331 0.221911 0.134869 0.273617 -0.614186 0.479980 -0.368048 0.050320 0.313729 0.212603 -0.001096 -0.051885 0.253283 -0.562778 -0.476468 -0.696419 -0.057686 0.037214 -0.424146 0.382172 0.580298 0.044379 -0.881069 -0.633148 -0.077078 -0.363398 -0.188937 0.870737 -1.004162 0.884077 0.032527 -0.124486 0.111754 -0.337166 0.256603 0.183338 0.211954 -0.765475 -0.162180 0.424797 0.364398 -0.347400 -0.265281 0.650756 -0.484587 0.046642 -0.329006 -0.759571 0.005721 0.073921 -0.465641 0.012150 -0.345550 -0.366850 -0.815586 0.142482 -0.263042 0.316365 0.488297 -0.187571 0.007607 0.268320 -0.216952 0.031809 0.196519 0.349408 -0.114625 1.174909 0.550683 0.536498 -0.469260 0.211922 0.597810 -0.484887 0.435403 -0.114167 -0.024973 0.483178 -0.022549 -0.273735 0.542649 0.172515 0.452595 -0.472038 -0.159596 0.066288 -0.174168 -0.446645 -0.187768 0.074578 0.046195 0.056585 -0.200743 -0.640567 0.379395 0.314145 0.226339 0.407334 -0.129446 0.104590 -0.336022 -0.083421 0.345884 -0.790194 -0.443530 -0.241376 0.702523 -0.379342 0.574671 0.269262 -0.370530 0.347515 0.058052 0.203700 0.057306 0.391230 -0.107427 0.111443 0.087386 0.284956 0.205023 0.249672 0.369296 -0.394965 0.313182
14 0.538051 0.581565 0.244679 -0.372339 0.216093 0.522450 -0.235367 0.724231 -0.198161 -0.469038 -0.022812 -0.561691 -0.584840 0.633152 0.162187 -0.144393 -0.358048 0.192504 0.686944 -0.188650 -0.145277 -0.653986 -0.590632 0.025424 -0.169062 0.090983 0.175220 -0.351890 -0.641511 -0.302260 -0.075986 -0.150554 0.923061 -0.098984 -0.289342 0.763059 0.020744 -0.623793 0.572115 0.285542 0.450376 0.017954 0.251741 0.350864 1.141622 -0.081913 -0.130980 0.598993 -0.082056 0.007920 -0.310679 -0.457330 -0.151689 -0.733789 -0.235830 0.112146 0.249120 -0.547838 0.179902 -0.177991 0.630623 -0.697218 -0.383312 -0.011560 0.392409 0.482470 -0.440658 -0.368899 0.258768 -0.388681 0.501072 0.066802 0.021277 -0.161681 0.144820 -0.676612 -0.831704 -0.325147 0.265391 0.694804 -0.396324 -0.072956 -0.376889 0.107530 -0.249740 -0.146132 -0.385146 -0.532397 0.286406 0.958027 -0.400174 0.107214 -0.047312 -0.048930 -0.679063 0.901864 -0.096426 -0.520945 0.280765 0.813525 -0.060066 -0.147398 -0.776294 -0.563540 0.356678 0.780639 0.038874 0.328013 -0.180070 -0.292171 -0.244317 0.235518 0.323456 0.117661 -0.462477 0.102593 0.073169 -0.685543 0.287124 0.003627 -0.620187 0.345235 -0.351875 -0.542749 0.025508 0.267884 -0.551258 0.543457
15 -0.838562 -0.089570 -0.125354 -0.314922 -0.067010 0.361353 -0.170607 -0.578908 -0.531534 -0.265454 -0.531960 0.084214 -0.709053 0.435134 0.024072 0.508052 -0.356307 -0.782991 -0.398531 0.729190 -0.613292 -0.285623 0.990425 0.280204 0.211398 -0.209483 0.006925 -0.204578 -0.158323 -0.421645 0.537289 0.155894 0.404944 -0.343879 -0.091295 -0.309921 0.881835 -0.123698 0.244752 -0.274067 -0.331434 0.193828 0.029623 0.440577 -0.243661 -0.980778 0.131053 0.479717 -0.538703 0.741621 0.120933 -0.476704 0.606805 0.526644 0.363435 0.292139 0.046849 0.244813 -0.409997 0.079393 -0.152471 -0.035050 -0.641321 0.597203 0.089054 0.644660 -0.548861 0.115863 0.001597 0.214907 0.138092 0.868107 0.462977 -0.466909 0.205596 -0.629559 -0.212901 0.540819 0.770179 0.126902 -0.169101 -0.522666 -0.177593 0.454047 0.017358 -0.260381 -0.397583 -0.243067 0.058455 -0.307928 -0.282872 -0.433409 -0.330265 0.546846 0.184351 0.547298 -0.301894 0.331609 0.054956 0.918714 0.340413 -0.110586 -0.104521 -0.401952 -0.016340 -0.326266 0.022612 -0.316913 -0.010122 0.290405 -0.480135 0.090028 0.455490 0.251137 -0.101256 0.060845 -0.018850 -0.082328 0.053430 0.748254 -0.513682 -0.198834 0.225899 -0.033486 -0.011164 -0.814330 -0.338996 0.771298
16 0.135884 -0.566600 0.438857 -0.418377 -0.571940 -0.405262 -0.503220 -0.320070 -0.026822 -0.157591 0.142492 0.122032 0.008879 0.476984 0.175748 -0.009593 -0.363158 0.178333 -0.728485 0.168282 0.141416 0.082167 -0.012678 -0.202223 -0.132949 -0.004026 0.219888 -0.610994 0.100223 0.056844 0.366561 -0.347521 0.502133 -0.256277 -0.246564 -0.309610 0.311320 -0.594428 -1.047257 -0.016403 0.158948 -0.682036 0.622938 0.099699 0.002723 0.050171 0.694882 -0.099596 -0.105866 0.117718 0.528051 0.236395 0.104934 0.866240 -0.026799 -0.640756 0.604581 -0.771843 0.047051 0.167453 -0.123677 0.076797 -0.242850 -0.442216 0.624573 0.432296 -0.524099 -0.663235 -0.390980 -0.164383 -0.226068 -0.219740 -0.158422 -0.143894 0.362443 -0.009931 -0.340786 0.389918 0.229146 -0.710645 -0.002515 -1.008818 -0.348170 0.099164 0.721625 0.294920 -0.256528 -0.733871 -0.076714 -0.240348 -0.644160 -0.374533 0.085667 0.076823 0.327445 -0.762648 -0.570687 -0.283456 0.245826 0.165413 0.204051 -0.004143 -0.295272 -0.380353 0.124337 0.059690 -0.015201 -0.319065 0.359814 0.015660 0.111179 0.190750 -0.104062 -0.051567 0.171682 -0.317988 -0.498601 -0.592902 0.089486 0.481123 0.391718 -0.434911 -0.159911 0.333040 -0.030065 -0.210111 0.837685 0.155878
17 -0.170094 0.431416 0.392214 -0.913014 -0.309767 0.005684 0.414036 0.452996 -0.761687 -0.382419 -0.624198 0.438064 -0.488543 0.573433 -0.428471 0.283207 -0.109141 -0.272676 -0.034903 -0.252571 0.453558 -0.200603 0.260621 0.537297 0.005516 -0.104058 -0.432223 -0.735779 0.151560 -0.208897 -0.574114 -0.292019 0.529211 -0.517965 -0.048935 0.003647 -0.341106 0.004770 -0.488743 -0.297902 0.421822 -0.227036 -0.472860 -0.647934 0.601441 -0.492826 0.106613 0.493616 -0.801152 -0.315926 -0.452703 0.354604 0.645955 0.761907 0.395713 -0.211787 0.208674 -0.994251 0.096220 -0.622364 0.000912 -1.392005 0.054123 -0.111348 0.237074 -0.486654 0.091174 -0.283355 1.286141 0.080467 0.221389 0.189837 0.956993 0.509803 0.035335 -1.097208 -0.385628 0.723036 0.195867 -0.043465 -0.257897 0.289478 -0.017552 0.855048 0.732229 0.167050 -0.807561 0.804687 -0.105266 -0.220185 -0.489030 0.054123 -0.319406 -0.197572 -0.341227 -0.229300 0.092885 -0.472906 0.185491 0.014027 0.476682 0.582106 0.328372 0.017156 0.247984 -0.267343 0.148220 -0.134349 0.010160 0.551187 0.003873 0.206733 0.343493 -0.150302 -0.217543 -0.309756 0.357131 -0.876318 0.807848 0.988795 0.719449 -0.283138 -0.943894 -0.501217 0.060651 -0.308760 -0.561052 -0.368830
18 0.503608 0.034857 0.162555 0.520138 -0.768781 -0.171133 -0.510472 -0.991864 -0.915339 -0.052504 0.074736 -0.159092 0.081750 0.039763 0.571322 0.229131 -0.295044 0.216145 -0.261402 -0.000611 -0.200467 -0.915481 0.416617 -0.026859 -0.076214 0.165036 -0.587249 -0.950872 0.019961 0.131482 0.009240 0.019176 0.030777 0.332136 -0.426328 0.236996 -0.276279 0.801086 -0.283510 -0.626247 -0.489894 0.103961 0.474728 0.105520 0.344346 0.248385 -0.171630 0.424541 -0.671747 0.382619 0.248405 0.717495 0.259855 -0.308176 -0.215375 0.049628 0.051155 -0.030573 -0.255554 -1.039874 0.505762 0.166299 -0.077789 -0.186099 -0.364617 0.430222 0.704506 0.016690 0.581326 0.151103 0.204055 -0.074673 0.316576 0.670567 -0.035723 0.770963 -0.846337 0.789916 1.120116 -0.114005 -0.853678 -0.288856 0.055183 -1.364827 -0.078606 0.757544 -0.218845 0.152337 -0.467368 -0.083786 0.079102 -0.216572 -0.284485 0.076560 -0.191989 -0.012471 -0.442484 0.651625 -0.766929 0.648733 0.274732 -0.618801 0.193934 0.388651 -0.382448 -0.433011 -0.048238 -0.577200 -0.731587 0.627490 -0.259259 -0.325934 -0.209576 0.244333 -0.497646 -0.060411 0.105663 0.227947 -0.546579 0.597236 0.365794 -0.092917 0.352018 -0.340302 0.170879 0.298968 0.798607 0.283515
19 0.075195 -0.054520 0.245679 0.141626 -0.163535 -0.191079 -0.078671 -0.524458 -0.448291 0.150827 -0.141219 0.097200 0.179946 0.436553 -0.093937 0.584710 0.096480 -0.068372 0.250224 0.242835 -1.222242 -0.620063 0.686025 0.030784 -0.184466 -0.278692 -0.991658 -0.707781 0.153058 0.072331 0.374487 -0.149793 -0.496085 0.836342 0.004622 0.239986 -0.028080 0.279603 0.542241 -0.179651 -0.255431 0.030666 1.153298 0.616939 0.528082 -0.039742 0.127211 0.387307 -0.601005 1.121109 -0.527986 0.190635 -0.044446 0.517897 -0.015039 -0.225771 -0.615568 0.227274 -0.011556 -0.261274 0.359380 0.030690 0.010861 -0.392050 -0.214344 0.012290 -0.193164 0.315121 0.469532 -0.333160 0.422529 -0.296470 -0.707568 0.724781 0.003988 0.459173 -0.586929 1.008120 -0.146651 0.274003 0.048051 0.282802 0.247170 0.871673 0.116107 -0.435457 -0.633937 -0.596987 -0.453700 0.093749 -0.778100 0.382090 -0.161856 -0.354409 -0.316594 -0.239622 -0.265038 0.100672 0.898224 -0.645481 0.048825 -0.801330 -0.167595 0.800706 -0.248917 -0.107916 -0.118358 -0.586640 -1.308017 0.115781 0.645018 -0.126235 -0.353571 -0.038048 -0.814389 -0.872784 -0.366810 -0.341202 -0.350542 0.457259 -0.119606 -0.247570 0.219365 0.428940 0.225757 0.029259 0.601137 -0.204394
20 -0.240454 1.390460 0.570208 -0.031363 -0.544944 0.375916 0.641403 -0.578779 -0.277940 0.088693 -0.369093 0.188416 0.083935 0.340987 0.410148 -0.298482 0.630537 -0.885249 -0.582699 -0.123159 0.237515 -0.981236 -0.099080 0.737721 -0.621184 -0.572805 -0.093890 -0.092523 -0.251538 0.543149 -0.369842 -0.494109 0.407992 0.851723 -0.252568 -1.282108 0.489311 -0.474440 0.238092 -0.437395 0.415128 -0.033061 -0.417495 -0.006871 0.126648 0.323178 -0.273533 0.425066 0.121154 -0.034413 -0.047378 -0.506345 -0.445731 -0.072255 0.016406 0.428096 0.073620 0.172628 -0.098141 -1.038488 0.425364 0.232215 0.258117 0.083696 -0.191483 0.111964 0.846641 -0.600771 0.200189 -0.122317 -0.025298 -0.000460 -0.305526 -0.604778 0.165477 -0.071904 -0.649758 -0.005186 0.320833 -0.129750 -0.213463 0.202614 -0.751508 -0.445845 0.369518 0.046785 -0.754686 -0.364822 -0.847407 -0.351043 -0.786337 0.600224 -0.451868 0.666069 -0.068977 -0.030581 0.075796 0.226951 -0.315933 -0.550001 0.769418 -0.022271 -0.713211 -0.764571 0.482339 -0.169531 0.724602 -1.075366 0.302425 -0.320639 0.203006 -0.400275 0.196846 -0.242383 0.340133 0.194861 -0.010794 -0.014673 0.003245 0.184394 0.569828 -0.048422 -0.472877 -0.376745 -0.232946 0.089053 -0.316127 -0.057469
21 -0.609091 0.227042 -0.423449 -0.317715 -0.307888 -0.472851 0.071626 0.617410 0.474555 -0.251511 -0.047236 -0.104545 0.081703 0.159359 0.153975 0.159003 -0.388001 -0.699283 -0.723711 0.037381 -0.379093 0.373007 0.150747 0.678770 0.419431 0.147851 0.309414 -0.693379 -0.265681 0.155144 0.602825 0.186555 0.715065 -0.096684 0.512959 0.463189 0.046732 -0.756507 0.007629 0.513278 0.344837 -0.100466 0.454125 0.134421 -0.461712 -0.668496 0.357163 0.222006 -0.622076 0.607094 0.288190 -0.320399 0.183896 0.354493 0.131446 -0.127157 -0.683050 -0.677891 0.846226 0.025616 0.797525 0.064683 -0.114698 -0.530664 -0.052021 -0.587166 0.219137 -0.462634 -0.264819 -0.354165 0.274877 -0.448077 -0.474012 -0.385904 0.219055 -0.118881 0.616085 0.747707 -0.196252 0.067323 0.465545 -0.099884 0.414320 -0.051766 -0.452522 0.548744 -0.475988 -0.348708 -0.620061 -0.034431 -0.408703 -0.028191 0.498392 0.204945 -0.597809 -0.140188 0.127968 0.061740 0.282979 0.553331 0.754345 -0.367748 -0.205433 -0.009883 -0.505858 -0.737769 0.231376 0.145990 -0.010820 -0.379584 -0.159447 0.528332 -0.760106 -0.354076 -0.001634 -0.738232 0.223239 -0.047493 0.878481 0.047370 -0.101672 1.059071 -0.175567 0.112556 0.946427 -0.109341 0.470516 0.482191
22 -0.770874 -0.467498 -0.187329 -0.203419 0.201389 -0.872849 0.441098 -0.310748 -0.009125 0.219222 0.313022 0.280780 -0.081298 -0.665567 0.212433 -0.259199 0.214599 0.194533 0.403577 -0.035172 -0.063756 -0.028092 0.404011 -0.218054 0.502781 0.150701 -0.113647 -0.603483 0.250167 0.144143 0.230407 -0.879464 0.074051 -0.717246 -0.615710 0.830816 0.548636 -0.247000 -0.037416 -0.211477 -0.384636 -0.151989 0.179247 0.181415 0.356404 0.073882 -0.351906 0.052802 -0.121840 -0.023108 0.662077 -0.151658 -0.083735 0.530402 -0.247915 -0.658347 -0.047327 -0.363599 0.220927 -0.711041 0.914675 0.145765 -0.405326 -0.668827 -0.415489 -0.265205 0.159373 0.279040 0.629369 0.250458 0.129092 0.372515 0.135014 -0.076390 -0.169166 0.017753 -0.078963 0.578229 0.346597 -0.154188 0.580998 -0.002522 -0.692727 0.161961 0.528827 -0.288626 0.015509 -0.291149 0.246402 -0.154063 -0.646383 -0.850703 0.456975 0.287354 0.072401 0.464536 -0.381817 0.939847 0.519026 0.129872 0.378508 -0.782786 -0.409226 -0.160273 -0.335746 -0.024587 0.239599 -0.215414 -0.353966 -0.151063 0.112412 -0.216051 0.013327 -0.280890 -0.222865 -0.209116 -0.059545 -0.367060 -0.260674 -0.322197 -0.138922 -0.679096 0.006322 -0.462460 -0.528734 -0.402398 0.641323 0.367359
23 0.211784 0.588788 0.311820 -0.593356 -0.689515 0.568545 -0.116165 0.352705 -0.510978 -0.104421 -0.419508 -0.223938 0.130342 -0.132600 -0.214111 0.294644 0.119224 -0.391505 0.254575 0.145414 0.222806 -0.407076 0.308970 -0.003097 -0.402001 0.758647 -0.180900 -0.272009 -0.543458 0.343691 0.489973 0.002688 0.529985 -0.260917 0.125339 0.387036 0.069606 0.003729 -1.030923 -0.171244 0.924745 0.906234 -0.546570 0.659586 0.264061 -0.236265 0.007754 -0.190001 -0.161957 0.001697 0.323521 -0.260311 -0.001682 0.208884 0.579979 -0.573522 -0.359183 -0.375578 0.263975 -0.250749 0.297589 0.005351 -0.236295 -0.349236 0.409300 0.113648 -0.258744 0.119989 0.055465 0.139440 -0.301545 0.409355 -0.096448 0.048409 0.443681 -0.103713 -0.582882 0.828319 1.084520 -0.217509 0.274293 0.001472 -0.291320 0.641946 -0.134025 -0.030303 0.237050 -0.372499 -0.468796 0.339787 -0.630869 0.148385 -0.001656 -0.414858 -0.333993 0.503014 0.950897 0.144506 0.290845 0.632429 0.042371 0.302368 -0.858563 -0.189511 0.416930 0.651567 -0.325480 -0.070554 0.248614 -0.185733 -0.137741 -0.128365 -0.094564 -0.500773 0.077905 0.014921 -0.788682 -0.089817 -0.588166 -0.590776 0.127668 -0.155111 -0.219855 -0.107919 0.159118 0.867692 0.538056 -0.654948
24 0.307615 -0.008917 -0.487109 -0.207403 -0.729732 0.111745 0.040991 -0.330396 -0.213336 -0.642744 -0.057788 0.061258 -0.292095 -0.218659 -0.503908 0.379878 -0.018442 -0.271548 0.074600 0.007959 -0.045191 -0.305221 0.389725 0.518166 -0.209344 0.151774 -1.054781 0.020835 -0.498673 0.199451 -0.631746 -0.407516 0.704965 -0.310499 -0.393747 0.368402 -0.465157 -0.372473 0.031234 0.519326 -0.003406 0.128603 0.525456 -0.217206 -0.276154 0.061801 -0.118245 0.515085 0.372362 -0.158215 0.547568 0.063684 0.869925 0.537368 -0.092179 -0.081086 0.368209 -0.100414 0.579313 -0.652373 0.020409 0.050878 -0.516055 -0.093319 -0.329828 -0.324560 -0.011101 0.121183 -0.135941 -0.232755 -0.181844 0.568270 0.212589 -0.889167 0.622995 0.249957 0.379130 0.571067 1.105884 -0.896643 -0.566552 0.727540 0.348021 -0.161715 0.247920 -0.188990 0.225144 -0.330490 0.288242 0.398702 -0.329240 -0.218986 -0.252606 0.220874 0.111348 -0.156550 0.167215 0.046270 0.122510 0.052809 0.154094 -0.920134 -0.116689 -0.230864 -0.104557 0.016210 0.957355 0.462940 0.182642 -0.167659 0.234129 0.195540 -0.009316 0.897336 -0.009283 0.039771 -0.619953 -0.965189 -0.276369 0.309052 -0.197469 -0.233897 -0.899976 0.391885 -0.371475 0.535099 0.028534 0.416124
25 -0.062926 -0.114136 0.320004 -0.045351 -0.671613 -0.928438 0.427863 -0.546911 0.133040 -0.464604 -0.102650 -0.026933 -0.372897 0.188957 0.019774 0.051934 -0.291534 0.179750 -0.401126 0.360310 -0.601332 -0.135461 -0.709325 -0.346845 -0.051661 0.615060 -0.740736 -1.114647 -0.081849 -0.336228 -0.126865 -0.156922 -0.578385 -0.635801 0.222721 1.528616 0.065833 -0.643655 -0.169189 -0.623185 -0.475483 0.030451 0.476578 0.418816 -0.065910 -0.083488 -0.071149 0.697997 0.078670 -0.052179 0.000057 -0.047462 -0.822409 0.308308 -0.155073 0.217179 0.072602 -0.040024 -0.928006 -0.550188 0.121481 -0.018714 -0.992425 0.003169 0.168547 -0.466821 -0.328331 0.112659 0.575168 -0.553794 0.403822 -0.270186 -0.293719 0.160486 0.598696 0.022708 0.498270 0.289513 0.451583 -0.234282 0.125286 -0.254182 -0.043366 0.222140 0.167394 -0.480092 0.052532 -0.318287 0.273616 -0.439312 -0.774133 0.283146 0.481303 -0.280023 0.035207 0.056182 0.349236 0.094473 0.831474 0.229463 -0.298651 -0.227532 -0.597101 0.755371 0.470523 0.008798 0.218375 -0.794191 -0.647213 -0.174420 -0.485107 -0.433734 -0.322490 -0.489646 0.655263 0.267668 -0.189295 -0.750363 0.309217 0.029380 -0.295252 -0.187577 -0.043824 -0.120023 -1.508022 -0.489111 0.450001 0.158821
26 0.474491 0.117913 -1.128798 -0.166009 -0.161244 0.160289 0.466222 -0.396567 -0.739167 -0.104402 0.054998 -1.003721 0.007463 0.183742 -0.162697 -0.556319 -0.010784 0.635697 -0.149236 0.071896 -0.189891 -0.383865 -0.503269 0.170565 0.412555 0.258418 0.388087 -0.896543 0.264752 -0.294627 -0.093634 -0.001951 0.178635 0.176886 0.176469 -0.345867 0.906023 -0.203539 0.106709 0.011869 -0.688338 0.041248 0.107496 -0.271318 0.383228 -0.779647 0.540876 0.393965 0.068383 -1.211458 -0.144264 -0.086257 0.373145 1.059907 0.039625 -0.285834 -0.294541 -0.475853 0.279006 -0.394799 0.031193 -0.405050 -0.111508 0.669330 0.312617 0.068499 -0.166471 0.085805 -1.003178 0.147184 0.534296 -0.742308 0.445481 -0.135527 0.495117 -0.636809 0.056353 0.684367 0.574821 -0.283463 0.556202 -0.313910 0.114167 -0.501684 -0.293659 -0.029220 -0.583535 0.213118 0.087472 -0.095443 0.619395 -0.417563 -0.144091 -0.507856 -1.182162 -0.113564 0.320532 0.208513 0.697192 0.095424 -0.539440 -0.010664 -0.379751 0.010033 -0.014580 0.789493 -0.380182 0.172902 -0.469331 -0.174931 0.007768 -0.738756 0.106835 0.067968 -0.997609 -0.261393 0.261649 -0.547757 -0.106761 0.131827 -0.205699 0.137492 0.406251 -0.083740 -0.336529 -0.616217 -0.283268 -0.208877
27 0.212193 0.321657 0.660539 0.159611 -0.568883 -0.068096 0.041655 -0.053862 0.091500 -0.397515 0.574788 0.558380 -0.311185 0.479853 -0.350082 -0.304559 -0.418475 0.112458 0.452330 0.508027 -0.055616 0.251556 -0.247233 0.330394 0.204187 -0.199446 0.129466 -0.792834 -0.416370 -0.086969 0.144144 -0.232667 -0.027448 -0.282830 -0.126945 0.591357 1.085349 -0.068540 0.094836 0.105233 -0.137421 0.467097 0.060982 0.218562 0.048517 0.282635 0.204922 0.315510 -0.063518 -0.215948 0.208561 0.257433 -0.052691 -0.139163 -0.435395 -0.087281 -0.324776 -0.102988 0.106548 -0.174828 -0.104459 0.289273 -0.636491 0.402266 -0.227704 -0.138844 -0.421183 0.066094 -0.047686 0.150186 0.169347 -0.047807 0.387581 0.218518 -1.489431 0.251439 -0.850945 -0.125156 0.312725 -0.420880 0.586282 -0.400259 -0.335454 0.186310 -0.173683 0.316382 -0.721571 -0.546907 -0.604801 -0.582831 -0.110870 0.108679 -0.277023 -0.301069 -0.349326 0.567452 0.013510 0.153937 0.319491 0.001849 0.206700 -0.020052 0.074105 0.262889 -0.920652 0.010334 0.620733 0.297060 0.296779 -0.263964 0.308574 0.078578 -0.293381 0.472917 -0.191192 0.386953 0.296152 0.444243 0.940962 -0.086288 0.110385 -0.742531 -0.627528 0.060543 -0.305192 0.268645 0.238836 0.622481
28 -0.248121 0.219588 0.062761 0.232326 -0.580006 0.278576 0.112117 -0.972488 -0.543847 -0.756878 0.781380 0.110174 -0.362360 0.285926 -0.093642 -0.115637 -0.108119 -0.217645 0.477637 -0.135927 0.109107 -0.110869 -0.705241 0.280300 0.079544 -0.259101 -0.270043 -0.372417 0.068032 0.447308 -0.087871 -0.837759 0.364881 0.135814 0.156350 -0.258395 -0.062001 -0.201857 1.198714 -0.110140 0.148607 0.457047 0.023393 0.591697 -0.511659 -0.100041 -0.314808 1.081153 -0.712421 0.059012 -0.247888 -0.383236 0.146361 -0.405779 0.043220 -0.304425 -0.153087 0.268451 0.134813 0.088913 0.164805 -0.141969 -0.097939 0.590516 0.171179 0.236323 0.207772 0.781248 -0.159012 0.503601 0.555248 0.498088 0.258406 0.524806 0.019188 -0.209502 -0.562860 -0.423961 0.178574 0.781938 0.417569 -0.010245 0.096475 0.250938 0.452780 0.523730 -0.840664 -0.369057 -0.871759 -0.678971 -0.380210 0.607203 0.410032 0.147271 -0.829058 0.133321 -0.457391 0.323978 -0.430674 0.347610 -0.331924 -0.382292 -0.725256 -0.396258 -0.533652 0.135973 -0.059530 -0.359770 0.845542 -0.303580 0.364869 -0.348431 0.446039 -0.605993 0.186007 -0.739858 -0.158306 -0.719401 0.076870 0.170753 0.729734 -0.467284 -0.692301 -0.086146 -0.338988 -0.128522 0.031699 -0.306300
29 -0.047624 0.361744 -0.119998 0.442073 -0.570613 -0.723728 0.771447 -0.688591 -0.056054 0.021096 -0.123969 0.439559 -0.081588 -0.287999 -0.007270 0.369324 -0.627183 0.404274 -0.120256 -0.178222 -0.183073 0.299211 0.631100 -0.151645 0.259266 0.164070 -0.885687 -0.408166 -0.021761 -0.002776 -0.226100 0.586500 0.590046 -0.289278 -0.340778 -0.523539 0.250454 -0.740664 -1.028483 0.410081 -0.003699 -0.289998 -0.304674 0.069558 -1.025637 -0.368888 0.992482 -0.080446 -0.083626 -0.168146 -0.158360 -0.078914 -0.057042 -0.251669 -0.185438 -0.531089 -0.936953 -0.632406 -0.486147 -0.073529 -0.203298 -0.296995 -0.193691 -0.847308 -0.027538 0.271019 -0.024025 -0.427890 -0.035435 0.251539 -0.123674 -0.473015 -0.017584 0.267978 -0.276809 -0.693895 -0.275550 0.628747 -0.182384 0.673456 0.143480 -0.226447 0.111417 -0.530031 -0.062515 0.045295 -0.634489 0.132058 -0.016481 -0.614393 -0.509922 0.046505 -0.182617 -0.155683 -0.417031 -0.478898 0.551958 -0.616390 -0.033797 0.228534 0.417683 -0.298183 0.143187 -0.197933 0.078195 0.383959 0.376230 -0.104879 -0.249861 0.599955 -0.523749 -0.443572 -0.222632 0.878281 -0.096036 -0.227757 -0.225483 0.086958 0.326000 -0.413232 0.056063 0.598176 0.196738 -0.455124 -0.341889 -0.610074 0.241942 0.078976
30 -0.217572 0.711129 0.494611 0.252056 -0.288831 -0.220387 -0.156190 0.185103 -0.354897 -0.220629 -0.093704 0.110211 0.261854 0.389753 -0.626271 0.573079 -0.036705 0.031658 0.454649 -0.094743 -0.637055 0.378386 -0.387694 -0.423544 0.103071 0.577487 -1.080361 -0.443494 -0.162296 -0.292652 -0.525624 -0.187089 0.503591 0.844971 0.467050 0.417903 0.008210 0.112708 -0.844703 0.062811 -0.262424 -0.573476 -0.302459 0.545328 -0.841013 0.401044 -0.551307 0.197476 -0.516672 -0.115185 0.226100 -0.341537 -0.100272 -0.311799 -0.001241 0.077569 0.624155 0.051918 -0.017435 -0.202453 -0.103120 -0.002762 -0.740900 0.578668 -0.110013 -0.641452 0.783748 -0.134017 0.063827 0.020486 0.476077 0.004947 -0.029250 -0.705224 -0.045863 -0.191833 -0.527908 0.066360 0.539387 -1.038155 0.295651 -0.440594 -0.579182 -0.156096 -0.106835 0.201756 -0.030540 0.527547 0.056822 0.042272 -0.341167 -1.125317 -0.449130 -0.281208 -0.503783 -0.196891 0.152988 0.296491 -0.294607 -0.053607 0.070081 -0.026218 0.054793 -0.211924 -0.881765 0.333978 0.133704 0.342730 0.162864 0.383394 0.299199 0.581494 -0.156330 -0.018592 0.240068 -0.356849 0.731539 -0.144558 0.458849 0.015402 -0.424895 -0.692219 -0.730193 -0.080568 0.193967 -0.092754 -0.660882 -0.476213
31 -0.534958 -0.080186 0.373865 0.248002 0.046895 -0.022017 -0.061079 -0.167852 -0.459235 -0.191532 0.336644 -0.185290 -0.060265 -0.029970 -0.101052 0.531859 0.595688 0.345097 -0.308676 0.489359 0.201416 -0.099650 -0.149798 0.494622 -0.641587 -0.055784 -0.006694 -0.635519 -0.065847 0.603345 0.471728 0.245287 0.232740 -0.307402 0.477947 0.213779 -0.132215 0.217103 0.056008 -0.332792 -0.213251 -0.908003 0.894992 0.763545 -0.129681 -0.186953 -0.099946 0.033267 0.015735 0.782932 -1.039642 -0.124359 -0.161499 0.188265 -0.003784 -0.281877 -0.498343 -0.608975 0.403328 -0.061802 -0.008790 -0.509813 0.100447 -0.332859 -0.289673 0.428521 0.164942 -0.537826 0.295704 -0.192610 0.288033 0.007200 -0.576760 0.028953 0.150955 -0.412305 -0.011702 0.407874 0.366852 -0.128468 0.094778 -0.510799 -0.030015 0.053250 0.082664 -0.045522 -0.771392 -0.169616 0.367001 -0.056009 0.161585 0.186627 -0.079000 0.356969 -0.490475 -0.081769 0.189145 0.199466 0.135234 -0.111943 -0.237682 -0.769455 -0.029348 -0.535638 -0.093323 -0.103114 -0.102285 -0.369451 -0.159197 -0.408898 -0.022572 -0.026981 1.192486 -0.012869 0.245031 0.295812 0.015405 -0.338147 0.444903 0.020108 -0.376643 -0.160297 0.330644 -0.078409 0.139280 -0.523661 0.223561 0.440097
32 -0.861261 -0.139007 -0.209089 0.002967 -0.494626 -0.110889 0.657451 0.235968 0.266459 -0.655272 0.183153 -0.161199 -0.358299 -0.052927 -0.115837 0.044230 -0.449607 0.567868 -0.770710 -0.341755 0.438989 -0.211555 0.339796 0.864393 -0.280655 -0.112063 -0.204872 0.044018 -0.189263 -0.330508 0.459234 -0.269516 0.934542 -0.024334 0.324950 0.297879 0.597009 0.695962 -0.419773 -0.009180 0.961410 -0.151090 -0.587161 0.006640 -0.057616 -0.410841 0.115863 -0.404366 -0.452806 0.322426 -0.117632 0.010826 -0.007714 0.287674 -0.373084 0.550571 -0.025636 0.045776 0.851555 -1.363663 0.338239 0.047705 -0.454099 0.927148 0.257282 0.073516 -0.358997 -0.179632 0.359528 0.302684 0.434497 0.277855 0.205770 0.548495 0.092984 -0.041433 -0.045396 0.314449 0.289267 -0.016236 0.213864 -0.488033 0.135067 -0.760669 -0.510993 0.174875 0.088360 -0.234243 -0.263716 -0.146802 -0.236834 0.150268 0.456129 0.713773 0.190780 0.093510 -0.409644 -0.314443 -0.098982 0.218931 -0.219470 -0.466873 -0.105536 0.447404 -0.041540 0.340069 0.358927 0.890213 -0.902072 0.269810 -0.434472 0.038631 -0.165482 -0.161096 0.483155 0.301552 0.709298 -0.114544 0.718509 0.602546 0.195774 0.430439 0.375210 -0.076691 -0.517179 -0.092804 -0.164350 -0.322541
33 -0.048634 0.370342 -0.218440 0.110958 -0.023603 -0.202179 0.004469 -0.083765 -0.546733 0.260447 0.461597 0.446757 -0.299598 0.503026 0.153379 -0.199898 -0.162412 0.507399 -0.197113 0.033998 -0.115345 -0.643653 0.840013 0.409227 -0.450936 0.253027 -0.872965 -0.522402 0.156958 -0.241912 0.006274 -0.160904 0.561343 -0.573296 0.187900 -0.474721 0.029420 0.452104 0.419727 0.238343 0.480602 -0.178311 0.501554 0.398977 -0.002686 -0.464112 -0.008989 -0.637338 -1.122593 -0.733257 0.571755 0.196876 0.284140 0.225703 0.020834 0.320537 -0.219911 -0.224132 0.058666 -0.116342 -0.446050 -0.059322 -0.165887 0.885833 0.048715 -0.311866 -0.010010 -0.278455 0.460100 0.222480 0.030201 0.012866 0.386828 0.450769 -0.623432 -0.186798 -0.024018 0.284781 0.571799 -0.251666 -0.031995 -0.295075 0.173053 -0.504583 0.439381 0.561789 -0.611137 0.631534 -0.201063 -0.595230 -0.094190 0.284450 -0.097543 0.022607 -0.530911 0.442744 0.358628 -0.148383 -0.526002 0.076374 0.608113 -0.331187 -0.205019 -0.328292 -0.067146 0.371680 -0.159556 0.622885 -0.237887 0.200646 -0.061283 -0.106082 -0.467996 -0.236392 -0.894123 0.522115 0.256994 -0.312004 1.210527 0.375289 -0.125149 -0.152138 -0.252223 -0.767296 -0.071184 -0.347709 0.385684 -0.146272
34 0.177070 -0.410619 -0.058992 -0.162161 -0.649639 0.034115 -0.159809 -0.184979 0.763024 -0.498203 0.752542 -0.235402 0.737616 0.456588 -0.978983 -0.150810 0.749355 0.026482 0.371328 0.003955 -0.272245 -0.110625 -0.145500 0.265131 -0.168741 1.026255 -0.323753 -0.630637 0.094215 0.542808 0.121412 -0.543378 0.311518 -0.299408 -0.589113 0.227401 -0.031338 -0.319256 -0.558197 0.834997 0.985343 -0.148451 0.169001 -0.248285 -0.203077 -0.338014 0.475505 -0.329903 0.153909 -0.039120 0.313848 0.632670 0.053831 -0.347129 0.523499 0.470013 0.563547 0.286448 0.385477 -0.487206 0.257105 -0.000040 -0.100258 -0.107440 0.009391 -0.167006 0.375084 0.243317 -0.480469 0.092007 -0.316516 0.519938 0.632418 0.421487 -0.396355 -0.256436 -0.538631 -0.558319 0.488317 -0.076955 0.229815 -0.042671 -0.343886 0.657525 0.058491 0.668582 0.456773 -0.870681 -0.283984 -0.512768 -1.289046 -0.350943 0.378539 -0.440416 -0.515670 -0.161659 0.357071 -0.418972 -0.469728 -0.416624 0.071479 -0.137236 -0.179826 -1.072912 0.022682 1.101249 0.184703 0.393896 0.157442 0.459964 0.427303 0.238761 -0.233634 0.221748 -0.215614 -0.085365 0.494637 -0.826866 -0.284269 -0.249560 0.109293 -0.794784 -0.259690 0.176086 0.263993 0.598556 0.273418 -0.833808
35 -0.256334 -0.394322 0.697427 -0.090357 -0.579606 -0.112258 -0.201431 0.315827 -0.051332 -0.223947 0.042795 -0.262737 0.197638 0.449304 -0.342918 0.499582 -0.153639 0.417249 -0.485931 0.171272 -0.168404 -0.434233 -0.012324 0.243201 -0.267191 -0.166393 -0.368580 -0.341684 -0.528290 -0.205480 -0.357962 0.355208 0.177002 0.049328 -0.360481 0.028449 -0.479370 -0.713674 0.025974 0.203730 0.054743 -0.313498 0.346514 0.282214 -0.087578 -0.232630 0.194034 -0.076535 -0.163123 0.163805 -0.215968 0.004439 -0.036913 -0.058311 0.391277 -0.983404 -0.292994 -0.091033 0.446731 -0.213614 -0.390647 -0.301913 0.138000 -0.138591 0.151930 -0.140582 0.167041 -0.616246 -0.042601 -0.179734 0.191755 -0.058131 0.523619 0.256390 0.218828 -0.155574 -0.218004 -0.106627 0.681533 -0.059510 -0.161531 -0.195978 0.018492 0.654231 -0.703520 0.931677 -0.050594 -0.932405 -0.094169 -0.325624 -0.013545 0.300128 -0.267603 0.045851 -0.308244 0.131420 0.084211 0.526586 -0.161965 0.075761 -0.088492 -0.275744 -0.482561 -0.369103 -0.194901 0.147735 0.164419 -0.644513 -0.176902 -0.239711 -0.397787 0.346237 -0.179758 -0.788191 -0.041895 0.405905 -0.043724 -0.077919 0.328167 0.177210 -0.099898 -0.110664 0.737252 -0.213372 -0.026405 -0.059819 0.421961 0.528798
36 -0.844903 -0.309075 0.533584 -0.093688 -1.204742 -0.312979 -0.117024 -0.651203 -0.331367 -0.216571 -0.056502 0.136022 0.061681 0.100019 0.077469 -0.282135 0.228052 0.298791 -0.220983 0.048924 -0.110287 0.471300 0.012475 0.494688 -0.286698 -0.054741 -0.147431 -0.397819 0.268974 -0.963959 0.442572 -0.674898 -0.697575 -0.304608 -0.047803 -0.089440 -0.240941 0.039709 0.018564 -0.009075 0.005816 -0.271858 0.081756 0.696261 0.134616 0.047276 0.007372 0.346366 -0.632250 0.759591 0.416781 0.705842 0.235578 0.251735 -0.038695 -0.393390 -0.839431 0.272210 -0.226787 -0.325001 -0.411831 0.671344 -0.422505 -0.505470 -0.042458 -0.327057 -0.804614 0.089642 0.010170 -0.215428 0.397095 -0.271513 -0.494639 -0.599350 0.360708 0.162306 -0.126933 -0.483170 0.644608 0.389783 -0.099683 -0.242228 -0.410479 0.080280 0.007398 -0.033554 -0.359962 -0.523174 0.041548 -0.076755 -0.487975 -0.135032 -0.045486 0.391473 0.227087 -0.532272 -0.044672 0.302814 -0.152887 0.255874 0.015075 -0.470292 -0.604545 -0.473114 0.216807 0.344265 0.658127 -0.144012 -0.142632 -0.398600 -0.504085 -0.359791 0.285651 0.091834 0.157703 -0.550310 0.430323 0.112959 -0.024573 0.652055 -0.633481 -0.233942 0.282419 -1.004745 -0.781572 0.300621 0.471741 -0.345131
37 -0.108946 0.330572 1.067098 -0.343437 -0.478082 -0.079547 0.453085 -0.813660 -0.044705 -0.040590 0.193858 -0.112541 0.093020 0.080144 -0.344000 -0.117471 -0.540004 -0.491624 -0.890171 0.486201 0.130407 -0.286421 0.141466 -0.291450 -0.622982 -0.570853 -0.356888 -0.001255 -0.412378 0.592138 -0.638996 -0.660894 0.388932 0.534041 -0.628325 0.267639 0.003850 -0.880616 0.497841 -0.290056 0.494321 -0.194169 0.043008 0.147881 -0.069882 0.242229 -0.100701 -0.195676 0.267587 -0.116081 0.174893 -0.072926 0.345640 -0.099685 0.349055 -0.003592 -0.016115 0.468309 0.326428 -0.280352 -0.247598 -0.189662 -0.670027 -0.254664 0.093083 0.544003 0.232229 -0.085096 0.060050 0.360214 -0.003218 -0.204998 0.668486 -0.905644 0.223505 -0.207094 0.404163 0.605971 0.509010 -0.164895 0.705248 0.373949 0.058082 0.325391 0.916844 0.112044 -1.206760 -0.292008 -0.264987 -0.118139 0.349411 0.969633 0.373521 -0.092094 -0.117087 -0.040499 -0.114960 0.949506 0.182970 0.725467 0.032275 -0.090504 -0.693575 -0.141369 0.265607 0.089539 -0.214006 -0.614030 0.182881 0.176365 0.164044 -0.108503 -0.326805 -0.198194 0.093543 0.123429 -0.024097 0.131105 0.160304 -0.073658 -0.013769 -0.509222 -0.062040 0.080738 0.149352 0.095186 -0.282352 0.037954
38 -0.169161 0.657506 -0.411866 0.130092 -0.491410 -0.061932 -0.395649 0.226995 -0.679545 -0.200786 0.173999 -0.526974 0.083957 -0.437006 0.283525 -0.074227 -0.295281 0.261393 -0.535710 0.574971 -0.252773 -0.513200 0.352293 0.472201 -0.310805 0.098461 -0.040315 0.183297 -0.405013 -0.247484 0.007880 -0.356420 0.482445 0.175692 -0.269568 -0.228712 -0.265543 0.324813 0.068601 0.077121 0.447657 -0.070810 -0.224085 0.480681 0.209645 0.389468 0.199223 -0.240058 -0.377400 -0.084139 -0.243010 -0.377902 -0.012726 -0.170257 0.469801 -0.748386 -0.725591 -0.180990 -0.254141 -0.646337 0.097189 -0.101296 -0.691652 -0.075274 -0.052982 -0.126799 0.053514 -0.108673 -0.169371 -0.009664 0.133153 0.485257 -0.412165 0.434558 -0.085760 0.030764 -0.457738 -0.002382 0.704136 -0.161406 0.126442 0.312738 -0.001295 -0.101593 0.560838 0.145216 0.322037 -0.731976 0.150027 0.871623 -0.017534 0.232203 0.471236 0.059820 -0.633943 -0.336543 -0.170577 0.450878 0.426832 0.795889 -0.099068 0.185136 -0.308588 -0.984488 -0.271039 0.356910 0.319012 0.149247 0.654280 -0.542042 -0.473267 -0.147510 -0.616358 0.206037 -0.012208 -0.107110 -0.129918 0.325386 -0.018339 0.629505 -0.171539 -0.257516 0.436203 -0.536344 0.150293 0.068496 -0.139852 0.102991
39 -0.230839 0.063534 0.201019 -0.582812 -0.697182 0.316138 -0.799580 -1.002777 -0.574514 -0.731375 -0.263520 0.065519 0.061885 0.274091 -0.091878 0.528541 -0.007223 0.029205 -0.198281 -0.150973 -0.091417 0.228317 -0.298471 0.389584 -0.000078 -0.073473 0.133930 0.066009 -0.744169 0.423127 -1.076494 0.393312 0.081656 0.258301 -0.243780 0.146691 0.670057 0.320191 -1.131360 0.978783 0.038195 0.218660 -0.447598 -0.020425 -0.099522 0.325231 0.186112 0.379080 0.313927 0.085475 -0.011428 0.274298 0.041638 0.531656 -0.101487 0.050757 -0.050501 -0.222566 -0.144508 -0.376608 -0.858886 -0.040616 -0.774930 -0.171639 -0.222048 -0.163046 -0.015830 -0.126625 -0.276086 -0.116094 -0.742594 0.747805 -0.238660 0.191964 0.200985 -0.473942 0.086912 0.844036 0.379807 0.793319 0.101020 -0.604957 0.021916 -0.480737 -0.321898 -0.276951 -0.997962 0.129286 -0.307492 0.000989 -0.405744 0.088961 -0.135164 0.249546 -0.737790 -0.055279 -0.446652 0.258186 0.527466 0.311253 0.853280 -0.518450 0.073860 0.452870 -0.528453 -0.317519 -0.240089 0.486588 0.398356 0.141292 -0.042464 0.197308 0.466820 0.183725 0.047277 0.121170 -0.158549 -0.104289 -0.399705 -0.269206 -0.291912 -0.261232 0.613939 -0.977549 -0.221335 0.776156 0.111240 0.682451
40 -0.128872 0.211476 -0.512329 -0.126196 -0.799056 0.105421 0.427909 -0.202933 -0.258330 -0.188313 -0.014192 -0.767513 -0.099698 0.259887 -0.613761 0.251412 -0.068051 0.625858 -0.635882 0.056548 -0.326279 -0.279367 -0.300754 0.327713 -0.311942 1.010567 0.093412 -0.725900 -0.040464 0.621632 -0.119228 -0.239451 0.244885 0.043725 -0.521686 -0.545300 -0.198426 -0.264859 0.070889 0.425327 0.008435 -0.251200 0.277442 0.488768 0.350095 0.259082 1.119349 0.151089 -0.024866 0.086031 0.129064 -0.902012 -0.120924 -0.823801 0.386117 -0.097624 -0.263919 -0.810869 0.420080 -0.138709 -0.454686 0.366503 -0.170290 0.091596 0.113111 0.026022 0.514355 0.044460 0.875992 0.377442 0.341339 0.210272 1.041136 -0.171127 0.747618 0.357210 -0.438460 0.669450 0.523875 0.182861 -0.014385 0.242154 0.143645 0.181388 -0.212152 -0.000772 0.040473 -0.159539 -0.722660 -0.072054 -0.111358 -0.118898 -0.254466 0.062003 0.171866 0.059221 -0.967735 0.783995 0.160511 0.030609 0.307541 -0.649126 -0.509228 -0.393153 1.143255 0.129855 -0.583698 -0.471299 0.134769 0.078659 0.313642 0.061979 -0.380373 -0.913652 0.539386 0.117542 -0.623992 0.611773 -0.157601 -0.158533 0.800859 -0.396804 0.039840 -1.038979 0.233743 -0.459107 -0.603207 0.243095
41 -0.254082 0.737791 -0.860750 -0.416907 -0.433294 -0.089804 -0.059838 -0.123389 -0.613480 0.271592 -0.781566 -0.481606 -0.434705 -0.197061 0.126616 -0.068799 -0.204876 0.541083 -0.067729 0.086322 -0.181757 -0.441517 -0.364032 0.468765 -0.195531 -0.184124 0.072008 -0.092181 -0.228128 -0.273060 0.324548 0.505500 0.367142 -0.406332 0.727352 -0.114453 0.161384 -0.659836 -0.575414 -0.478111 0.012292 0.192886 -0.120339 0.122456 0.614914 -0.665442 0.110272 -0.450946 0.179484 -0.714923 0.791173 -0.363636 0.411754 0.239412 0.354245 0.208766 -0.304535 -0.730670 -0.391868 -0.499048 0.090948 -0.170748 -0.128716 -0.150251 0.343396 0.456618 -0.611323 -0.276786 -0.353127 0.276563 0.231876 0.001700 0.802405 0.036865 0.534641 -0.376670 -0.605409 0.239825 0.725943 0.768330 0.347750 -0.197409 -0.445984 -0.035274 -0.252422 0.390868 -0.658836 0.606948 0.013486 -0.444754 -0.247220 0.290805 0.152323 -0.674600 -0.498433 -0.500182 -0.139690 -0.448389 0.091232 0.546348 -0.198822 -0.522045 -0.797109 -0.107735 0.071614 -0.341037 0.312210 -0.294876 0.591729 -0.332300 -0.234815 0.109261 0.360833 -0.328507 0.929579 0.208605 0.206038 0.288727 0.718666 -0.094795 -0.146577 0.065911 -0.047196 0.588486 0.274356 0.375776 -0.076036 0.140367
42 0.209856 0.264200 0.406764 0.596751 -0.343521 -0.281984 0.079564 0.133123 -0.847428 -0.262217 -0.201163 -0.279165 0.779270 -0.053237 -0.694752 0.331730 -1.077703 0.144841 -0.035392 0.553492 0.646330 -0.375031 -1.143811 0.819559 -0.638662 -0.147778 -0.197335 0.347454 -0.467458 -0.279133 0.438379 -0.770676 0.160917 -0.261037 0.376428 0.492361 -0.176888 0.220432 0.524303 0.284900 0.532078 -0.185665 -0.043417 0.795945 -0.180369 0.126330 -0.065553 -0.416500 -0.090748 0.642181 -0.444076 0.139996 -0.257730 0.497280 -0.098688 -0.644491 0.124573 -0.008937 -0.297636 0.017187 0.374245 -0.109906 0.308464 0.373958 -0.344001 -0.086010 -0.016648 -0.486046 0.000629 0.030440 0.157896 -0.101087 -0.126248 -0.315506 -0.390615 -0.368386 -0.014625 -0.094170 0.183978 0.020922 -0.301603 -0.555677 -0.317201 0.750344 0.251518 0.080303 -0.434224 0.144377 -0.636522 -0.180470 -0.203041 -0.394063 -0.653893 -0.647892 -0.457825 -0.503984 0.484214 0.321334 -0.395575 0.758743 0.120255 -0.611767 -0.656421 0.058262 -0.533293 -0.001384 0.539003 0.709766 -0.184430 0.517964 -0.153825 0.614448 0.263062 0.315817 -0.372403 -0.150787 0.416507 -0.515724 -0.095999 -0.258614 0.385456 0.275725 -0.044901 -0.206538 -0.343125 0.175587 -0.920289 0.281924
43 -0.394995 -0.328454 0.283805 -0.001809 0.237677 -0.240158 0.331008 -0.903805 -0.088018 -0.141001 0.103734 -0.025192 -1.027241 0.552324 0.337454 -0.276080 -0.215777 0.209966 0.195462 0.519402 0.190999 -0.526771 -0.315421 0.359308 -0.259812 0.164410 -0.474013 -0.326003 0.021140 0.403271 -0.369028 -0.423799 -0.369341 0.262386 0.059651 0.172148 -0.234530 0.175894 -0.254537 0.313504 0.675463 0.784776 -0.109666 -0.168870 0.202821 0.418184 0.260670 0.021567 0.096088 -0.121000 0.204198 0.074547 0.486485 -0.362351 0.109691 -0.197323 -0.523548 -0.482171 -0.287626 -0.880843 0.094581 -0.437536 0.275506 -0.140644 0.182480 0.186037 -0.077045 -0.341345 0.296362 -0.070609 0.831094 -0.196244 -0.034011 -0.131283 0.557709 -0.292410 -0.135517 0.300629 0.042080 0.014941 0.438668 0.375252 -0.223571 -0.184106 0.222341 -0.179238 -0.663668 -0.195956 0.006798 -0.368519 -0.371920 0.353907 -0.035360 0.065005 -0.174442 0.491247 0.265869 0.253062 -0.503333 0.149789 0.265589 -0.046001 -0.320811 0.109290 -0.097520 -0.016045 -0.035900 0.327097 -0.167927 -0.913390 -0.811232 0.189214 -0.401384 -0.269854 0.088380 0.490502 0.159295 0.099502 0.649431 0.404793 -0.394654 -0.401717 0.283955 0.249961 -0.660606 -0.546458 0.086576 -0.409812
44 -0.361388 -1.027670 0.658478 -0.550371 -1.052931 0.500535 0.201862 -0.249225 0.566200 0.310839 0.185603 0.439862 -0.561660 -0.130972 -0.519089 0.252227 0.613343 0.069508 -0.674927 0.969990 -0.658625 0.177846 -0.173003 -0.805913 -0.030226 0.145259 -0.655846 -0.286144 0.010162 -0.027737 -0.336578 -0.034215 0.235496 -0.745618 -0.003187 0.722491 -0.016783 -0.481947 0.833055 -0.574938 1.089513 -0.719784 0.206154 -0.175528 -0.156720 -0.806601 0.331688 -0.544320 -0.185277 -0.377507 0.452616 -0.818815 0.060219 0.391418 0.448342 -0.116799 -0.002245 0.366738 0.016322 -0.098483 -0.038611 -0.059839 -1.063385 -0.491643 -0.184000 0.641870 -0.389848 -0.360662 0.007932 0.008713 0.158063 -0.170401 0.442800 -0.414635 0.516137 0.065252 -0.508913 -0.067448 0.374203 -0.365792 0.021593 -0.616582 0.590533 -0.459814 -0.174344 0.614368 -0.447604 -0.155424 0.070928 -0.063254 -0.868167 0.688929 -0.349643 -0.037677 -0.200677 -0.198960 -0.184922 -0.035253 0.490147 0.607851 -0.522562 -0.204748 -0.052537 0.113017 -0.625787 -0.018160 0.330508 -0.632583 -0.289243 0.083934 -0.096958 0.385335 -0.228160 0.726747 -0.264046 -0.106750 -0.386528 -0.378578 -0.220134 0.262718 0.673816 -0.295694 -0.237052 -0.499524 0.296916 0.185888 0.810062 0.021315
45 -0.424558 -0.267651 0.420460 0.537211 -0.593406 -0.767411 -0.625404 0.136771 -0.247026 -0.436323 -0.011537 0.029424 0.219968 0.087013 0.589485 0.054694 -0.107898 -0.049706 0.349626 0.118357 -0.868594 0.168821 -0.507643 -0.069045 -0.293607 0.092049 -0.256235 -1.065958 0.166572 -0.700535 -0.430983 -0.810943 0.564219 0.108953 0.285819 -0.128755 -0.151569 -0.080419 0.523657 -0.402150 0.005479 0.177329 0.154391 0.928925 0.164494 0.563443 0.159818 0.441271 -0.966345 -0.666644 -0.561038 0.488415 -0.113655 0.471207 -0.062322 -0.523935 -0.333041 0.205880 0.013596 -0.330218 -0.294473 -0.171418 0.381475 -0.058228 -0.036034 -0.004472 0.215400 0.013007 -0.246176 -0.027340 0.073872 -0.495270 -0.562067 -0.337593 0.255557 -0.215020 -0.037702 -0.158677 0.067255 0.419874 -0.223118 -0.257503 -0.074807 -0.508363 0.483669 0.163974 -0.423855 -0.457261 0.294045 0.185959 -0.974931 0.671561 -0.152233 0.048099 -0.712645 0.066000 0.554264 0.287449 -0.099433 0.776023 0.616862 0.127715 -1.029681 -0.205976 -0.037905 0.081425 0.098833 -0.057184 0.010621 -0.742179 -0.092512 -0.703271 0.131128 -0.221344 -0.148762 0.178894 0.551887 -0.259022 0.056171 -0.044540 0.217540 0.407209 0.488775 -0.361215 0.143626 0.063256 0.240682 0.150234
46 0.030154 -0.128015 0.076392 0.146536 -0.053852 0.075465 0.667491 -0.484845 -0.061414 1.023798 -0.308415 -0.592936 -0.196247 -0.484580 -0.072014 0.329228 -0.183900 0.079635 -0.445271 0.210749 0.059580 -0.074033 -0.207286 -0.187687 -0.065404 -0.143894 -0.517400 -1.059313 -0.883457 0.334409 0.762721 -0.163415 -0.074960 -0.283456 -0.166257 0.460759 0.257780 -0.271005 -0.366809 0.207685 0.338947 -0.318200 0.206477 0.346362 0.078098 -0.453448 0.339786 -0.084088 0.301605 0.267499 -0.603473 0.165093 0.301308 0.335064 0.393494 0.057095 -0.193997 -0.676191 -0.541930 -0.690718 0.165831 -0.250319 -0.391783 -0.055857 -0.174450 0.026070 0.791571 -0.622768 -0.026203 -0.282883 0.237389 -0.373681 0.100843 -0.203034 0.652455 0.246840 -0.038115 0.771203 -0.495021 0.256352 0.390974 -1.061712 0.142475 -0.214270 0.074528 0.043271 -0.509201 -0.531029 -0.055166 0.117133 0.497394 -0.458745 0.112446 0.228065 -0.281096 -0.369855 0.187160 -0.512832 -0.151005 0.271894 0.227688 -0.876993 -0.847103 0.027916 -0.761281 -0.332016 0.768196 0.599845 -0.368762 -0.368158 0.103534 0.800739 0.237300 0.115928 0.168302 0.444678 0.363190 -0.384936 0.146840 -0.396800 0.454468 0.157529 0.854605 -0.648439 0.040576 0.424929 -0.321331 -0.117298
47 0.370537 0.170929 -0.464143 0.093461 -0.493097 -0.040214 -0.356057 -0.048457 -0.330736 0.157123 0.501057 0.215167 -0.014839 0.314057 0.400863 -0.208198 0.352863 -0.360405 0.191954 0.581192 -0.159744 0.137010 0.301947 -0.281948 1.001151 -0.106091 -0.461620 -0.085585 -0.281617 0.076519 0.010765 0.188944 0.884406 -0.250866 0.086477 0.030356 -0.219522 -0.027436 -0.289857 0.249941 0.090521 0.312472 -0.312866 1.186508 0.317383 1.059848 0.375970 -0.060913 0.119031 -0.030232 -0.239858 0.308350 0.121294 0.810540 0.231061 -0.368056 -0.314139 0.144766 0.273162 -0.292028 -0.305880 -0.331911 -0.424564 -0.096037 0.156389 0.136188 -0.481454 0.021296 0.054419 -0.632580 -0.818761 -0.131526 -0.796274 0.040392 -0.163950 -0.693535 -0.319853 0.634805 -0.049026 -0.196607 -0.342039 -0.985419 -0.974014 0.031549 0.411677 0.317415 -0.800610 -0.411530 0.387597 -0.967220 0.032617 1.287902 -0.970080 0.803141 -0.025812 0.423701 -0.153892 -0.513894 0.569937 0.333921 -0.508270 -0.500119 -0.726267 0.506406 -0.060649 0.444005 0.066414 0.027272 -0.020936 -0.024269 -0.967823 -0.124945 -0.774074 -0.177932 0.219278 -0.184962 -0.115544 -0.150753 -0.037631 0.019567 0.695750 -0.013820 -0.102557 -0.201775 0.380960 -0.754520 -0.809759 0.193361
48 -0.070828 -0.442887 0.141150 0.061341 -0.254203 0.117813 0.156339 -0.571886 -0.766917 0.300996 -0.153514 -0.982137 -0.935312 0.154408 0.120971 0.119009 -0.392527 0.232558 -0.535971 -0.017202 -0.078596 -0.250533 -0.154850 0.058957 0.150282 0.357122 -0.308904 -0.625166 -0.004297 0.890283 -0.237892 0.482963 0.088576 0.631337 0.336570 0.213174 0.094956 -0.570240 -0.514943 0.518535 -0.914130 0.493331 0.157373 0.126096 0.199213 0.117546 -0.105749 0.124654 0.507355 -0.768074 -0.135077 -0.171866 0.673578 0.560330 -0.018655 -0.414312 -0.380379 0.356399 -0.117299 -0.432989 0.313914 -0.310764 -0.382704 -0.067831 0.094811 0.559763 -0.215447 -0.016279 -0.366841 -0.105919 0.434323 0.176900 0.741262 0.026043 1.043722 -0.097402 0.468826 -0.013126 0.182248 -0.434772 -1.054581 -0.198669 -0.714367 -0.754002 -0.147855 -0.371213 -0.389707 -0.261695 0.633096 -0.072020 0.368269 -0.175885 -0.400778 -0.081323 -0.535167 -0.654235 -0.248601 0.040278 0.160351 -0.198608 0.938657 -0.076903 -0.749729 0.453096 0.035374 -0.303348 0.042489 0.744720 -0.489776 -0.419890 0.263181 -0.064144 -0.105810 0.020744 -0.137580 0.427802 0.197326 -0.478842 0.485521 -0.041608 -0.190552 -0.587156 0.349988 0.543838 -0.314178 -0.544636 -0.014678 0.380303
49 0.419433 -0.015029 0.022685 0.137374 -0.374431 0.651837 0.573380 0.181255 0.496533 0.163039 0.573328 -0.175910 -0.231573 -0.001192 -0.689858 0.790984 0.060318 -0.445802 0.374882 0.602388 -0.341511 0.521171 -0.384754 0.171532 0.047011 0.157864 -0.221262 -0.817339 0.346170 0.272985 0.219929 0.219810 0.245412 0.291399 0.337534 -0.087956 -0.060723 -0.058380 -0.117305 -0.261365 -0.175689 -0.324289 0.460477 0.410079 -0.248829 0.187469 0.055798 0.470511 -0.637373 -0.503833 -0.209898 -0.108425 -0.037756 -0.120705 0.307993 0.366009 0.064092 -0.195969 0.445345 -1.054310 -0.330818 -0.035735 -0.394071 0.022636 -0.108784 0.387848 -0.785004 -0.718353 0.372544 -0.346460 -0.691570 0.133073 -0.520699 -0.328307 0.457544 -0.337064 0.514492 0.096267 0.298733 0.351605 0.081077 -0.173713 -0.254804 0.145985 -0.387046 0.758763 -0.874570 0.684542 0.662535 -0.438284 0.375338 0.221406 -0.303468 -0.113224 -0.264770 0.197253 0.050066 0.599118 -0.093567 0.403146 -0.199335 0.151954 -0.315227 -0.121947 -0.425424 -0.148739 0.078695 -0.405029 -0.073599 -0.037810 -0.574429 -0.069089 0.017984 -0.728400 0.717090 -0.300387 0.210817 -0.855419 0.001326 0.563205 0.114173 0.159913 -0.545917 -0.171611 -0.146042 -0.194660 -0.202197 0.222802
50 0.579350 0.306392 -0.346743 -1.121722 -0.243322 0.002923 1.237075 -0.677049 0.662118 0.208671 -0.492836 0.474246 -0.101630 0.754053 -0.499384 0.631634 -0.105717 0.431344 -0.175210 -0.523144 -1.006781 -0.322666 -0.459040 0.348804 -0.208873 -0.280618 0.279788 -0.153356 -0.413770 0.714473 0.422280 0.029892 0.336321 0.062871 -0.381296 -0.834736 0.262343 0.131264 -0.210956 0.291513 0.032893 -0.040687 -0.393309 -0.347840 -0.150705 -0.464816 0.224247 -0.244133 -0.103839 -0.576984 0.185129 0.462747 0.546894 0.165829 -0.454785 0.141183 -0.006963 -0.399093 0.314327 0.093762 0.720440 -0.737296 -0.171643 0.237950 0.657755 0.057346 -0.114677 -0.361582 0.795653 -0.200550 0.248465 0.711651 0.694836 0.021829 -0.180027 -0.304919 -0.341171 0.791695 0.894218 0.549483 0.899338 -0.747087 -0.180677 -0.055956 -0.443416 -0.053554 0.044935 -0.416764 0.162822 0.115281 -0.204898 -0.305096 -0.134632 -0.912155 -0.389096 -0.197683 -0.761591 -0.150455 -0.739266 0.500015 0.127437 0.016525 -0.599658 0.580565 0.066095 -0.431517 0.278662 0.264801 -0.396948 -1.243341 0.274423 -0.162086 -0.098375 -0.218760 -0.200796 0.331228 0.337960 0.119066 1.519123 -0.368399 0.017362 -0.027172 0.402386 -0.443133 0.475293 1.051354 0.866632 -0.917958
51 -0.646627 0.175228 -0.358178 -0.181291 -0.285528 -0.410345 -0.398891 -0.001142 -0.407859 0.062137 0.144202 -0.718030 -0.466209 0.024575 0.393925 0.670939 0.100998 0.238185 -0.721270 0.348625 0.488577 0.128259 0.704609 -0.230326 -0.517306 0.782014 -0.642472 -1.063356 0.494494 0.439959 0.418181 -0.603686 0.485269 0.171011 0.353791 0.031866 -0.688594 -0.593668 -0.022423 -0.317422 0.283726 0.035916 -0.140209 0.454536 0.292528 0.195490 0.649123 0.721356 0.241800 -0.197486 -0.316936 0.674240 0.184440 0.252416 0.078748 -0.114199 -0.156790 -0.300910 -0.013669 -0.206959 0.452696 0.026269 -0.406843 -0.575915 0.274759 0.675191 -0.136862 0.214613 0.210316 -0.327670 -0.316202 -0.129861 0.482202 0.109873 0.055778 -0.171201 -0.040066 0.362776 -0.493403 -0.519129 -0.664568 -0.798266 -0.661068 0.747741 0.074660 -0.549438 -0.067523 -0.301197 -0.041798 -1.027825 0.149761 1.022153 0.067574 -0.192498 0.052952 0.616145 0.357483 0.061309 -0.070017 -0.229910 -0.434010 -0.909128 -0.414279 -0.230022 -0.937297 -0.107379 -0.564098 -0.382158 0.099297 -0.165796 0.458347 0.370575 0.008343 -0.000383 0.155632 0.150502 -0.032578 0.313903 0.017356 -0.250238 -0.439878 0.409752 -0.240347 -0.538523 -0.276237 -0.168240 -0.494121 0.135638
52 0.279678 -0.254343 0.033390 0.197112 -0.063470 -0.206453 0.691201 -0.176239 0.030807 -0.132575 -0.088594 -0.065493 -0.807416 -0.382415 -0.002553 -0.135210 0.330436 -0.387559 -0.527975 0.451358 -0.215638 0.276969 0.287738 0.848751 0.231661 0.432896 0.478286 -0.389305 0.321875 -0.321810 0.585136 -0.398144 0.856780 -0.038163 -0.417270 -0.205736 0.024432 -0.533344 -0.383285 0.008956 -0.336848 0.132730 -0.312124 0.775086 -0.602847 0.161304 0.189070 -0.199058 -0.092800 0.186730 0.580372 0.226497 0.285762 -0.445474 -0.141220 0.098221 0.501029 -0.307135 -0.232887 -0.084866 -0.174250 -0.164946 -0.455231 -0.994389 -0.451415 0.169263 -0.056586 0.322552 0.446235 -0.058610 0.185639 0.486082 -0.177758 -0.730786 -0.125281 -0.303764 -0.027136 0.194815 0.715297 -0.030512 0.205555 -0.044960 -1.005401 -0.099482 0.224830 -0.050039 0.202316 -0.357213 -0.355831 -0.579185 0.030708 0.169608 0.335410 0.543979 0.264017 0.072200 -0.140737 0.939556 0.126110 -0.180695 -0.445990 -0.090396 -0.641071 0.579713 0.177748 0.492748 0.253940 -0.786794 -0.171901 0.434785 -0.278161 0.227383 0.199247 0.023859 0.543894 -0.853335 0.120771 -0.533310 0.667363 -0.790342 -0.099605 -0.212083 -0.270444 0.433678 -0.697649 0.285812 -0.493110 -0.664625
53 0.116338 0.476138 0.154819 0.090970 -0.399381 0.124070 -0.412253 0.035194 -0.576177 0.043698 -0.290252 0.106591 -0.747615 0.350374 0.284893 0.525155 0.117150 0.494581 -0.377604 0.355678 0.035335 -0.283438 -0.298704 0.566979 -0.100158 0.267507 0.417781 0.026594 -0.257145 -0.345216 0.080051 0.517571 0.229447 0.279724 -0.020168 0.729636 0.327429 -0.556696 0.438954 -0.204031 -0.153720 -0.400345 0.640053 0.468737 -0.326363 0.308443 0.505105 0.166630 0.276362 0.665914 -0.599599 -0.091193 0.258881 -0.338628 -0.249563 -0.372349 -0.547103 -0.002789 0.409070 -0.376176 0.208308 0.204559 0.063714 0.482005 0.329738 -0.598166 0.286926 -0.056886 -0.044452 -0.073144 -0.294521 -0.100783 -0.212693 -0.240456 -0.290892 -0.081455 -0.816808 -0.038871 -0.214560 0.025909 -0.803286 -0.623886 -0.320787 0.210085 -0.207466 -0.215992 -0.488509 -0.417440 0.113281 0.102341 0.266692 0.708292 0.146335 -0.126077 -0.856719 -0.771660 0.178034 0.758643 0.051473 0.416499 -0.529542 -0.853313 -0.623280 -0.673984 -0.380034 0.146021 0.046417 0.382055 0.382414 0.448190 -0.096359 0.168044 0.626649 -0.507135 -0.142379 0.409140 0.441907 -0.602909 0.451519 -0.530595 0.617387 0.445997 -0.028395 -0.236978 -0.011560 -0.407696 -0.469264 0.807519
54 -0.641397 0.318466 0.303277 -0.004009 -0.715174 -0.382757 0.324792 -0.313966 0.235018 0.562360 -0.637620 0.274307 -0.296608 -0.186296 -0.411400 0.097482 -0.229036 -0.673383 0.274040 0.580987 -0.533064 1.106803 0.235367 0.648472 -0.607585 -0.926425 0.251267 -0.636719 -0.304699 -0.369951 -0.548396 -0.397716 0.095151 0.270224 -0.308005 -0.000747 -0.130223 0.030179 0.087829 -0.582311 0.330925 -1.186444 0.377878 -0.027340 -0.229548 0.155890 0.562516 0.004790 0.083941 0.197496 0.286597 -0.278628 0.205907 0.321477 0.183617 -0.282161 -0.151351 0.055288 0.283686 0.024956 0.163093 -0.236930 -0.804608 0.611913 0.129976 -0.313895 -0.278704 0.206495 -0.624681 -0.208364 -0.382224 -0.079090 0.677189 -0.431609 0.124068 0.545391 0.171474 -0.634167 0.816333 -0.117650 0.709971 0.134132 0.304164 -0.199524 -0.074814 0.665867 -0.548130 -1.056959 0.734625 0.070559 -0.602001 0.519532 -0.348692 -0.381757 -0.332752 0.026512 0.102991 0.956703 0.707909 1.001392 0.479959 0.213292 -0.314206 -0.162558 -0.676672 -0.299475 0.478909 -0.766143 -0.057598 -0.651171 0.445902 0.652277 -0.810840 0.580776 -0.969310 0.358497 -0.318293 0.488059 0.350890 0.131873 0.263770 0.382497 -0.639507 -1.011046 0.276953 -0.306739 0.258980 0.491773
55 -0.545767 0.260670 -0.306586 -0.563742 -0.216907 0.116070 0.638269 0.100739 0.474442 0.496304 0.291795 -0.777580 -0.670438 0.258777 0.184246 -0.395638 -0.147176 -0.016054 -0.255004 0.090410 0.531214 0.547281 0.619982 -0.509052 -0.151556 0.185289 -0.274044 -0.655514 -0.452244 -0.520841 -0.157446 0.118508 0.795160 -0.341865 -0.043050 -0.103791 1.058163 -0.117318 -0.861656 -0.033677 -0.150454 0.191680 -0.219164 0.402136 0.255974 0.018346 -0.277539 -0.042354 -0.250669 0.458136 -0.022590 0.351286 0.515429 0.584119 0.490620 -0.217908 0.163513 -0.830068 -0.649797 -0.382755 -0.311153 -0.171426 -0.389655 0.401135 0.372415 0.240059 0.200036 -0.182927 0.325148 -1.069446 -0.635253 0.224073 -0.126733 -0.270503 0.466090 -0.255360 -0.101557 -0.078563 0.875931 0.450863 -0.237562 -0.157743 0.204187 0.798692 0.102824 0.341443 -0.597496 -0.497502 -0.352923 0.018938 0.384716 0.412828 0.538443 -0.215101 -0.743179 -0.101231 -0.488446 -1.172416 0.154723 -0.180039 0.402625 -0.886750 -0.524664 -0.072220 -0.101220 -0.087886 0.265220 0.144597 -0.930954 -0.119642 0.174688 0.574867 0.705970 -0.091992 0.211199 0.499277 -0.478980 -0.513602 -0.088375 0.013821 -0.551216 -0.641904 0.525319 0.174635 0.095585 0.005258 0.258337 -0.159569
56 -0.413212 -0.205834 0.070289 -0.184623 -0.879800 0.329023 -0.521592 0.541398 -0.343515 -0.216494 -0.803732 0.105876 0.605462 0.663831 -0.205555 0.071381 -0.213202 -0.315774 -0.259533 0.669225 -0.051941 -0.357771 0.260984 0.968164 1.222317 -0.470749 -0.199619 0.188916 -0.413972 -0.399670 -0.091954 -0.376863 0.049572 -0.057496 -0.919884 -0.050219 0.204406 0.104243 -0.214675 0.008291 0.163539 -0.056993 -0.045242 0.529851 -0.410891 -0.349973 0.269502 -0.642295 0.336637 -0.698365 0.493335 -0.309283 -0.041254 0.730246 -0.283444 0.518352 -0.432625 -0.322063 -0.104984 -0.176879 0.386259 -0.161376 0.030121 -0.727983 0.268472 0.536202 0.835499 0.126297 -0.139366 -0.202030 0.137136 -0.181880 -0.638390 0.471407 0.226430 -0.010976 0.322778 0.055951 0.550379 -0.146620 -0.230418 0.040464 -0.543128 0.121990 -0.122687 -0.028548 -0.669746 -0.561717 -0.203224 -0.289814 -0.107171 1.179501 -0.578267 -0.059553 0.240688 0.502703 0.928057 -0.242807 0.050553 -0.243465 0.243196 0.024644 -0.413268 -0.399743 -0.288436 -0.212837 0.857957 0.114376 -0.087335 0.031977 -0.693986 -0.116602 0.227330 -0.177438 -0.173557 0.166063 0.050634 -0.540034 -0.320489 0.075197 0.175372 -0.426748 0.526363 -0.593241 0.131398 0.091190 -0.094772 -0.059196
57 0.320403 0.693068 -0.397397 -0.453324 -0.840911 -0.205261 0.505162 -0.309962 -0.679504 -0.019077 -0.491467 -0.164241 -1.076455 -0.600041 -0.066894 0.269178 0.215774 0.246697 -0.457948 0.422081 -0.275962 -0.269744 0.077162 -0.279521 -0.338097 0.386745 -0.240042 0.085967 0.133755 -0.054382 0.149418 -0.025948 1.164474 -0.559485 -0.647339 -0.393113 0.752250 -0.632625 -0.589920 0.623965 -0.318398 0.025973 0.287742 0.820551 -0.047772 0.170752 0.988136 -0.285958 -0.349104 0.646121 -0.096603 0.912817 0.730913 -0.106847 -0.094332 -0.374108 0.374310 -0.389148 0.744768 -0.417626 -0.292842 -0.012801 -0.179111 -0.498528 -0.129410 0.340330 -0.069729 -0.355361 0.532852 0.377346 -0.181358 -0.179838 -0.207048 -0.138348 0.800697 0.439045 0.555840 0.589267 -0.237151 0.155306 0.741780 0.126649 0.040615 0.118588 -0.230121 -0.332587 -0.363111 -0.216687 0.232325 -0.467359 -0.532197 -0.315704 -0.197524 0.117563 0.282923 -0.522261 -1.308604 -0.286030 -0.153588 0.107298 -0.144153 0.691262 0.717704 0.504670 0.090823 -0.881526 -0.205650 0.586060 0.321534 0.152548 0.147779 -0.189177 -0.094160 0.217487 0.121497 0.103156 0.230063 -0.364004 0.456707 -0.406405 0.063545 -0.486536 0.310402 -0.032712 -0.391172 -0.622031 -0.357844 -0.010421
58 -0.699408 0.077425 -0.085135 0.198039 -0.027814 0.080784 -0.221974 -0.091326 -0.081367 -0.069217 0.236023 -0.246988 -0.763669 0.328082 -0.779613 -0.409805 -0.376904 -0.053983 -0.377585 -0.238535 -0.370668 -0.475016 -0.311556 -0.139120 -0.045528 0.264320 -0.413039 -0.184499 0.432297 0.310802 -0.479532 -0.555964 0.497801 0.388058 -0.277268 0.332017 0.143261 -0.355649 -0.767663 0.393576 -0.171382 -0.008192 0.015524 0.025244 -0.112696 -0.426922 0.674998 0.127185 0.338748 -0.609374 0.018161 0.098897 -0.205175 -0.141082 -0.214942 -0.669710 -0.264098 -0.593492 -0.363167 -0.779821 -0.014235 -0.023452 0.046333 -0.257898 0.048645 -0.009584 0.115126 0.625233 0.316806 -0.132803 0.072292 0.351767 0.616005 0.191995 -0.408783 -0.432603 -0.161684 -0.495936 0.544618 -0.528390 -0.288184 -0.104066 -0.140432 -0.302876 -0.168636 -0.494317 -0.291596 -0.042571 0.031653 0.435006 -0.643044 0.466967 0.184671 -0.238622 0.012825 0.090195 -0.206275 -0.358861 -0.562240 0.144729 -0.123706 0.170446 -0.918385 0.172004 0.159864 -0.020420 -0.228260 -0.073093 -0.168969 -0.207395 -0.065533 0.372093 -0.207551 -0.181958 -0.247439 -0.586198 -0.544145 -0.030293 0.470805 -0.126103 -0.291812 -0.085033 -0.284469 -0.007504 -0.191627 0.106684 -0.418817 -0.104813
59 -0.209636 0.325058 0.174498 -0.245408 -0.261417 0.061253 0.023664 -0.165042 -0.559171 -0.541435 0.576028 0.070616 -0.185105 0.167434 -0.224307 0.217213 0.044984 -0.145862 -0.362370 0.352981 -0.468260 -0.627192 -0.271535 0.558215 0.027167 -0.098126 -0.268644 -0.104324 -0.961529 0.124637 0.125552 0.630867 0.029712 -0.123408 -0.509664 0.351218 0.727408 0.112710 -0.408011 -0.137778 0.524097 0.447317 -0.253507 0.059109 -0.132606 -0.107765 0.280902 0.167858 0.331779 0.116391 -0.017021 -0.644095 -0.580114 -0.049837 -0.570612 -0.773488 -0.320848 -0.201688 0.231180 0.084485 0.610895 0.068975 -0.093333 0.149322 -0.232041 0.222072 -0.447046 -0.152094 -0.344388 -0.316519 -0.230047 -0.014562 0.017229 -0.088361 -0.277411 -0.445977 -0.572880 -0.197937 0.397839 -0.468445 -0.444192 0.186047 -0.274811 0.208859 0.251706 -0.365379 -0.745197 -0.640765 0.224339 0.010008 0.224446 -0.061946 -0.177273 0.261338 -0.366248 -0.609755 -0.027205 0.017866 -0.146028 0.060510 0.079420 -0.090090 -0.165308 -0.302213 -0.715439 0.280916 -0.135367 -0.067640 -0.015786 0.282370 0.402085 -0.253776 -0.138524 0.112625 -0.230877 -0.313671 -0.272370 -0.044036 0.177462 -0.455086 0.118901 0.384673 -1.066639 -0.237580 -0.253328 -0.044146 -0.320043 1.059029
60 -0.361987 0.352078 0.565600 -0.554139 0.117594 0.191573 -0.511661 -0.466041 -0.599737 0.070762 -0.463709 -0.748090 -0.600843 0.433457 -0.258641 0.303762 0.309019 0.321293 -0.000599 -0.579446 0.463901 -0.093383 0.741761 -0.292938 0.346993 0.545691 -0.013028 -0.837381 0.153076 -0.249679 0.056444 0.137953 0.089991 -0.566108 -0.178167 -0.230759 0.333994 -0.360567 0.214714 0.134724 -0.041336 -0.452892 -0.443787 0.109624 -0.593828 0.040950 0.549800 0.423290 0.603947 0.228632 -0.006299 0.785969 0.429270 0.618986 0.161837 0.023955 0.479377 0.552110 0.153226 -0.496907 0.052998 0.545669 -0.187393 0.244374 -0.234813 -0.010110 -0.294468 -0.423922 -0.167751 -0.433583 -0.558027 -0.505904 0.309985 -0.212724 0.150414 -0.563743 0.723727 0.737467 0.485874 -0.061142 -0.064230 0.222974 -1.201954 0.255233 -0.098476 -0.258760 -0.173564 -0.161891 -0.388262 -0.171732 0.191551 -0.155847 0.262681 0.187873 -0.371251 -0.014377 -0.173107 0.589834 -0.043769 0.013150 -0.073303 0.178723 -0.974131 0.642388 0.071521 0.353507 -0.213289 0.165780 0.267937 0.288572 -0.657984 -0.338245 -0.414575 -0.604649 -0.685530 -0.254833 0.546564 -0.631031 0.923367 -0.048807 -0.075943 0.074770 -0.267155 0.258973 -0.523798 -0.273655 0.086884 0.082450
61 -0.102333 -0.050406 0.176938 -0.117579 -0.637251 -0.513004 0.253317 0.114801 -0.044666 -0.325799 0.531356 0.172809 0.100405 0.318150 -0.617331 -0.367753 -0.155367 0.602478 0.371974 0.291142 -0.223683 -0.952844 -0.448582 0.091633 -0.529044 -0.613689 -0.487710 0.077807 0.131489 -0.178405 0.297447 -0.048096 0.648479 0.485891 -0.058053 -0.281560 0.035698 -0.119495 -0.625973 0.174731 0.882279 -0.098764 -0.625860 -0.036893 -0.798318 -0.211176 0.533484 0.593682 -0.837455 0.306116 0.464456 -0.347994 0.419036 0.833765 -0.277716 -0.396501 -0.062249 0.236277 0.607267 -0.027705 0.716769 -0.906060 -0.009574 0.115446 -0.348656 -0.401024 0.290787 0.020594 0.315003 0.046518 0.126673 0.257652 0.423992 0.387435 0.100821 -0.259689 -0.159267 0.346152 -0.016489 0.306489 0.664216 -1.046921 -0.157606 0.378012 0.149114 0.303583 -0.528719 0.281259 -0.046969 -0.525696 0.289598 -0.700456 -0.157065 -0.499810 0.318974 -0.149987 -0.168619 -0.486025 -0.330687 0.410175 -0.681986 -0.065010 -0.790963 -0.478446 0.401090 0.011439 0.664582 0.216434 -0.193642 0.367124 -0.024771 -0.082063 -0.640649 0.675767 -0.521514 0.465608 0.282497 -0.399280 0.166268 -0.506185 -0.954209 0.021461 -0.550902 -0.481422 -0.730949 -0.034015 -0.303877 -0.266668
62 0.094071 0.310154 -0.083403 0.026926 -0.332164 0.179874 0.118869 0.206497 -0.519989 0.073360 0.928120 0.039534 -0.006687 0.565920 -0.266411 -0.635898 0.143267 0.057930 -0.384760 -0.008526 -0.137557 0.506594 0.484483 0.945529 0.065449 0.128901 0.546364 -0.083853 -0.673361 0.470352 -0.337782 -0.077795 0.123262 0.198098 -0.343534 0.181496 0.456830 0.841583 0.107329 -0.092473 -0.016560 0.180214 0.985712 0.478290 -0.595182 -0.187398 0.174319 0.122393 -0.381522 -0.221403 0.083064 0.780207 0.271126 -0.300752 0.529550 0.182140 0.230181 -0.123432 -0.343215 0.460617 -0.323931 -0.452562 -0.353698 0.172981 0.754487 -0.166316 -0.170244 0.270617 0.416017 -0.258021 -0.769584 -0.053503 0.156740 -0.169245 -0.691956 -0.117044 -0.349758 -0.008030 0.395159 0.163075 0.766805 -0.100023 -0.487051 0.254034 -0.052718 0.839396 -0.427482 -0.434457 -0.371987 0.055766 -0.159605 -0.081764 0.313143 0.241021 -0.135073 1.098120 0.391685 -0.125718 1.133756 0.566978 0.435976 -0.402126 -0.554132 0.259621 0.310637 0.641493 -0.011198 0.430610 -0.010221 -0.592530 0.243528 -0.067896 -0.230513 -0.892772 -0.019548 0.562216 0.330236 0.625604 0.653666 -0.027175 0.080891 0.094703 -0.219606 -0.538550 0.055852 0.238530 0.725148 0.289322
63 -0.421860 0.241631 0.196982 0.648217 -0.662660 -0.387954 0.125675 0.251726 -0.055092 -0.100250 -0.834305 0.512379 0.113315 -0.871923 0.346076 -0.137138 -0.991896 0.134472 0.805307 0.543278 0.322281 0.248296 -0.377649 0.573585 -0.072332 0.099299 -0.856142 -0.229412 0.313087 0.073509 -0.116424 -0.349331 0.246137 0.644132 0.114370 -0.414966 0.352217 0.839771 -0.360696 -0.402426 0.284095 -0.372736 -0.029504 -0.368393 -0.419425 -0.073481 0.761632 0.425965 0.090990 -0.140757 -0.657143 0.236463 0.123685 0.614034 0.718250 -1.212587 0.080621 0.086693 -0.038629 -0.444631 -0.778641 -0.013543 -0.010272 0.519544 0.207761 -0.914607 0.478132 0.248334 -0.124645 -0.020731 0.223396 0.079171 -0.220720 -0.197660 -0.417471 0.167209 -0.780358 0.459692 0.425751 0.107702 -0.337128 0.268173 0.040117 0.097237 -0.276226 -0.435754 -0.771824 0.294423 0.483071 -0.110717 -0.903478 -0.337363 -0.170442 -0.022685 0.074136 -0.577126 0.067411 0.652622 -0.302640 0.101571 0.768659 0.331811 -0.693008 -0.225061 -0.045875 -0.744260 -0.183161 0.465843 -0.285301 0.050765 -0.653676 0.313832 -0.270131 -0.599329 -0.122839 -0.178130 -0.496237 -0.268566 -0.318505 0.228745 -0.445805 -0.424233 -0.052613 -0.288839 0.034004 -0.458594 0.031570 -0.083052
64 0.725589 0.026974 -0.736552 -0.012234 -0.507332 0.311024 0.554815 -0.048259 0.410098 0.484485 0.284528 -0.063149 -0.555093 -0.426312 0.059440 -0.245618 0.036133 0.567594 -0.455141 0.376631 -0.215230 -0.090969 -0.210508 -0.286903 -0.338774 0.729774 -0.274333 0.112231 -0.268811 0.277010 -0.258750 0.557280 0.553157 0.885440 -0.052846 0.007251 0.192060 -0.312793 -0.053053 0.492236 -0.643332 -1.119744 -0.631776 0.393141 0.415291 -0.728185 0.252157 0.405869 0.149383 -0.922582 0.505869 0.210652 0.020697 0.820032 -0.135463 0.064442 -0.042586 -0.365663 0.049035 -0.433880 -0.054142 -0.439367 -0.378406 0.353710 0.384010 0.014825 -0.641026 0.599576 0.358047 0.082599 0.735558 0.001328 0.612333 0.020310 0.091094 -0.874090 -0.189664 0.384464 -0.039908 -0.109443 0.164375 0.152514 0.422796 -0.388134 -0.032295 0.359675 -0.020603 0.401648 0.538114 -0.041783 -0.181637 -0.024421 -0.129820 0.342798 -0.729901 -0.044777 -0.400586 -0.141862 0.105094 0.182430 0.096693 0.377102 -0.628059 -0.396912 -0.499979 0.632878 -0.059184 0.186950 -0.047226 0.006371 0.035953 -0.243419 0.040532 -0.163998 -0.528295 0.092897 0.109755 -0.629676 0.564238 0.042111 0.221262 -0.055109 -0.029735 -0.313245 -0.156680 0.186863 -0.121759 0.545313
