3312 128
390 0.208036 -0.098693 0.228582 0.243639 -0.345480 0.166788 -0.177995 0.030999 0.384479 -0.095630 -0.302490 -0.333353 -0.167710 -0.149359 0.037841 -0.052423 0.115062 0.193172 0.057340 0.287475 -0.278635 0.158596 -0.000253 0.552931 -0.261340 -0.178815 0.311271 -0.259996 0.243753 0.136731 -0.010864 0.374322 -0.015294 -0.311956 -0.206233 -0.278117 0.100024 -0.149116 0.062531 0.091888 0.170193 0.000251 0.147541 0.281517 0.044528 -0.219378 -0.013070 0.156283 -0.237271 0.086887 -0.152113 0.107964 0.502759 0.141806 0.266698 -0.357717 -0.015328 -0.163121 0.140690 -0.060461 0.456813 0.203410 -0.197926 0.693566 -0.107123 -0.406319 -0.152960 0.136119 0.354590 0.008298 0.168006 -0.003061 0.162021 0.224363 0.017693 -0.051202 -0.269487 0.177578 -0.401455 -0.174682 0.036833 0.151803 -0.387267 -0.369037 -0.346575 -0.424077 -0.161129 0.435587 0.362764 0.205436 0.242297 -0.190853 0.100655 -0.272808 -0.035319 -0.139739 -0.046607 -0.025453 0.047092 -0.287996 0.598815 0.203315 -0.209037 -0.443640 0.300611 0.141195 0.116309 -0.218808 -0.152973 0.128181 0.161306 0.252547 -0.127035 0.353635 0.342481 0.231033 -0.290916 0.293874 -0.572420 -0.285970 -0.115589 0.330457 -0.162958 -0.349401 0.012411 -0.234841 -0.167746 -0.350629
847 -0.034311 0.110890 -0.281394 0.072404 -0.192375 -0.159604 0.139018 -0.213585 0.919709 0.020922 0.773637 0.480026 0.090588 0.022180 0.390608 -0.196188 -0.460955 -0.214695 -0.520945 0.028848 0.398190 -0.106429 0.078582 0.256111 0.043801 -0.113775 0.220437 0.195238 -0.413162 -0.115824 0.144075 -0.246759 -0.193381 -0.042642 -0.036641 -0.034503 0.061753 -0.192960 0.340284 0.213593 0.185689 0.241521 0.887368 0.367084 0.113902 -0.119889 0.034313 0.096105 -0.087824 0.355278 0.125034 -0.028509 0.166521 -0.204802 -0.065450 -0.172973 -0.126106 0.214744 -0.114025 -0.073188 -0.055140 -0.248250 -0.056129 -0.457749 0.356635 -0.088631 0.234736 -0.008240 -0.006346 0.166014 -0.032392 0.314306 0.307293 -0.012588 0.162487 0.459906 -0.064094 0.307617 -0.114354 0.143160 0.500623 0.217861 -0.450856 0.230022 0.386424 -0.262011 -0.443051 -0.152019 0.336799 0.124582 0.090177 -0.640237 0.242256 -0.528007 -0.616567 0.298674 -0.149129 0.122689 -0.166941 -0.120342 0.417724 -0.095211 -0.547361 0.286893 0.276639 0.378940 0.069795 -0.329230 0.090103 0.410433 -0.018663 -0.232869 0.135632 -0.484253 0.302989 0.169919 -0.148006 0.054272 0.216365 0.121809 0.355485 0.157174 -0.184237 0.241489 -0.265350 0.191290 -0.038707 -0.081169
1918 -0.445924 -0.079957 -0.069225 0.133417 -0.128238 -0.497521 -0.353546 -0.130752 -0.301916 -0.166792 -0.640869 -0.047095 0.072210 -0.601656 0.003414 -0.076626 -0.009734 0.110023 0.242137 0.257298 0.158359 0.303958 0.160087 -0.009215 -0.442757 0.255346 0.389835 0.202367 0.134865 0.026133 0.512896 -0.238773 -0.481919 0.296527 -0.437194 -0.407963 -0.184321 0.004441 -0.444973 0.655720 0.169993 0.074311 0.396650 -0.293116 0.171388 -0.146888 -0.726221 0.769983 -0.214331 -0.004244 0.169300 -0.067579 -0.320858 0.447279 1.244278 0.024303 0.189707 -0.022049 0.245960 -0.184753 -0.394507 0.319429 0.195892 -0.361238 0.764398 -0.244379 0.899284 -0.510342 0.180932 -0.712662 -0.406481 0.758745 0.301344 -0.020443 0.707240 -0.046606 -0.303741 -0.319360 -0.655364 -0.603954 -0.464965 -0.521821 0.538291 -0.600389 -0.060487 -0.639500 -0.364264 -0.189545 0.570560 -0.522713 -0.053442 -0.569559 -0.142305 0.007657 -0.302459 0.080304 -0.179524 0.096135 -0.384065 0.335963 0.301494 0.102397 -0.267904 0.494279 0.113395 0.352946 -0.277690 -0.073311 -0.024399 0.142596 0.451843 0.067892 0.385295 -0.902538 -0.016496 0.160472 -0.560271 0.198792 0.257163 0.090988 0.015501 -0.233344 -0.536888 -0.396093 -0.169851 -0.557897 0.118617 -0.373262
643 -0.098535 -0.049202 0.206486 0.077543 -0.464634 0.134321 -0.000097 -0.027846 -0.172224 -0.070678 0.371794 -0.048663 -0.175631 -0.132833 0.129034 -0.474975 -0.112153 -0.091641 -0.340020 0.244914 0.223937 -0.079819 -0.266728 0.264730 0.685723 0.261173 0.275954 -0.114451 0.207295 0.102870 -0.327922 -0.065533 -0.266706 -0.068679 0.322234 0.186669 -0.239974 -0.185937 0.062719 0.277332 -0.181316 -0.296320 0.009895 -0.321247 0.087359 -0.580368 0.386598 -0.144197 -0.548818 0.448804 -0.000726 0.202027 0.045686 -0.140962 0.042072 0.104604 -0.229284 0.456431 -0.413678 -0.108018 0.082041 -0.080181 -0.229240 -0.095827 0.484509 0.520959 -0.297158 0.522315 0.021938 0.020812 0.271251 0.312092 0.039360 -0.263876 0.352342 0.123936 -0.016012 0.519754 0.421292 -0.486509 0.382171 -0.095739 -0.503259 0.128256 0.561089 0.029359 0.168216 -0.302833 0.446802 -0.526232 0.782818 -0.992751 0.386823 -0.112925 -0.870640 -0.123321 -0.260902 0.416739 -0.209287 0.005450 0.534320 0.115998 -0.115854 -0.068484 0.208032 -0.498423 -0.341293 -0.429952 -0.387746 0.001282 0.159066 0.073030 -0.209304 -0.611399 0.086614 0.572257 -0.234469 -0.153248 0.117937 0.187633 0.038389 -0.135928 -0.292730 -0.347187 -0.421466 0.010985 -0.253246 -0.106525
471 -0.054692 -0.253803 -0.457283 0.094038 -0.587066 0.098346 0.053639 0.026980 0.196854 -0.215949 -0.382542 -0.233822 -0.219866 -0.003374 0.076288 0.256580 -0.358837 -0.301817 0.320251 0.184439 0.112183 -0.121566 -0.236951 0.117579 -0.290542 0.119512 -0.065672 0.396403 -0.099053 0.374077 -0.205270 -0.178230 -0.488138 -0.114848 -0.306076 -0.293496 -0.414001 -0.406497 0.353698 -0.422639 0.147678 0.041097 0.021235 0.133072 0.319428 0.150046 -0.159403 0.281128 -0.463707 0.313525 -0.653774 0.471742 -0.026119 0.119294 0.145881 -0.307154 -0.046848 -0.575164 0.298050 -0.403353 -0.021007 0.399515 -0.084665 0.088062 0.035274 -0.217279 -0.125649 -0.337209 -0.182819 -0.018359 0.211461 -0.242077 0.156842 0.217136 0.134096 0.026069 -0.275333 0.299439 0.109561 -0.067757 -0.236169 -0.277890 -0.346582 -0.173502 0.091927 -0.213714 -0.439872 0.056143 -0.036560 -0.204179 0.679249 0.363804 0.285843 0.049118 0.009250 -0.114183 -0.546896 0.188240 -0.347828 0.050486 0.545395 0.197604 -0.218645 -0.271137 0.069112 0.120672 -0.029030 -0.092140 -0.168157 -0.361212 0.494750 0.047409 -0.043685 0.144204 -0.110642 -0.087776 -0.403887 0.235423 -0.457307 -0.123172 -0.241722 0.250502 0.174619 -0.422817 -0.142853 -0.312529 -0.122792 0.295939
661 0.048693 0.339816 -0.109706 -0.341083 0.051341 0.042621 0.154181 -0.330566 0.400581 -0.710767 0.287215 0.423380 0.122789 0.061175 -0.044180 -0.038261 -0.388577 -0.000942 0.098563 0.108593 0.451315 0.282042 -0.229062 -0.297995 0.574748 0.158784 0.128932 -0.223757 0.418193 0.109587 0.405061 0.264882 -0.028831 0.136555 0.292903 0.103264 0.244104 0.125351 0.671008 0.384780 -0.147406 -0.107708 -0.067354 0.453256 0.350552 -0.405103 -0.267781 0.364278 -0.597264 0.438102 0.109277 0.005607 -0.113554 -0.021747 -0.090731 -0.261776 -0.012623 0.309652 -0.699234 -0.015320 -0.262644 0.281250 -0.482475 -0.128380 0.625646 0.118958 -0.398018 0.429547 0.119555 0.015336 0.251215 0.452778 0.108371 -0.108518 0.462311 0.158123 0.066751 0.075624 -0.060897 0.048889 0.823768 -0.312672 -0.780190 -0.068336 0.777750 -0.405221 0.138562 -0.201647 0.692379 -0.464475 0.285414 -0.557517 0.398579 -0.331837 -0.390926 0.187867 -0.303851 0.079671 0.035691 -0.424377 0.371075 0.396498 -0.457626 -0.139565 0.234985 -0.287766 -0.122398 -0.287581 -0.290619 0.277866 0.525271 0.334063 -0.405074 -0.371088 0.106529 0.840740 -0.594706 -0.373283 0.132987 0.657863 0.014066 0.240710 -0.114464 -0.214249 -0.740052 0.037182 -0.276447 0.138049
439 0.013040 -0.260557 0.307648 0.455279 -0.433778 0.273888 -0.387228 0.126437 0.286775 -0.268883 -0.017889 -0.374585 0.085717 0.199607 0.086660 -0.023374 -0.217604 0.086714 -0.021746 0.034398 -0.020868 0.440444 0.454580 0.283588 -0.474122 0.289915 0.334237 0.120412 -0.089019 0.520532 0.065870 0.025347 0.208137 -0.237907 -0.044996 -0.055751 -0.075549 -0.317778 0.116582 0.015596 0.051497 -0.012402 0.272926 0.153684 0.323729 -0.047631 -0.021409 0.359075 -0.006902 -0.114574 -0.284062 0.242973 0.123066 0.155927 0.145566 -0.361269 0.293578 -0.529132 0.272877 0.065218 0.226447 0.146421 -0.463945 0.562602 0.049694 -0.225942 -0.030896 -0.043640 -0.119452 -0.200522 0.171046 0.065777 0.071959 0.159847 0.006659 -0.316265 -0.702085 0.096189 -0.347664 -0.165927 0.280086 0.038319 -0.430646 -0.167640 -0.381540 -0.674770 0.211075 0.629694 0.388783 0.301358 0.149497 -0.181361 0.336975 -0.098315 -0.084200 -0.224142 -0.249478 0.185134 0.102572 0.133199 0.442939 0.078058 0.312406 -0.427652 0.003923 0.254350 -0.068366 0.113324 -0.403355 0.175812 0.308338 -0.194579 -0.575987 0.315537 0.542342 -0.066647 -0.510749 0.123250 -0.211215 0.017419 -0.408618 0.655131 -0.048306 -0.211820 -0.296777 -0.033923 -0.421589 -0.238441
364 0.251107 -0.328403 0.290674 0.637436 -0.372477 0.174791 -0.285271 0.080728 0.326797 -0.145811 0.178464 -0.584120 0.185547 0.091841 0.084471 -0.111518 -0.173435 0.128154 -0.161001 0.238417 -0.027554 -0.188391 0.267486 0.593621 -0.364659 0.320115 0.359075 -0.071590 0.073713 0.707541 0.119143 0.415746 0.141654 -0.468707 -0.245587 -0.047609 -0.190204 -0.116802 0.485555 0.091281 0.110846 -0.206923 0.163579 0.076048 0.129628 0.069835 -0.306231 0.099157 -0.067435 -0.174952 -0.334404 0.255129 0.061284 0.094381 0.381884 -0.303492 0.227623 -0.424781 -0.194293 -0.090026 -0.012924 0.064435 -0.039411 0.501374 0.141626 -0.187933 -0.258864 -0.039736 -0.067501 -0.384231 -0.057915 0.341345 0.225407 0.366879 -0.060704 -0.325898 -0.191091 0.024126 -0.276230 -0.181836 -0.104637 -0.229317 -0.677998 -0.396078 -0.590662 -0.491860 0.073948 0.665554 0.284306 0.107611 0.553645 0.099533 -0.086008 -0.041373 -0.184614 0.098932 -0.328340 0.074185 0.241523 0.138722 0.437410 0.161864 0.065923 -0.147591 0.114422 0.308351 0.219747 -0.118276 -0.633402 -0.083258 0.192950 0.204561 -0.447583 0.209052 0.418353 0.059547 -0.569024 0.326460 -0.455166 -0.048035 -0.249753 0.323891 -0.069248 -0.270165 0.007196 0.000394 -0.314027 -0.257525
1406 -0.466086 -0.012818 -0.218276 0.559077 -0.418548 0.502506 0.516387 0.107321 0.286650 -0.431645 -0.506644 0.034009 -0.431227 -0.246886 -0.116097 -0.429733 -0.467648 0.115641 -0.446100 0.029084 0.170586 -0.133001 -0.242260 -0.070105 0.183910 0.172478 0.300929 0.881480 0.108953 0.187486 0.263217 0.309365 0.073531 -0.504077 0.659118 0.018086 0.381927 0.138116 0.537893 -0.070348 0.254254 -0.167588 -0.012184 0.498505 0.144802 0.698207 -0.169621 0.545089 -0.301994 -0.273795 0.757939 -0.168029 0.896923 -0.095332 0.051532 0.264440 -0.260116 -0.276297 0.677097 -0.686384 0.359585 -0.367784 0.700375 0.274058 0.356014 0.092908 -0.035733 0.240146 0.108750 -0.549268 0.171445 0.346690 -0.008170 -0.237862 0.145489 -0.202785 0.133259 0.651220 -0.434608 -0.106306 0.834121 -0.560429 -0.225236 0.244640 -0.309344 -0.110000 0.550867 -0.035317 -0.281626 -0.066242 -0.587031 0.064599 0.070865 -0.226649 -0.761542 -0.761016 -0.476503 -0.075946 -0.541924 0.426780 1.037209 0.367188 -1.107564 0.303251 0.158823 0.492084 0.207086 0.091369 -0.144380 -0.629531 0.531093 -0.330087 -0.074944 0.011414 -0.553564 0.038653 -0.290199 0.442459 0.278843 -0.635234 -0.476228 0.008120 0.413918 -0.311457 -0.441766 0.153432 0.077595 -0.456829
291 0.139443 -0.144847 -0.182557 0.502756 -0.630241 -0.011826 -0.241293 0.387719 0.243358 0.046328 -0.065985 -0.370588 -0.293938 -0.108885 0.191757 -0.092140 -0.135304 0.062379 0.048490 0.094709 -0.280165 -0.126645 0.412427 0.578194 -0.069837 -0.045797 0.484978 -0.327085 0.141026 0.143666 -0.241176 0.514293 -0.220903 -0.214746 -0.621100 0.182030 0.154528 -0.019030 0.503939 0.051974 0.128823 0.276440 0.204266 0.261969 0.042170 -0.098528 -0.406268 0.148005 0.046357 -0.093260 -0.027344 0.202991 -0.104335 0.131877 -0.179658 -0.188947 -0.053863 -0.140147 -0.037543 -0.122077 0.308690 0.146481 -0.028380 0.527234 -0.073705 -0.189014 -0.136125 0.137508 0.137664 -0.210359 0.281738 0.276807 0.486695 0.177089 0.088263 -0.111806 -0.356804 0.204970 -0.066550 -0.109277 0.353620 -0.133520 0.149332 -0.424387 -0.804642 -0.057926 -0.168818 0.341381 0.369609 0.336741 0.605598 0.049230 0.143018 -0.023692 -0.119481 -0.255835 -0.182835 -0.012747 -0.007625 0.179387 0.286962 0.445288 -0.110969 -0.392377 -0.136150 0.286942 -0.509340 -0.046055 -0.195587 -0.383169 0.418847 -0.034949 -0.083122 -0.301844 0.478300 -0.075552 -0.477268 0.341461 -0.583258 0.183676 0.511948 0.338639 0.205570 -0.279138 -0.491764 -0.145997 0.127836 -0.425498
488 -0.594832 -0.021530 -0.283019 0.205866 -0.239672 -0.303441 0.841498 -0.044901 -0.304229 0.482761 -0.152425 0.053967 -0.503431 0.467738 0.479162 -0.308679 -0.447498 0.474611 0.044916 -0.469554 0.240122 0.121026 0.065015 0.205453 0.643350 0.406432 0.306728 0.137349 0.209079 0.678549 -0.350185 -0.482678 -0.132459 -0.319953 0.829310 -0.119238 0.475181 -0.013268 0.339382 0.419670 -0.349843 -0.209903 0.884832 -0.087960 0.103421 -0.034843 0.112609 0.136020 -0.112064 0.417401 -0.917752 -0.092305 1.305808 -0.217675 0.108810 0.064471 -0.568015 0.139420 -0.167597 -0.269018 0.586077 -0.101643 -0.324857 -0.319465 0.183017 -0.093258 -0.282292 0.607751 -0.328777 -0.377204 0.233531 0.326679 0.301616 -0.023624 -0.030891 -0.593191 -0.289381 0.472640 0.322963 -0.326456 0.075892 -0.174525 -0.576811 -0.421523 0.209088 0.223882 -0.038191 -0.635663 0.265014 -0.546467 0.474977 -0.616134 -0.264707 -0.188724 -0.884119 -0.171560 0.077297 0.138251 -0.225665 -0.156295 0.759515 -0.050232 -0.449318 -0.524723 -0.104766 -0.401460 -0.200384 -0.059899 0.091605 0.107522 0.115864 -0.224914 -0.031623 -0.464303 -0.312871 0.426701 -1.027899 0.072740 0.096766 -0.365305 -0.539828 -0.097060 0.325307 0.533454 -0.858303 0.096266 -0.239921 -0.470620
699 0.172190 -0.243971 0.141158 0.225761 -0.689676 0.167532 -0.297472 -0.127338 -0.033796 -0.008121 -0.274689 -0.651854 0.072315 0.035615 0.095245 -0.060439 -0.025192 -0.018466 -0.184703 0.264775 -0.151016 -0.062997 -0.130554 0.557120 -0.566116 -0.010924 0.480869 0.130459 -0.033230 0.393765 -0.112650 0.157370 0.229558 -0.167248 0.183304 -0.431180 0.132818 -0.364244 -0.174470 0.070292 0.087857 -0.085956 0.258098 0.520039 0.115517 -0.105436 -0.276033 0.426759 0.357241 0.250172 -0.414085 0.417701 0.062544 0.473694 -0.073799 -0.538315 -0.015679 -0.053155 -0.128045 0.080349 0.410331 -0.171435 -0.391710 0.798139 0.277013 -0.688264 0.103180 -0.216323 0.440684 0.162634 0.215748 -0.171043 -0.122507 0.354528 0.207888 -0.428268 -0.310223 0.308039 0.089769 -0.390105 0.362482 -0.074297 -0.300922 -0.205493 -0.396276 -0.263496 0.174900 0.176154 0.230956 0.050565 0.401592 -0.077345 0.078936 0.009233 -0.107385 -0.176265 0.057322 0.397985 -0.045665 0.087909 0.174761 0.188091 -0.287701 0.021822 0.079602 0.373767 0.221903 -0.023937 -0.183753 0.188323 0.165179 0.029892 -0.279640 0.003614 0.571187 0.185367 -0.758270 0.031249 -0.274867 -0.003987 0.200542 0.352631 0.142803 -0.569150 0.076816 -0.239166 0.011783 -0.217539
905 -0.038519 -0.101777 -0.462823 0.581073 -0.272858 0.158824 -0.212419 -0.092470 0.048897 0.330649 -0.224823 -0.597480 -0.062109 -0.549729 0.246169 -0.104586 -0.343536 -0.147838 0.333296 0.658143 -0.091034 0.098577 0.170689 -0.189417 -0.228152 0.211727 0.319345 -0.198272 0.319019 0.079034 0.020712 -0.374655 0.385345 -0.234930 -0.348729 -0.514985 0.125687 0.030984 0.305810 -0.242010 0.212995 -0.080792 0.138006 0.482139 0.050030 -0.081691 -0.112866 0.426002 -0.082920 -0.082730 -0.369239 0.586270 0.185443 0.245550 -0.084812 -0.433275 -0.176503 0.187677 0.126157 0.090772 -0.067383 0.048343 0.460448 0.100999 0.061842 -0.376167 -0.497029 0.454679 0.106737 0.182774 0.087253 -0.192088 0.017489 -0.045514 -0.058271 0.052573 -0.470909 0.717430 -0.147480 -0.219432 -0.123263 -0.201476 -0.336871 -0.229090 -0.001457 -0.207697 0.117934 0.175569 0.418908 -0.112546 0.365883 0.542145 0.219465 0.002006 -0.186159 -0.014221 -0.375803 0.155313 -0.474487 -0.015672 0.143658 -0.422345 -0.224191 -0.231330 0.044726 0.459592 -0.463219 -0.557787 -0.002553 -0.164193 0.626860 0.087627 -0.057198 0.022253 -0.311555 -0.235971 -0.163077 0.354506 0.200167 0.381365 -0.215223 0.847439 0.145634 -0.327794 -0.167026 -0.260921 -0.288484 -0.089335
2049 -0.377506 0.131175 -0.371184 -0.042793 -0.402774 0.265572 -0.010594 0.657068 -0.011353 -0.301713 -0.291891 -0.239520 0.034399 -1.030847 0.223703 0.392697 0.161604 -0.023605 0.189717 0.172780 0.594209 0.013361 0.192808 -0.358819 -0.081849 0.226395 0.172585 -0.193213 0.025833 -0.349979 0.333443 -0.081988 -0.209821 0.598116 -0.447133 -0.499770 -0.182353 0.255254 0.755793 0.273706 -0.311948 -0.768569 0.125354 0.224530 0.211021 0.476131 -0.378379 0.738581 0.445763 -0.112579 0.479644 -0.397459 0.121319 0.043142 1.256944 -0.139081 -0.161404 -0.032813 0.006979 -0.041657 -0.532647 0.141991 -0.033830 -0.055196 0.721282 -0.012777 0.302612 -0.331967 0.431874 -0.545337 0.168110 0.233035 0.321160 0.722434 0.073871 -0.394252 -0.206816 0.496696 -0.209631 -0.467630 -0.053495 -0.093697 -0.201289 -0.677007 0.175254 -0.502267 -0.477652 -0.161922 0.607307 -0.303892 -0.017178 -0.524876 0.623859 -0.365773 -0.235626 -0.049437 0.092007 -0.087038 -0.380548 0.576399 0.181141 -0.031869 0.363399 0.509349 -0.530762 -0.053198 -0.008994 0.348703 -0.027330 -0.360623 0.359334 -0.042322 0.034204 -0.586404 -0.082523 0.355216 -0.195639 0.118075 0.250674 -0.237166 -0.424361 -0.267782 -0.487992 0.388303 -0.019032 -0.182598 -0.082335 -0.546056
1236 0.018851 0.167394 -0.376576 -0.357414 -0.762685 0.664762 -0.310030 -0.367855 0.234608 -0.404016 0.039008 -0.331399 -0.219814 -0.057183 -0.434865 -0.337808 0.146952 0.249732 0.477128 0.482172 0.019237 -0.031470 0.097694 0.196955 -0.087458 0.703359 -0.181992 0.333180 -0.054833 0.268987 -0.103740 -0.060838 -0.370265 -0.087744 -0.636694 -0.399830 0.552358 -0.779446 -0.289501 0.335020 0.581759 -0.056398 -0.028788 0.349973 -0.156106 -0.106797 -0.496922 0.024115 -0.836769 0.045937 0.131352 -0.047145 0.593488 0.306749 0.032546 -0.164462 -0.339203 0.097642 -0.096627 0.092606 -0.136882 -0.015749 -0.313806 0.399673 -0.136856 -0.074247 0.024528 0.230475 -0.054057 -0.806895 0.287141 0.870343 -0.167280 0.206381 -0.019939 0.522321 -0.086510 0.309637 0.057350 -0.152102 0.278800 -0.466692 -0.383302 -0.541799 -0.300807 0.486982 -0.197567 0.464288 -0.197200 -0.646551 -0.937490 0.028830 0.655558 0.019910 -0.441062 -0.391895 0.193033 0.216631 -0.444250 0.032493 0.551816 0.483297 -0.104214 0.010781 0.215682 0.181890 -0.221185 -0.627165 -0.325741 0.316687 0.173952 -0.028715 0.215107 0.013674 -0.010777 -0.002701 0.104638 -0.286214 -0.078749 -0.006748 0.433249 0.128666 -0.173366 0.118326 -0.147415 0.675504 -0.206798 -0.557900
697 0.003894 -0.260514 -0.133618 0.577742 -0.511781 -0.004994 -0.511105 0.059908 0.211860 -0.069817 -0.013215 -0.411172 -0.223506 -0.311253 -0.027764 -0.079919 0.068271 0.310629 0.322058 0.227321 0.064118 0.130701 -0.194427 0.498598 -0.298480 0.171822 0.060792 -0.008132 -0.006158 0.286296 0.291233 0.002527 0.090799 -0.279633 0.071185 -0.029368 -0.223555 -0.324003 -0.264212 -0.246614 0.009755 0.062218 0.555887 0.557336 0.089395 -0.167667 -0.443079 0.595208 0.168965 -0.281781 -0.413463 0.294309 0.153599 0.366051 -0.281820 -0.185861 -0.188725 -0.201132 -0.089300 -0.418490 0.131915 0.229299 -0.190061 0.076972 0.052142 -0.118490 -0.368271 -0.010743 0.341307 0.170895 0.218012 -0.204333 -0.108016 -0.015270 0.007171 0.191641 -0.687442 0.182041 -0.152810 -0.251183 0.048573 -0.166382 -0.112144 -0.086024 -0.299178 -0.017471 -0.236581 0.324039 0.317496 0.012797 0.397741 0.309303 0.370646 -0.295702 -0.366344 -0.271217 -0.184550 0.037367 -0.077814 0.249268 0.335502 0.271930 0.044981 -0.387102 0.134299 0.345308 0.241650 0.100259 -0.158325 -0.094587 0.258497 0.131683 -0.057012 0.017529 0.321381 -0.033804 -0.494100 -0.082741 -0.122324 0.206675 -0.110314 0.483035 -0.131559 -0.470574 0.243797 -0.269960 -0.514432 0.042234
732 -0.064771 -0.101949 -0.558249 0.252197 -0.871903 -0.134988 -0.068704 -0.073989 0.079313 0.210842 -0.026361 -0.065282 -0.007393 -0.206442 0.247530 -0.430646 -0.356015 -0.013878 0.670724 0.146212 -0.171745 0.076156 -0.339799 -0.043038 0.088422 -0.005682 0.180064 0.414330 0.336382 -0.244143 0.049302 0.269383 0.087652 0.224945 -0.153623 -0.339198 0.054796 -0.230431 0.097002 -0.344497 0.128781 -0.325538 0.143708 -0.032839 -0.021069 -0.079517 0.114068 0.061321 -0.266445 -0.317770 -0.181359 0.489947 0.468006 0.190229 0.320722 0.141185 -0.143970 -0.477850 0.425060 -0.107485 -0.226100 0.204323 -0.101856 0.190689 0.074241 -0.217227 0.052311 -0.238124 -0.274944 0.220420 0.253629 -0.351816 0.238448 0.080536 -0.190917 0.063779 0.038263 0.285633 -0.157085 -0.288010 -0.314036 -0.365393 -0.266194 -0.048704 -0.103025 -0.270352 0.040893 0.342820 0.231650 -0.342647 0.457385 0.365705 0.528630 -0.341355 -0.462442 -0.126450 -0.309231 -0.188091 -0.337366 -0.307616 -0.084836 0.021459 -0.251960 0.042709 -0.499610 0.419435 -0.306598 -0.389836 -0.160955 -0.062760 0.863909 -0.052473 0.551965 -0.280250 -0.074574 -0.030929 -0.570880 0.236911 0.100295 0.049899 -0.310884 0.417534 0.481126 -0.377349 -0.172442 -0.336464 -0.278645 0.444251
2955 -0.205458 -0.161956 -0.973243 0.440395 -0.116875 0.612055 -0.559744 -0.173297 0.029771 -0.190926 -0.315762 -0.639951 -0.138148 0.009584 -0.347374 -0.256483 0.204291 -0.175529 0.491708 -0.681283 -0.247442 0.261656 0.828582 0.739674 0.380406 0.537315 1.093381 0.507179 -0.197720 0.575737 -0.301510 1.002496 -0.631430 -0.179206 0.562412 0.814411 0.341813 0.473823 0.563045 0.339713 0.263714 -0.420309 -1.055469 0.798280 0.761522 0.086933 0.403179 0.268356 0.028924 0.375517 0.540937 -0.883927 0.026512 -0.071873 0.051848 -0.332267 0.396710 -0.037068 -0.999191 -0.713690 -0.381163 0.066862 -0.883538 0.023955 1.025083 -0.933361 0.908406 0.389270 -0.324915 -0.042384 0.330440 -0.010247 0.712254 0.184803 0.650994 1.091235 0.302937 0.439392 -0.395205 0.021119 -0.223067 -0.692774 0.081372 0.349336 0.671411 -0.448541 -0.475204 -1.054584 0.715840 -0.653511 0.464828 0.044134 0.097631 -0.851755 -0.736034 -0.610789 -0.753843 -0.232325 0.078271 0.645148 0.811146 -0.301985 0.238858 0.469465 -0.460152 0.567579 0.047509 -0.459763 0.000206 0.103556 0.392029 0.137095 0.081937 0.134531 -0.614772 -1.087126 -0.766693 -0.555825 0.038461 0.128209 -0.851890 0.353990 0.371372 0.107450 -0.435223 -0.257375 0.164972 0.238242
659 -0.153304 0.305486 -0.104034 0.052493 0.172689 -0.139897 -0.362342 -0.230491 0.547790 -0.106556 0.625068 0.650504 -0.485641 0.329231 0.465563 -0.080777 -0.091121 -0.386047 -0.434379 -0.009234 0.374009 0.372013 -0.189310 0.423782 0.144587 0.330858 0.332204 0.528100 0.270245 0.618318 -0.034746 -0.650597 -0.449299 -0.269337 0.324424 -0.209546 0.529907 0.041025 0.572055 0.127478 -0.070604 0.248716 0.392810 0.302033 -0.328120 -0.318539 -0.647657 0.099220 0.108458 0.015968 0.089615 0.036703 0.234351 0.210124 0.354728 -0.283005 -0.299351 -0.091436 -0.011809 0.039236 -0.412883 0.173347 -0.111267 -0.520522 0.336069 0.139216 -0.153113 -0.009076 0.119880 -0.186747 0.361963 0.081519 0.262947 -0.021956 0.052052 0.332694 0.028004 0.120154 -0.003643 0.313667 0.643387 -0.132113 -0.884524 -0.097512 0.342148 -0.454757 0.021370 -0.100232 0.455342 -0.144241 -0.115974 -0.734996 0.243584 -0.609622 0.042244 0.007132 0.013471 0.172151 0.035947 0.385424 -0.157175 -0.371842 -0.553512 0.108726 -0.256763 -0.004777 0.485166 -0.504439 -0.820172 -0.103961 -0.010620 -0.114366 0.108854 -0.268036 0.221717 -0.091210 -0.034600 -0.271190 -0.152883 0.320796 0.363723 -0.262842 -0.233046 -0.301448 -0.746311 -0.075805 -0.198378 0.267109
814 -0.153040 0.152821 -0.103147 0.381554 -0.518894 -0.220103 0.298058 -0.034914 0.380513 0.229041 0.315122 0.129052 -0.250356 0.108111 0.082280 0.005709 -0.419133 -0.085261 -0.304131 0.009404 0.708944 0.193725 -0.179536 0.654811 0.547086 0.021835 -0.114361 0.173850 0.165725 0.187833 -0.341345 0.048231 -0.623356 0.224355 0.100229 0.390626 -0.362032 -0.327184 0.188827 -0.028104 -0.125855 0.021963 0.200170 0.132434 -0.033102 -0.346246 0.410070 0.185177 -0.118987 0.419067 -0.104693 0.127707 0.041030 0.158110 0.026668 -0.014320 -0.539400 0.423408 -0.267553 0.180504 0.216254 0.118271 0.006078 -0.284580 0.290400 0.207188 0.160749 0.111857 0.186178 0.014168 -0.077528 0.328636 -0.461384 -0.183589 0.364345 0.072834 0.106102 0.857700 0.382284 -0.176900 0.159025 0.123671 -0.340701 0.321167 0.401357 -0.418218 -0.200000 -0.354097 0.638770 -0.117931 0.628275 -0.673484 0.578112 0.007207 -1.175493 0.175557 -0.454622 0.392192 -0.304747 0.116652 0.079023 0.126774 -0.536611 0.302056 0.229386 -0.233342 -0.331704 -0.708704 -0.184783 0.188798 0.072701 -0.388803 -0.324136 -0.312491 0.091118 0.214840 -0.116849 -0.361013 0.170282 0.014792 0.077831 -0.018624 -0.717217 0.436377 -0.708926 0.256444 -0.273414 0.268583
1101 0.223472 -0.043936 0.029275 -0.964536 0.145176 -0.090489 0.644634 0.652902 -0.371616 0.350760 0.303362 -0.402052 -0.029015 -1.300934 0.337850 0.028288 -0.103036 0.793463 -0.090155 0.755997 0.035721 -0.144476 0.373689 0.161302 0.333841 0.420492 0.494104 0.172563 -0.495874 0.854727 -0.157703 -0.045066 0.065449 0.310138 0.430590 -0.138980 -0.615570 -0.858036 1.350495 0.807284 0.611102 -0.806362 0.428972 0.911770 0.593935 0.112941 0.131113 0.175465 0.067522 -0.347978 0.197172 0.579171 0.227263 0.763205 0.269555 -0.085989 -0.202624 0.530876 0.599651 -0.297568 -0.447580 0.039531 -0.156902 0.491810 0.479414 -0.360881 -0.041771 -0.413597 0.221873 -0.710419 0.513394 -0.273128 0.703245 -0.315329 0.458346 -0.160946 0.017798 -0.655067 0.735859 -0.013929 0.504171 -0.336366 -0.602274 0.910294 -0.540293 -0.375627 -0.328798 0.016281 0.163062 0.272196 -0.391950 -0.677396 0.852462 -0.616889 -0.859936 -0.198380 0.431402 -0.038987 -0.975822 -0.261842 -0.250217 -0.093114 0.156078 -0.089789 0.065946 -0.126089 -0.577101 -0.900421 -0.134088 0.312714 0.508945 -0.332268 0.617564 -0.690467 -0.001740 -0.759719 0.135861 0.371547 -0.328909 0.067059 -0.330009 0.821020 -0.021009 0.424466 0.187838 -0.114227 0.168174 -0.173530
822 -0.114677 0.450088 0.204529 0.088545 -0.540385 -0.270059 -0.061994 0.010503 -0.232655 -0.460281 0.547921 0.370572 -0.081431 0.137627 0.671487 -0.231103 -0.272332 -0.156929 0.471128 -0.215156 0.383536 -0.328955 -0.097506 0.655105 0.350055 -0.526032 0.306986 0.033571 -0.221062 0.448315 -0.116089 0.096942 -0.397730 0.086120 -0.128788 -0.407977 0.327736 -0.235446 0.658243 0.096207 0.409283 0.309104 0.850136 0.096658 -0.465163 0.131489 -0.647193 0.571633 -0.500357 0.132489 0.208004 0.045626 -0.031156 -0.100030 0.125375 0.224564 -0.311636 0.506030 -0.012552 -0.695704 -0.326986 0.029754 0.145774 0.152696 0.256000 0.138979 0.122672 0.398261 0.027536 0.091031 -0.145420 0.057582 0.073219 -0.298038 0.121583 -0.082810 -0.058804 0.334851 0.018054 0.242902 0.762325 0.289810 0.504002 -0.032392 0.257715 -0.477859 0.021009 -0.433062 0.378631 -0.371274 -0.072066 -0.814599 0.520940 -1.058738 -0.428695 0.687761 -0.160500 0.017134 0.274623 -0.169888 0.209438 0.120257 -0.265067 -0.118982 -0.297216 0.630144 0.505238 -0.617967 0.098287 -0.386010 0.740074 -0.353002 -0.342232 -0.048617 0.371911 -0.837624 0.280464 0.000144 -0.269311 0.145399 0.067691 -0.304508 0.176380 0.314688 0.030141 -0.498316 -0.075038 -0.358940
868 -0.097018 -0.266676 -0.018018 -0.001534 -0.608522 0.266518 0.237902 1.108385 -0.636586 0.102395 0.524763 -0.606023 -0.669487 0.378723 -0.190014 -0.421847 -0.158156 0.008711 -0.330359 0.779757 0.403200 -0.238705 0.357137 0.639605 0.598870 0.000981 -0.293969 0.487318 -0.883847 -0.078614 0.585963 -0.618066 -0.455201 -0.087439 -0.648890 0.172358 0.617097 0.122740 0.223757 -0.179739 -0.043942 0.656189 -0.238023 -0.318388 0.034184 -0.327551 -0.321912 0.184527 -0.730937 0.106549 0.329010 -0.086747 0.225393 -0.201654 0.102701 -0.542101 0.334070 0.074125 0.033782 -0.379071 0.142036 0.432369 0.310871 0.261816 0.207901 0.083546 -0.279873 -0.219561 0.455958 -0.641913 0.569260 0.060467 -0.239033 0.337079 0.179262 0.305574 -0.363061 0.311153 -0.365550 0.957765 0.072839 -0.197587 -0.725519 -0.222117 -0.101146 0.124642 0.378682 -0.440471 1.256167 -0.784953 0.100719 0.528395 0.032292 -0.277304 -0.334920 0.560807 0.335330 0.182308 -0.172618 0.202636 0.054208 -0.323087 -0.406826 0.488481 0.021066 0.485152 -0.069764 -0.107821 -0.101001 0.389539 0.021840 -0.151435 -0.127551 -0.121543 -0.257686 0.490053 -1.083179 0.262286 0.241921 0.854255 -0.465958 -0.104318 -0.373002 0.069571 -0.278555 -0.301892 -0.072444 -0.593879
631 -0.264283 0.304954 0.520802 0.215690 0.364882 -0.152007 0.209622 0.001407 0.152032 0.062286 0.345349 0.173589 -0.480530 0.088684 0.782884 0.385804 0.109712 -0.520546 -0.321793 0.100754 0.202939 0.267784 -0.182304 0.698698 0.053075 0.234277 0.717883 0.555005 -0.037018 0.633882 0.099354 -0.152461 -0.162529 -0.323399 0.165150 -0.265227 0.448063 0.164765 0.590601 0.257083 -0.110155 0.556567 0.369756 0.147131 -0.530511 -0.371920 -0.348388 -0.053957 -0.274672 0.346420 0.196302 0.336159 0.454907 -0.271542 0.378702 -0.154139 -0.340188 -0.095371 -0.098768 0.077478 -0.683415 0.055102 -0.494539 -0.453760 0.319211 0.106714 -0.112408 -0.359075 0.020004 -0.116280 0.171560 0.256827 0.646662 -0.134997 -0.114111 -0.070215 -0.193777 -0.019835 0.199559 0.043974 0.454110 0.256471 -0.694062 -0.243022 0.498204 -0.501262 0.064142 -0.237814 0.557385 -0.118368 0.007717 -0.463246 0.210729 -0.959481 0.067936 0.058465 -0.057414 0.505225 0.024100 0.187791 -0.150649 -0.172664 -0.668479 -0.164332 -0.245377 0.424846 0.358429 -0.375931 -0.812246 0.175535 -0.064468 -0.304272 0.025151 0.168214 -0.085266 -0.107134 -0.030000 0.008854 0.117316 0.033361 0.322724 -0.359922 0.319597 -0.023041 -0.633794 0.467550 -0.320676 0.117942
986 -0.465146 0.575091 0.067816 0.158139 0.088668 0.001760 -0.384198 0.280357 0.488679 0.007024 0.480766 0.453867 -0.612174 0.331971 0.121842 -0.030190 0.151371 -0.633741 -0.802369 -0.078911 0.221902 -0.101327 -0.428267 0.674765 0.179970 0.190039 0.280133 0.333840 -0.111027 -0.147642 0.053226 -0.299298 0.022970 -0.146502 -0.038921 -0.134452 0.131404 -0.341526 0.527212 -0.022176 -0.327340 0.624606 0.617789 0.059093 0.070800 -0.279274 -0.308114 0.023254 0.387603 0.351171 0.032557 0.138424 0.203097 0.072550 0.614892 -0.274305 -0.350355 -0.216631 0.186585 0.274183 -0.498349 0.531435 -0.507501 -0.389275 0.143895 -0.177505 0.013426 0.037545 0.312756 -0.481032 0.076390 0.269085 0.191430 -0.409633 -0.046884 0.079152 0.147587 0.515385 0.039972 0.178403 0.605572 -0.436137 -1.078876 -0.044695 0.344676 -0.677143 -0.213809 -0.296130 0.151503 -0.394720 0.005933 -0.832135 0.057292 -0.619849 -0.416387 -0.079083 0.483865 -0.175661 -0.120764 0.282413 -0.056882 -0.409962 -0.747789 0.134498 -0.258048 0.253116 0.241243 -0.224237 -0.662207 -0.044200 0.090473 -0.165040 -0.128515 -0.128544 -0.235532 -0.238688 -0.174650 -0.143290 -0.235769 0.340014 0.379941 -0.136815 0.144471 -0.326303 -0.706012 0.217426 0.220200 0.450931
753 0.062336 0.883274 0.239926 -0.540568 0.118063 0.202220 -0.432813 0.491999 0.267280 -0.155079 -0.047678 -0.057452 -0.610939 -0.306814 0.219548 0.071393 -0.261430 -0.696134 -0.216724 0.419954 0.741332 0.116805 0.241952 -0.074801 -0.188182 -0.019118 -0.427438 -0.647340 -0.517765 0.471213 -0.393536 -0.236758 -0.342513 0.301617 -0.191430 -0.099604 -0.426055 -0.262265 0.552618 -0.129427 0.200532 0.077632 0.801663 0.038522 0.173682 0.459473 -0.367337 0.599155 0.307488 0.040203 0.579917 0.104662 0.795986 0.077377 0.629299 0.083485 -0.372546 0.072412 -0.079150 -0.312887 0.105909 0.009581 -0.210503 -0.222216 -0.179258 -0.357560 0.588838 0.086009 -0.039115 0.351695 0.310403 -0.056759 0.152517 -0.171360 -0.220424 -0.155219 0.479935 0.131621 0.036172 -0.051143 0.347178 0.186440 -0.386468 -0.793407 0.482019 -0.341823 0.223089 -0.241193 0.464686 -0.237901 0.213038 -0.636091 0.167977 -0.544605 -0.669388 -0.386381 0.446318 -0.394286 0.056889 0.192678 -0.317580 -0.022391 -0.435494 0.823178 0.382332 0.841798 -0.049655 0.018062 -0.403619 -0.544156 0.371541 0.023955 0.037243 -0.273597 -0.398161 0.731753 -0.719499 -0.081078 -0.303802 0.070661 -0.346493 -0.267545 -0.420911 0.583870 -0.025551 0.595642 -0.104239 0.024637
263 -0.362526 -0.012872 0.330648 0.272356 -0.592680 0.507780 -0.458512 -0.318314 -0.304663 -0.113183 -0.235919 -0.158070 -0.127137 -0.039025 0.591848 0.128415 -0.281602 -0.178230 -0.162015 0.373727 0.251341 -0.070122 -0.165196 0.269893 -0.121509 0.177497 0.065204 -0.188232 0.013865 0.279511 0.030164 -0.166200 -0.319672 -0.203580 0.112360 0.528430 0.203028 0.134235 -0.043088 -0.351270 0.003629 -0.207296 -0.135391 0.357194 -0.336963 -0.062747 0.356890 0.462541 -0.572751 0.191687 0.075103 1.241068 0.229038 0.358800 -0.118556 -0.292791 -0.090798 -0.106149 0.080220 0.258662 -0.206483 0.005172 0.031780 -0.073859 -0.108243 -0.016300 -0.414865 0.117893 0.349665 -0.024617 -0.211147 -0.073035 0.261984 0.081683 0.015337 0.104228 -0.240844 0.518611 0.496696 -0.124898 -0.200183 -0.500797 0.038209 -0.524849 -0.019439 0.449464 -0.383046 0.052669 0.488308 -0.039967 0.554518 -0.298854 0.510931 0.125078 -0.382615 0.126643 -0.170186 -0.003850 -0.557678 0.075331 1.001228 -0.154622 0.171751 -0.221821 0.539933 0.214397 -0.140002 -0.510466 -0.021615 0.213048 0.292590 0.146638 -0.296568 -0.609902 -0.018660 -0.119366 0.184294 0.423748 -0.322886 0.361721 -0.233267 0.588622 0.045554 -0.771190 -0.280524 -0.492670 0.045021 0.256682
1731 -0.510641 -0.204046 -0.275912 0.499610 -0.422245 0.574576 0.584215 0.108873 0.339985 -0.505652 -0.586478 -0.099149 -0.351569 -0.247632 -0.172603 -0.213198 -0.568027 -0.074332 -0.137723 0.010825 0.525738 -0.295138 -0.081162 -0.116785 0.340168 0.332819 0.560704 0.884226 -0.162288 0.688749 0.016582 0.481734 -0.128268 -0.649459 0.824936 -0.061813 0.256194 -0.320420 0.738616 0.167494 0.549436 -0.325128 -0.037748 0.653813 0.168860 0.458237 -0.296318 0.518654 -0.348697 -0.434189 0.841509 -0.293696 0.838783 0.052126 -0.025645 0.460193 -0.103089 -0.437405 0.873870 -0.840975 0.144904 -0.362590 0.745299 0.249679 0.445869 0.147888 -0.041248 0.237487 0.043222 -0.936913 0.230098 0.347874 0.105502 0.114547 0.298414 -0.278311 -0.186270 0.806337 0.024936 0.037836 1.016248 -0.357652 -0.035494 0.082073 -0.139681 -0.109084 0.674647 -0.241366 0.054584 0.028350 -0.776236 0.119968 -0.008727 -0.241734 -0.567291 -0.487970 -0.485561 0.150889 -0.809586 0.589688 1.039950 0.382909 -1.195621 0.255889 0.196591 0.588800 0.155333 0.066166 -0.045143 -0.622400 0.240588 -0.574145 -0.211105 -0.038020 -0.323576 -0.026668 -0.287346 0.359477 0.005703 -0.745672 -0.539389 -0.010908 0.211095 -0.411985 -0.048252 -0.097084 0.000755 -0.343965
673 0.188850 -0.179413 -0.251100 0.595401 -0.428488 0.280151 -0.208290 0.279989 0.484899 0.314381 0.053919 -0.461091 -0.442338 -0.310438 0.040255 0.233378 -0.382756 -0.066728 0.148133 0.829648 -0.347004 -0.260250 0.449877 -0.004562 0.063570 0.130869 0.340886 -0.022912 0.474657 0.132346 -0.022782 -0.082280 -0.127980 -0.399413 -0.059201 -0.306087 -0.042838 0.010518 0.405308 -0.089018 0.062066 -0.392815 0.141374 -0.022643 0.037907 0.176650 -0.240860 0.487098 -0.200722 -0.006648 -0.175644 0.328740 -0.122418 0.017503 0.193536 -0.402731 -0.044737 -0.313061 0.000018 0.102722 0.249494 0.295828 -0.227458 0.183458 -0.099771 -0.340643 -0.524588 0.358800 0.238335 -0.071178 0.069111 -0.405040 0.119566 -0.009918 -0.208844 0.152888 -0.111348 0.139879 0.028108 -0.010522 0.165193 0.101696 -0.495880 -0.209227 -0.541645 -0.729280 -0.335932 0.338531 0.664478 -0.033213 0.648037 0.197737 -0.499107 0.404601 -0.325358 -0.020434 -0.166055 0.281652 -0.238843 -0.064846 0.497333 -0.094049 0.026727 -0.366489 0.098493 0.750753 0.011357 -0.272595 -0.501100 0.148556 0.722981 0.500665 -0.290973 0.000935 0.078772 0.002806 -0.273745 0.191746 -0.001976 0.019479 0.401237 0.452080 -0.106223 -0.239411 0.087444 -0.194469 -0.026136 -0.146363
616 0.339995 -0.267617 0.236984 0.228781 -0.724119 0.052012 -0.109217 -0.156825 0.379217 -0.106964 -0.173264 -0.610636 -0.247651 -0.398919 0.068065 -0.186683 -0.052446 0.178013 -0.057626 0.346695 -0.271980 -0.016922 0.416109 0.650047 -0.284224 -0.071853 -0.179225 -0.171464 -0.072953 0.170657 0.381696 0.137247 -0.233983 -0.462478 -0.045518 0.008709 0.010483 -0.421788 -0.306483 0.289521 0.140554 -0.100983 0.503476 0.587803 -0.008948 -0.012525 -0.730014 0.172374 0.607229 0.546722 -0.139264 0.101654 -0.332822 0.646716 -0.101919 -0.582923 -0.029520 0.175412 -0.092148 0.177478 0.336511 0.267659 -0.045307 0.353383 0.126722 -0.501522 -0.190174 -0.092993 0.442803 -0.151647 0.612691 -0.203441 0.342134 0.096107 -0.433616 -0.268062 -0.267130 0.141257 -0.193239 -0.258531 0.486088 -0.216029 -0.209359 -0.610243 -0.379757 -0.110478 -0.357152 0.030564 0.349473 0.026194 0.499705 0.142055 0.172181 0.162530 -0.082270 0.021474 -0.395214 0.073369 -0.111964 0.005855 0.103288 0.127712 0.351367 -0.010564 0.295296 0.299032 0.247965 -0.040480 -0.486795 -0.172582 0.326077 0.061471 0.181301 -0.232590 0.241964 -0.169363 -0.407150 -0.030457 0.184576 -0.100535 -0.453012 0.343446 0.410190 -0.029825 -0.149501 -0.245579 -0.132076 0.057416
780 -0.150304 -0.036190 -0.156895 0.259717 -0.743056 -0.030643 -0.162275 0.130765 0.039140 0.272145 -0.358794 -0.143193 0.099351 -0.255992 0.139215 0.219841 -0.134936 -0.059222 0.441308 0.600236 0.240509 -0.246018 0.052975 -0.392455 -0.504085 0.063590 0.068947 -0.011811 -0.049202 -0.493849 -0.380545 0.030781 -0.248027 -0.615803 -0.105249 -0.395962 -0.163115 -0.583958 0.303550 -0.097980 0.010706 -0.157923 0.309591 -0.012337 0.372992 0.001767 -0.131793 0.079881 -0.385146 0.159246 -0.087864 0.361834 0.161801 -0.274484 0.093909 -0.217840 -0.021656 -0.430161 0.288306 -0.628129 -0.033979 0.028329 0.103256 -0.068235 -0.180097 -0.393090 0.172724 -0.467649 -0.321462 -0.039482 0.493852 0.217059 0.232665 0.142567 0.076458 -0.157574 -0.289627 0.206410 -0.226431 -0.174070 -0.256929 0.026571 -0.436164 0.110168 -0.647112 -0.256959 -0.111784 -0.364156 0.303658 -0.474927 0.423239 -0.097484 0.167955 0.202436 -0.137941 -0.158985 -0.374276 0.043966 -0.108957 -0.112120 0.623101 0.116034 -0.095389 0.154719 -0.628685 0.246903 -0.198106 -0.363514 -0.414395 -0.517778 0.385769 0.147525 -0.135754 -0.530682 0.047563 -0.124692 -0.248141 0.267370 0.105653 0.183954 -0.581857 0.184895 0.158761 -0.911681 -0.021941 -0.127425 0.107538 0.249128
354 0.335162 0.370353 0.268892 -0.647592 -0.742519 0.196941 -0.047471 -0.316748 -0.586418 -0.872794 0.095313 0.050066 -0.535286 0.618662 0.576131 -0.600109 -0.267319 0.792208 0.347821 -0.015242 0.632523 0.174983 0.345874 0.207105 -0.398955 0.117777 -0.245583 1.020889 -0.098332 0.512019 -0.316566 0.374103 0.437308 -0.196278 -0.143139 -0.707621 -0.439030 -0.209035 0.202680 0.623691 -0.193590 -1.102014 0.291557 0.643365 -0.354676 0.017352 0.126779 -0.063174 -0.520833 0.602347 0.022979 -0.523289 0.562306 -0.264518 0.243509 -0.575055 -0.228156 0.336924 0.186885 -0.082094 -0.159371 0.327213 0.547360 -0.605389 0.961626 0.164219 0.146466 0.059933 -0.297058 -0.277881 -0.068915 -0.022341 -0.249309 -0.018010 -0.147979 -0.324880 -0.098715 0.542654 -0.110524 0.791570 0.538541 -0.483027 -0.893034 0.088634 -0.219249 -0.262727 -0.230595 -0.696187 0.503345 -0.547925 -0.149137 0.204400 -0.002339 -0.691979 -0.197125 -0.226162 0.105760 0.017548 0.281992 0.701989 -0.144111 0.177784 -0.479646 0.065637 -0.001295 -0.056849 -0.201260 -0.121506 -0.588246 -0.006300 1.287042 0.391290 -0.102779 0.234831 0.225486 -0.490568 0.392777 0.180629 -0.048192 0.158962 0.816972 0.676936 -0.799731 0.175290 0.031381 0.281119 -0.422566 0.261706
691 -0.200908 0.156208 -0.122652 0.363139 -0.059920 0.288976 0.191707 0.039925 0.203647 -0.338595 0.118823 0.413437 -0.203001 0.691620 0.317819 0.177867 -0.107507 -0.045210 -0.351929 -0.030447 0.242524 -0.585125 -0.390669 0.494535 0.282488 0.117491 0.882532 0.178097 -0.003110 0.182122 -0.369990 0.071930 -0.449352 -0.355020 0.238542 0.025705 -0.151034 -0.448012 0.448587 -0.204224 -0.093422 0.261830 0.544395 0.102881 0.260924 -0.313226 -0.100856 0.271054 0.174253 0.373325 -0.214623 -0.075762 0.111299 -0.232944 0.194796 -0.217818 -0.122082 0.130151 0.373954 -0.093772 0.146748 0.524088 -0.346907 -0.074687 0.123932 0.087293 0.167921 0.299120 -0.053537 0.091721 0.189495 0.559425 -0.480867 0.072538 -0.259497 -0.411311 0.255538 0.592584 -0.199200 0.401427 0.397523 -0.579055 -0.238634 0.300956 0.155639 -0.022128 0.096090 -0.301551 1.036820 -0.335236 0.549934 -0.721556 0.787889 -0.512545 -0.208749 -0.152210 -0.088028 -0.171932 -0.359073 0.612465 0.026395 -0.703782 -0.361373 0.022321 0.211239 0.196405 0.278346 -0.111890 -0.489273 0.008952 -0.320027 -0.100920 0.403217 -0.217924 -0.722095 0.191260 -0.266864 -0.111401 -0.157637 0.151918 0.563231 0.089487 -0.628361 0.418386 -0.440463 -0.021819 -0.098860 0.429824
31 -0.095996 -0.447952 -0.670780 0.106619 -0.711096 0.041351 -0.364964 -0.209403 0.057767 -0.081145 -0.384793 -0.403852 0.271467 -0.646845 0.066299 0.205818 -0.002895 0.218636 0.211806 0.261842 -0.028816 -0.023789 -0.248282 -0.499561 -0.524588 -0.226090 0.001425 0.402284 -0.016150 0.104094 0.066149 -0.055373 -0.330773 0.184316 0.110530 -0.224992 -0.341653 -0.307163 0.443708 -0.316288 0.691071 0.261642 -0.052347 0.237308 0.437675 0.121671 -0.242913 -0.201848 -0.689853 -0.090259 -0.615202 0.312535 0.452159 0.120648 0.503672 -0.009861 0.318770 -0.280425 0.333236 -0.437472 0.346240 0.471752 -0.025428 -0.099161 0.185833 -0.187612 0.162471 -0.060496 -0.362469 -0.154747 0.196206 -0.010034 -0.044869 0.403773 -0.009169 -0.245708 0.125940 0.271426 0.108525 -0.076170 0.184515 0.187086 -0.306727 -0.210416 -0.018028 -0.210399 -0.460827 -0.094711 0.232351 -0.572085 0.502216 -0.107154 0.259553 0.134566 0.105648 -0.068528 -0.136322 -0.032162 -0.287967 -0.135023 -0.024174 -0.251735 -0.593498 -0.208869 -0.050924 0.286365 -0.245217 -0.326946 -0.619604 -0.075101 0.686939 -0.166363 -0.024518 0.014384 0.392309 0.042343 -0.494966 0.082740 -0.367985 0.307273 -0.419064 0.162270 0.370399 -0.286825 -0.183280 -0.386271 -0.067845 0.748982
0 -0.666773 -0.201554 -0.272019 0.053666 -0.561845 0.352104 -0.270082 0.505931 -0.312537 -0.120609 0.068961 0.127415 0.168170 0.362082 0.496430 -0.076902 -0.097740 0.220302 -0.153972 -0.151593 0.091416 -0.983122 0.210572 0.222795 0.127545 -0.158711 0.244573 0.102676 -0.239621 0.335046 -0.936632 0.310035 -0.543887 -0.365745 0.023515 0.567063 0.099527 -0.069179 0.475898 -0.227561 0.398525 -0.405643 0.574594 0.066863 0.012880 -0.361611 -0.102775 0.612067 -0.173943 0.447459 -0.277574 0.218291 0.252291 -0.384743 -0.150652 -0.638025 0.170091 -0.077020 0.186543 -0.443570 0.059586 0.048804 -0.251938 -0.504116 -0.008626 0.136793 -0.183161 -0.186819 0.015342 -0.359155 0.358797 0.225147 -0.243125 -0.018396 0.278092 -0.365769 0.128110 0.611706 -0.413135 0.603988 0.348971 -0.535864 0.141097 -0.016315 -0.098788 0.237074 -0.056975 0.066694 1.100829 0.047813 0.659728 -0.218799 0.547423 -0.509964 -0.393711 -0.122018 0.436141 -0.013042 -0.068312 0.444856 -0.225926 -0.211234 -0.334239 -0.052196 0.136919 0.233774 0.073264 0.067882 -0.126371 0.260680 -0.125990 -0.041295 -0.044267 -0.027212 -0.536141 0.530168 0.074451 -0.123908 0.062251 0.338497 -0.237632 -0.205523 -0.175913 0.552783 -0.848491 -0.038092 -0.455839 -0.058317
698 0.170203 -0.400301 -0.126435 0.302611 -0.330684 0.211731 -0.423043 0.182669 -0.123850 -0.274903 -0.323582 -0.681771 -0.191417 -0.349738 0.072627 0.007869 0.022545 0.194906 0.072154 0.109739 0.096379 -0.134601 0.189092 0.605422 -0.514530 -0.161818 0.193270 -0.311726 0.090915 0.552779 0.362459 0.328876 0.151531 -0.275126 -0.173999 0.064727 -0.081281 -0.549278 -0.342632 -0.232325 0.089543 -0.061487 0.403158 0.489811 0.080140 0.008614 -0.485597 0.395081 0.218726 0.344749 -0.463407 0.102474 0.206383 0.487063 -0.096305 -0.319420 -0.247647 -0.097958 -0.211391 -0.207449 0.413897 0.265285 -0.161951 0.491573 0.228070 -0.346178 -0.537657 -0.268681 0.325746 0.067249 0.218116 0.395146 -0.042513 -0.012492 -0.096052 -0.321623 -0.500185 0.126219 -0.558459 -0.314311 0.345117 0.288970 -0.327025 -0.424544 -0.526162 0.202673 -0.189190 0.317811 0.385819 -0.000427 0.374859 -0.059167 0.310775 -0.295824 -0.076755 0.194296 -0.215210 0.259977 0.316828 0.172254 0.197898 0.250169 -0.192292 -0.102144 0.469387 0.132081 0.201150 -0.475292 -0.055143 -0.070569 0.373633 -0.101210 0.141922 0.199348 -0.011447 0.265853 -0.551855 -0.149336 -0.043981 -0.351709 -0.286991 0.481070 0.075131 -0.488315 -0.178443 -0.336178 -0.168036 0.084682
634 -0.055630 0.095140 -0.498499 -0.033931 -0.693060 -0.035198 -0.104937 -0.103210 -0.079635 0.902874 0.377600 0.050477 -0.462896 -0.236965 0.122769 0.464385 -0.245371 -1.406902 0.038946 0.574578 0.016658 -0.324644 -0.866082 0.334444 -0.066859 -0.175765 0.592456 0.781667 0.575598 0.454898 0.901892 -0.091542 0.112104 0.413832 0.473428 -0.403688 0.510460 0.370810 0.435860 0.970531 0.559813 -0.818147 0.095667 0.451606 0.279143 0.515568 0.081996 -0.396049 -0.523260 0.314364 0.572279 0.109337 0.087236 -0.673020 0.142966 0.480509 -0.634135 -0.148043 -0.023564 0.042781 -0.161379 0.887415 -0.583046 0.464971 -0.090567 -0.150932 -0.310910 -1.028659 0.061386 0.580124 0.066688 -0.312943 0.551140 0.385898 0.135952 -0.486459 -0.229666 0.652980 -0.837476 -0.681990 -0.422442 -0.844142 -0.292754 -0.016077 -0.547930 0.091332 0.149114 0.484958 0.365375 -0.358811 0.100632 0.340789 0.578450 -0.040913 -0.698805 -0.327409 -0.495929 -0.359538 -0.387262 0.926982 -0.197937 -0.310595 -0.427333 -0.385860 0.725749 0.427095 -0.309953 -0.537402 -0.007954 -0.474842 0.785390 -0.272480 0.466398 0.034264 0.663033 -0.264033 -0.260768 -0.538640 -0.119539 -0.164829 -1.108578 0.473056 -0.159309 -0.394666 -1.021349 -0.702821 0.227980 0.981114
2050 -0.018697 0.411967 -0.287123 0.200586 -0.519153 0.300830 0.017698 0.519914 0.386948 -0.320010 -0.201855 -0.327585 0.003341 -0.632559 -0.158970 0.358396 0.093578 0.106275 0.094147 0.182635 0.865100 -0.297185 -0.169236 -0.240267 0.222519 0.067462 0.068022 -0.360486 -0.327402 -0.372240 0.176690 -0.224618 0.137048 0.461070 -0.696901 -0.716386 0.044615 0.509654 1.161090 0.264703 -0.347906 -0.300429 0.067870 0.087490 0.337595 0.167787 -0.542498 0.940113 0.172521 -0.391677 0.279608 -0.361888 0.545295 0.285689 0.799638 0.191047 -0.040879 -0.149348 -0.036702 -0.196010 -0.573259 -0.264767 -0.107978 0.463560 0.429260 -0.078665 0.146767 -0.115450 0.300196 -0.506607 0.031018 -0.267059 0.684591 -0.183313 -0.251202 -0.525932 -0.087489 0.304272 0.092883 -0.658429 0.132447 -0.029278 -0.596696 -0.399618 0.108528 0.056360 -0.120491 -0.437780 0.766898 -0.255864 0.026556 -0.481186 0.578052 -0.353478 -0.156465 0.093329 0.242099 0.015097 0.051898 0.474878 0.082014 -0.078544 0.001000 0.256059 -0.041572 -0.140536 0.191232 0.325909 0.352954 -0.193283 0.404257 0.086757 -0.398929 -0.412515 0.046622 0.119353 -0.747821 0.080216 0.232313 -0.109900 -0.134639 -0.175358 -0.656970 0.321074 0.287527 0.394227 -0.010307 0.217065
516 0.029959 -0.735290 0.354656 0.298476 -0.842304 0.089086 -0.385649 -0.039450 0.048308 0.117624 -0.065163 -0.514670 -0.018200 0.311609 0.027521 -0.076005 -0.251367 -0.329804 0.013967 0.164449 -0.262451 0.035090 0.202192 0.334623 -0.513399 0.378056 0.419741 -0.074063 0.423226 0.378815 -0.226784 -0.037573 -0.008051 -0.273579 -0.192141 0.228207 0.130713 -0.137788 0.071874 -0.446511 0.144274 -0.163091 0.084976 0.371187 0.295955 0.474044 -0.104007 0.167404 0.188766 -0.103722 -0.169239 0.081867 0.083618 0.048155 0.056279 -0.279695 0.149487 -0.399065 0.327332 0.089194 0.236936 0.121188 -0.199464 0.461693 -0.066793 -0.442695 0.069871 -0.113936 0.288342 -0.267533 0.129817 -0.116042 0.247090 0.230906 0.324372 -0.249670 -0.316372 -0.189554 -0.146027 -0.349712 0.444560 -0.123484 -0.890066 -0.286309 -0.417523 -0.142898 0.091034 0.193397 0.291288 -0.031569 0.377858 -0.143255 0.269502 -0.324064 -0.351454 0.051552 -0.251615 0.167161 0.567195 0.094297 0.349944 -0.048550 0.103646 -0.151667 0.026665 0.171127 -0.145839 0.013913 -0.178204 0.084706 0.348719 0.020942 -0.469294 -0.102749 0.461419 0.152661 -0.370181 0.130159 -0.260166 -0.194417 0.224384 0.326190 0.033748 -0.213679 -0.093943 -0.271554 -0.231645 -0.434958
1460 -0.384336 -0.088023 -0.405427 0.320836 -0.959879 -0.360796 -0.171664 -0.299439 -0.085700 0.166251 -0.600954 -0.264694 -0.589518 0.154522 -0.337788 0.236155 -0.250694 0.122816 -0.011230 -0.040905 -0.064651 0.232959 -0.166805 0.243698 0.150264 -0.361180 0.600361 -0.633084 -0.648877 0.442671 0.339693 0.596764 -0.055535 -0.145604 -0.120644 -0.737351 0.473129 -0.530744 -0.322925 -0.151299 0.165750 -0.586721 0.812726 1.398217 0.335865 -0.297807 -0.560789 0.223777 -0.081950 0.290328 -0.451924 0.913430 -0.134833 0.190217 0.398326 -0.862870 0.008534 0.085089 -0.462229 0.303959 0.242843 -0.238363 -0.115283 -0.371750 0.203339 -0.071820 0.725419 -0.354149 0.317671 0.137730 0.049681 -0.350844 0.329640 -0.712171 -0.137334 -0.229468 0.297182 -0.170712 0.054137 -0.100382 0.256712 -0.267625 -0.053651 -0.495381 -0.675981 -0.581705 -0.091225 -0.394891 0.073967 0.058471 -0.201377 0.183461 1.140455 -0.133204 -0.507685 0.062841 -0.366211 0.404861 0.054413 0.034846 0.820422 -0.120748 0.179804 -0.400905 -0.511767 0.064160 -0.342018 -0.150662 0.214206 -0.309685 -0.243147 0.421392 -0.117052 -0.150699 -0.088992 0.006677 -0.592993 -0.288060 0.147340 0.173031 -0.375082 0.056326 -0.333198 -0.829330 -0.701930 0.154526 -0.154776 0.076971
1004 -0.401131 -0.533602 0.144567 0.223282 -0.976921 -0.008657 -0.074778 0.378955 0.306905 0.159407 -0.286773 -0.639814 -0.304045 -0.270106 -0.278067 -0.052863 -0.266520 0.142654 -0.106307 0.243558 0.086812 0.485386 -0.189108 0.661483 -0.140982 0.395882 0.156280 0.076025 0.297200 0.770531 -0.077150 -0.389941 -0.196219 -0.082104 -0.179456 0.020212 -0.104465 0.030495 0.282204 -0.181265 0.134119 -0.418680 -0.265753 0.295597 0.012349 -0.068852 -0.222177 0.105795 0.151597 -0.288955 -0.749787 0.289234 0.074530 -0.144916 0.150788 -0.365131 0.269333 -0.764437 0.143256 -0.025090 0.549709 0.377930 -0.229400 0.308354 0.199100 -0.220671 -0.176289 -0.283837 0.297159 0.052952 0.369077 0.081821 0.559296 -0.126847 0.028719 -0.251036 0.005519 -0.073210 -0.043197 -0.026833 0.464244 -0.116513 -0.350731 -0.342466 -0.288362 0.213004 -0.172567 0.189762 0.178445 0.162121 0.623313 -0.330639 0.270220 -0.430162 -0.101919 0.229113 -0.313061 0.188652 0.315783 -0.202898 0.381122 -0.033390 0.260936 -0.266192 -0.039211 0.293126 -0.512197 -0.115253 -0.341170 0.532149 0.531697 -0.088720 -0.524223 -0.031897 -0.040002 -0.277651 -0.136346 0.245321 0.009844 -0.320916 0.159698 0.441461 0.183654 -0.343853 -0.068936 -0.058632 -0.086991 -0.012335
979 -0.454264 0.483309 0.170892 -0.069164 0.370685 -0.222747 -0.102024 0.114799 0.339371 0.165158 0.447574 0.139937 -0.282726 0.584840 0.749295 0.202493 -0.248732 -0.371319 -0.221075 -0.073974 0.008398 -0.016881 0.008589 0.580261 0.269459 0.018681 0.248671 0.582912 -0.067490 0.394388 0.130822 -0.280516 -0.334037 -0.272664 -0.145310 -0.363847 0.011537 -0.047723 0.527682 0.433010 0.088465 0.907011 0.577609 0.257228 -0.606422 -0.117120 -0.421320 0.331720 -0.115336 0.369504 -0.030472 0.197669 0.242446 0.176643 0.344160 -0.080724 -0.332348 -0.147270 -0.205527 -0.008679 -0.161074 -0.054840 -0.255203 -0.243910 0.121429 0.392890 0.002991 -0.037340 -0.097242 -0.148490 0.349765 0.295312 0.385286 -0.261556 0.092765 0.138879 0.033145 0.570072 -0.127000 0.096369 0.805023 0.240678 -0.606746 0.031273 0.336695 -0.399287 0.130921 0.293718 0.531321 -0.360844 0.054569 -0.976119 0.215577 -1.135919 -0.066788 0.032739 0.073524 0.262375 0.187056 0.368033 0.113348 -0.527671 -0.716880 0.277337 -0.207940 0.007283 0.388105 -0.388526 -0.542659 -0.205469 -0.029142 0.190944 -0.152892 -0.399989 -0.004387 -0.185774 0.272467 -0.449792 0.197814 0.285623 -0.002759 -0.243251 0.147722 -0.277185 -0.785540 -0.111143 -0.065760 0.341002
876 0.254671 -0.189913 -0.541964 0.213258 -1.195810 -0.080047 -0.384842 0.086637 0.007355 -0.064888 -0.215716 -0.237027 0.065275 0.531152 0.426176 -0.375905 0.322357 -0.001623 0.479022 0.498552 0.026622 0.531902 0.178282 0.210865 -0.061611 0.147018 0.118735 0.015813 0.036075 -0.043948 0.155356 0.501261 0.085957 0.513719 -0.052444 -0.495657 0.277787 -0.262142 0.418316 -0.347476 0.589635 -0.497265 -0.389094 0.008044 0.343431 -0.030915 -0.274109 -0.004077 -0.304723 -0.578983 0.068415 0.336063 0.596294 0.527300 0.805795 0.138874 -0.037989 -0.725747 0.058684 0.265316 0.106601 -0.120451 0.447943 0.651618 0.388750 -0.281207 0.017267 -0.106737 -0.496646 0.368321 0.250582 0.116419 0.446623 -0.225515 -0.263336 -0.174910 -0.294220 0.398602 0.282246 -0.278398 0.079970 -0.065562 -0.252787 -0.015668 0.211964 -0.518825 -0.682113 0.080311 0.080787 -0.649443 0.247753 -0.142337 0.383617 -0.246066 -0.676688 -0.322415 -0.499864 -0.107176 -0.210831 -0.405353 0.106308 0.148205 -0.436242 -0.194123 0.028024 0.308089 0.116243 -0.057364 -0.302489 0.338986 0.318175 -0.391553 0.386471 -0.226039 -0.668558 -0.039529 -0.729501 0.154172 0.193449 0.408902 -0.340224 0.273373 0.995456 -0.361076 -0.310532 -0.620607 -0.372470 0.352104
1150 0.171085 -0.087107 -0.228843 -0.155936 -0.732364 0.226953 0.064224 -0.223448 -0.089282 -0.613933 -0.267419 -0.444174 -0.360892 -0.189186 -0.365538 -0.414218 0.265637 -0.261826 1.020028 0.354977 0.025509 0.298260 -0.288480 0.684406 0.078635 0.453059 -0.042683 0.334607 -0.081186 0.654352 -0.427129 0.171777 -0.092307 0.334680 -0.698644 -0.371182 0.424666 -0.793666 -0.090839 0.517424 0.122146 -0.005199 0.262866 0.009380 0.016864 0.087579 -0.508070 0.433064 -0.889386 0.372712 0.452512 0.057667 0.850009 0.378655 -0.317740 -0.326581 -0.297633 -0.310743 -0.160462 0.048228 -0.346355 -0.300056 -0.027508 0.142566 0.183586 0.057564 0.489601 -0.022696 -0.327304 -0.616597 -0.346637 0.724018 0.092817 -0.180625 0.077601 0.899826 0.266997 0.325112 0.155715 -0.228672 0.549410 -0.368609 -0.434537 -0.683535 -0.238838 0.126324 -0.077438 0.140681 0.305775 -0.230592 -0.958749 0.024148 0.276743 -0.109140 -0.235435 -0.161462 0.106399 0.015242 -0.372126 0.226743 0.445132 0.583365 -0.272953 -0.047212 0.402059 0.181630 -0.117225 -0.598846 -0.319718 0.507706 0.101925 0.283709 0.014488 -0.038429 0.302543 -0.170801 0.502981 -0.508158 0.267854 0.277855 -0.333876 0.066521 0.032112 0.342549 0.340030 0.722976 -0.479175 -0.493426
295 -0.137301 0.075442 -0.703432 0.001791 -0.752622 0.002615 -0.222699 -0.433277 0.276276 0.748119 -0.035950 -0.058324 0.175292 -0.227079 -0.036166 -0.150886 -0.542040 -0.739921 0.446535 0.359403 -0.002949 -0.426738 -0.598584 0.110962 -0.178102 -0.145182 0.329472 0.483428 0.263645 -0.191378 0.625390 -0.112039 -0.114428 0.090519 0.182571 -0.271716 0.353712 0.366763 -0.085740 0.511613 0.105397 -0.354301 0.014740 0.142129 -0.062738 0.566821 -0.100722 -0.529565 -0.381385 0.280273 -0.079131 0.577058 0.447128 -0.053547 0.262514 0.177742 -0.261820 -0.306404 0.038817 -0.240412 -0.214215 0.607665 -0.352449 0.233092 -0.020566 -0.299229 -0.410533 -0.874966 0.095516 0.263279 -0.159736 -0.360024 0.296340 0.388833 -0.071688 -0.330267 0.139542 0.683457 -0.640918 -0.482375 -0.117203 -0.456000 0.169056 -0.099517 -0.597275 -0.193360 0.011496 0.248309 -0.072082 -0.275336 0.388902 -0.011137 0.640123 -0.291486 -0.609735 -0.399175 -0.151900 -0.518104 -0.185784 0.345215 0.038914 -0.088778 -0.642331 -0.563849 0.480085 0.300775 -0.186578 -0.652961 -0.228669 -0.284218 0.855470 -0.477750 0.048035 -0.244911 0.316081 -0.104918 -0.670283 0.043133 -0.018086 0.002200 -0.593527 0.353909 0.298206 -0.248796 -0.582006 -0.540191 0.070059 0.822053
416 -0.047474 0.720334 0.623418 -0.293713 -0.644141 0.158503 -0.088087 -0.182461 -0.411688 -0.592668 0.319108 0.472645 -0.162859 0.478660 0.455397 -0.246010 0.085345 -0.035835 0.035771 -0.299054 0.208463 0.011661 -0.070504 0.690477 0.120638 -0.029398 0.584327 0.529760 -0.101059 0.486484 -0.263311 -0.271270 -0.285602 -0.083181 0.086351 -0.461387 0.069509 -0.082226 0.431924 0.106064 0.050991 0.098995 0.328983 -0.040842 -0.433480 -0.059437 -0.047174 0.092893 -0.341175 -0.127697 -0.124056 0.166517 0.409894 -0.020898 0.006849 -0.248275 0.043211 0.334055 -0.236291 -0.582331 -0.483029 -0.011942 0.296167 -0.507744 0.588716 -0.132981 -0.047192 0.403693 0.384121 0.218797 0.433775 0.464210 -0.378642 -0.092347 -0.193116 -0.287171 -0.182870 0.446284 -0.587339 0.602036 0.990952 0.298118 0.055786 -0.138877 0.090679 -0.420874 -0.023369 -0.489943 0.223765 -0.402505 -0.191296 -0.458213 0.667243 -0.538541 -0.642237 0.394431 0.070980 0.132258 0.169716 -0.064437 -0.081473 -0.062364 -0.245365 -0.167393 -0.382812 0.642658 0.349344 -0.531995 -0.595497 -0.324889 1.039097 0.012050 -0.026776 -0.072783 0.197025 -0.771115 0.340514 0.236281 -0.131866 0.230239 0.508832 -0.322961 -0.427762 0.246215 0.180827 0.221615 -0.123863 0.233601
848 0.261483 0.185088 -0.266177 -0.081182 -0.223260 -0.195273 -0.073199 0.161745 0.549199 0.106817 0.637011 0.194238 -0.323006 -0.100327 0.343758 -0.109575 -0.368059 -0.193684 -0.046242 0.158952 0.852076 0.085523 0.224807 0.230582 0.613882 -0.101756 0.225571 0.300000 -0.236660 -0.294209 -0.392638 -0.579088 -0.222183 -0.123030 -0.004690 0.396639 -0.104339 -0.442733 0.221841 0.477521 0.118400 0.467707 0.079733 -0.011654 -0.223707 -0.147463 0.119689 0.134247 0.059646 0.264474 -0.028187 0.294324 0.594832 -0.155472 -0.160104 -0.666150 -0.304010 0.416018 -0.383380 0.068922 0.186192 0.272826 0.431019 -0.179707 0.476268 0.371610 0.375091 -0.394898 0.090653 0.397983 -0.081325 -0.156899 -0.145376 -0.271316 0.159814 0.101431 -0.165099 0.295919 0.097596 -0.346622 0.375629 0.046751 -0.483135 -0.177231 0.237899 -0.542570 -0.617433 0.096249 0.635771 -0.433832 0.183993 -0.569989 0.726731 -0.067967 -0.575597 0.562531 -0.111148 0.335827 -0.111281 0.563492 0.190905 -0.042793 -0.771890 0.552522 0.211540 -0.304119 0.076978 -0.346316 0.033037 0.313527 -0.027097 -0.204315 -0.171101 -0.197366 0.062730 0.280507 -0.042216 -0.225131 -0.123163 0.027568 0.226622 0.118438 0.079584 0.013690 -0.829227 0.388668 -0.309740 0.116652
2832 -0.280021 -0.254344 -0.483292 -0.400321 -0.671056 -0.239776 0.235736 -1.251774 0.103443 -0.070922 0.417249 0.083078 0.028147 0.107461 0.743911 -0.052928 -0.016442 0.782284 0.248515 -0.218248 -0.524294 0.073221 0.079141 1.157754 -0.072659 -0.309512 0.986175 -0.334741 -0.940460 1.129728 0.099260 0.002569 0.846691 -1.083100 -0.677023 -0.643899 -0.691899 -0.517562 0.645824 1.468623 0.992886 0.077409 -0.412134 0.466322 -0.086394 1.170447 -1.144447 0.039428 0.519603 -0.293056 -0.224171 0.886323 -0.072871 -1.014372 -0.103254 -0.069838 -0.129665 -0.581931 -0.516837 -0.440972 -0.007868 -0.288236 0.049878 1.089941 0.151415 -0.869230 -0.412857 0.448203 -0.548247 -0.381766 0.210988 -0.353091 -1.342574 -0.998544 -0.245829 -0.547920 -0.366011 0.107573 -0.352992 -0.341137 0.645163 -0.268703 -0.695814 -0.396820 0.390084 -0.407736 -0.253087 -0.199151 1.334650 -0.362483 -0.901423 -1.500645 0.310362 0.621509 -1.283234 0.255553 0.325412 -0.718423 0.345615 0.292525 0.395187 0.214689 0.545053 -0.270658 -0.415559 0.266337 0.175105 -0.027408 0.354340 0.506259 -0.299687 0.404032 0.441188 -0.621751 0.614678 -0.626143 -0.645661 -0.271636 -0.782103 -0.097744 0.035521 0.269625 -1.213049 -0.183497 -1.190213 0.314510 0.621523 0.273056
2996 -0.266653 -0.944495 -0.860021 0.536843 -0.582369 0.695098 0.442203 -0.365905 -0.943876 -0.122217 0.308279 -0.104322 -0.504252 -0.197854 -0.030717 -0.072040 -0.224094 -0.623546 0.084725 -0.041789 0.275224 0.795357 0.093643 0.145640 0.610304 0.679638 0.656450 0.967495 -1.838245 0.761265 0.681908 0.210403 0.821670 0.625065 -0.198454 0.204571 -0.181820 0.244725 1.709866 -0.395571 -0.392389 -0.453102 -0.006464 -0.136190 -0.184913 0.023303 0.144519 0.265985 0.358651 0.747561 0.568697 -0.108129 0.191417 -0.186207 0.327641 -0.554248 -0.414306 0.040270 0.257257 0.088940 0.037144 0.395415 -0.157676 0.333186 -0.014902 -1.150073 -0.882856 -0.076781 -1.014030 -0.538590 0.053442 0.059133 -0.866641 -0.007401 0.117250 0.968670 -0.498737 -0.210955 0.005032 0.669511 1.039045 -1.086813 -1.520695 -0.204542 -0.439834 -0.674026 -0.520671 -0.422491 0.591961 -1.187824 -0.096085 -0.293181 0.859640 -0.544058 -0.738157 0.014033 0.709810 -0.651825 1.073479 -1.035312 0.921125 0.624608 -0.337176 0.493091 -0.059975 0.684678 0.158068 -0.487183 -0.859932 -0.956790 -0.171294 -0.299994 -0.685027 -0.469915 -0.144698 0.003530 0.171752 -0.547277 -0.370876 0.952945 -0.553594 0.261232 0.011203 -0.402008 0.241196 0.655939 0.067331 -1.100054
1386 -0.146685 -0.097090 -0.036443 0.026927 -0.767031 0.034917 0.421538 0.668804 -0.118810 -0.046565 0.284933 0.027279 -0.701861 -0.355870 -0.016429 -0.414949 -0.217942 0.300965 0.349899 0.739592 0.679490 0.615290 0.093140 0.656971 0.624922 0.701072 0.427863 -0.380600 -1.192558 -0.187345 -0.191651 -0.763920 -0.868745 0.297095 -0.292158 0.379975 0.072344 -0.103814 0.416876 -0.447472 0.724189 0.381776 0.177370 0.211247 -0.154366 0.169787 0.217475 -0.360229 -0.794918 0.121578 0.677356 0.529685 -0.414944 0.712267 -0.264320 -0.594986 0.378131 -0.914196 0.200255 0.067146 -0.060887 0.596872 -0.244354 0.935763 0.701451 0.082362 0.469496 0.016416 0.684991 0.135965 -0.299665 0.277818 -0.669673 0.436719 -0.064933 0.394573 -0.374276 0.784987 -0.983065 0.598515 0.147153 -0.445954 -0.578206 -0.417355 0.136292 0.280665 0.004150 -0.764350 0.642163 -0.892179 -0.445218 0.423859 -0.041538 0.498501 -0.987881 -0.089536 -0.090508 -0.050927 -0.033578 -0.469687 0.714521 -0.245206 -0.182798 0.147617 0.230937 0.946285 -0.323578 -0.790166 -0.629887 0.263878 -0.181394 -0.489710 0.496129 0.164145 -0.295423 0.244002 -1.090386 0.200387 -0.103580 0.801316 -0.158251 -0.670776 0.413081 0.081861 0.177951 0.084312 1.108662 -1.219350
202 -0.227825 0.382496 -0.019068 -0.220282 -0.526875 0.091135 0.076373 0.008515 0.479639 -0.010031 0.230123 -0.094207 -0.007453 0.143000 0.474891 0.151255 -0.556957 -0.544994 -0.411519 -0.005958 -0.028803 -0.183647 0.642655 -0.510022 -0.177773 0.456554 0.859747 0.506249 -0.519260 -0.037428 0.032268 -0.243298 -0.109368 -0.244921 0.200412 -0.377264 -0.280810 0.327172 0.186347 0.690575 0.277166 0.164848 0.987881 0.439937 0.259257 0.356200 -0.231536 0.104222 -0.332439 -0.064077 0.553038 0.025034 0.504404 -0.107265 0.280911 -0.780129 -0.238951 0.229869 -0.561365 0.116651 -0.228257 -0.181044 -0.160733 -0.060316 0.189869 0.176870 0.105852 -0.203020 0.006932 0.413670 -0.001098 0.315545 0.224653 -0.642792 0.644729 0.546638 0.211507 0.414042 -0.046706 0.642855 0.491837 -0.189245 -0.012400 0.408654 0.588414 -0.499924 0.159847 -0.365443 0.194847 0.156529 0.887069 -0.924470 0.340420 -0.165953 -0.684268 -0.000465 -0.155053 0.041774 0.099371 -0.381242 0.010603 -0.024517 -0.200290 0.134714 0.017925 0.525236 0.540157 -0.465514 0.389687 0.049938 0.298407 -0.386477 0.485462 -0.085415 0.627076 0.223745 -0.353919 -0.442645 -0.558305 0.163404 -0.183692 0.044193 -0.235851 0.835971 0.199403 0.245256 0.026217 -0.163514
389 0.123776 0.467897 0.541175 0.044617 -0.058144 -0.223797 0.328471 0.442559 0.203473 -0.000709 0.249067 0.214779 -0.486321 -0.278572 0.091174 -0.433738 -0.263141 -0.273051 0.119702 0.153193 0.890633 0.112977 -0.080859 -0.022507 -0.717198 0.131816 0.232454 -0.478576 0.303589 0.289855 0.161571 -0.065517 -0.911592 0.476244 0.053171 -0.192191 -0.425414 0.076497 0.168374 0.245928 0.184168 0.717406 0.762341 0.546826 -0.057383 -0.054376 -0.444449 0.673241 0.303139 -0.082558 0.367504 -0.070026 0.617958 -0.322528 0.728824 -0.230260 -0.320450 0.186555 -0.623663 0.279994 -0.662662 -0.207047 0.464442 0.166755 0.082897 0.660877 -0.139044 -0.077462 -0.142159 -0.337927 -0.423604 0.175552 -0.105401 -0.396495 -0.276903 0.269681 -0.228457 0.636632 0.072071 0.115756 0.706353 -0.485093 -0.653360 0.231090 -0.082187 -0.625062 0.251034 -0.954942 0.119631 -0.140396 0.138865 -1.296517 0.396392 -0.965261 -0.526429 0.194738 0.472711 -0.156815 -0.121279 -0.330279 0.098461 0.150453 0.016794 0.120536 -0.019830 0.878997 0.449203 0.342924 0.154008 0.171299 0.848529 -0.188191 -0.117211 -0.299296 0.298117 0.373089 -0.516745 -0.609134 -1.051204 0.577933 -0.690470 0.247771 0.498425 0.470402 0.241395 0.050398 0.355150 -0.011763
495 -0.531730 0.768168 0.108163 0.094752 0.188183 -0.337636 -0.168185 0.203068 0.215992 -0.003610 0.316647 0.087845 -0.602743 0.460187 0.372263 0.088585 -0.182138 -0.307304 -0.506091 -0.119068 -0.101045 0.040271 0.147648 0.556049 0.249004 0.281041 0.179883 0.582761 -0.088552 0.056628 -0.040168 -0.196615 -0.433447 -0.249979 -0.062785 -0.546213 0.160048 0.177630 0.628089 0.219356 -0.081680 0.809991 0.481044 0.098313 -0.455571 -0.284647 -0.391206 -0.042648 -0.139451 0.119488 0.022864 -0.028951 0.225488 0.472169 0.446768 -0.321894 -0.354408 -0.257273 0.137671 0.272112 -0.173418 0.145032 -0.433466 -0.554916 -0.116759 -0.105751 0.051357 -0.015760 0.148122 -0.603605 0.171451 0.042903 0.529667 -0.540130 -0.136084 0.273908 0.033153 0.574402 -0.291789 0.195525 0.665382 -0.274443 -0.946852 0.125899 0.579392 -0.554666 0.033679 -0.032208 0.455590 -0.288731 0.122641 -0.836616 0.007699 -1.196265 -0.040077 0.136117 0.147288 -0.059994 0.009670 0.539825 0.194909 -0.584929 -0.568110 0.078488 -0.272775 -0.019512 0.412345 -0.260573 -1.134889 -0.116812 -0.060413 -0.113836 -0.438773 -0.311166 0.096562 0.004562 0.045681 -0.547294 0.065559 0.112817 0.127795 0.037979 0.098537 -0.230319 -1.066702 -0.027090 -0.126288 0.640362
447 0.415597 -0.727062 -0.759001 -0.218723 -0.468590 0.063781 -0.044331 0.752360 0.165508 0.600210 -0.363646 -0.399839 0.316019 0.266487 -0.290907 -0.234747 -0.331996 -0.904939 -0.342910 0.188503 -0.250633 -0.626734 -0.552651 0.888906 -0.396972 0.636337 -0.041431 0.119988 0.283692 -0.506789 0.523190 0.372004 -0.070207 -0.830964 -0.304084 0.189262 0.163447 0.326061 -0.066272 0.532487 -0.103450 0.161314 0.480001 0.227956 -0.366932 -0.066474 0.132738 0.312993 -0.339992 0.040886 0.173849 0.785930 0.333816 -0.122986 0.599581 -0.282701 -0.305932 -0.174560 -0.181465 0.072740 -0.191555 0.693305 0.137463 0.889858 -0.074441 -0.724719 0.097920 -0.150192 -0.473669 -0.031036 0.061874 0.151716 -0.160664 0.693166 -0.020221 -0.200486 -0.200581 0.329531 -0.441692 -0.636513 0.321965 0.175962 -0.495442 -0.221311 -0.293294 -0.374686 0.041805 -0.267689 0.063679 -0.010021 -0.087666 -0.623468 0.470821 -0.439451 -0.559907 -0.104568 -0.245344 -0.494942 -0.091188 0.106555 0.062392 0.397545 -0.282518 -0.379212 0.585012 -0.333268 -0.430658 0.042226 -0.351976 -0.902826 0.600466 -0.184485 -0.191660 0.100832 0.364799 0.251241 -0.182717 0.075045 0.278948 0.162183 0.353602 0.135128 0.083040 0.208637 -0.772831 -0.289713 -0.241865 0.304296
441 -0.078138 0.599549 -0.323949 0.133145 -0.590660 0.048370 -0.536431 -0.076923 0.323519 -0.581836 -0.062685 -0.589255 -0.349604 -0.128787 -0.293615 0.086064 -0.189159 0.291151 0.072321 0.628920 -0.322559 0.235321 0.330583 0.062415 -0.171629 0.509256 -0.087555 0.094294 -0.225516 0.737991 0.660656 0.191584 -0.248344 -0.122702 -0.162616 -0.444018 0.038039 -0.673550 0.086992 -0.023555 0.422289 0.360125 0.029445 0.389535 -0.164910 -0.115311 -0.429404 -0.790882 -0.781499 -0.236754 -0.141327 0.433969 0.701970 0.170634 0.003082 -0.292178 -0.484738 -0.133449 0.332295 -0.216302 0.005124 0.127800 -0.325971 0.349085 -0.032124 0.005014 0.120682 -0.188752 0.032447 -0.986094 0.036101 0.282252 -0.067905 0.506968 0.886553 0.379892 0.291030 0.219883 -0.093474 -0.715482 0.164043 -0.023813 -0.160595 -0.452231 -0.220146 0.610410 0.018471 -0.242398 0.376826 -0.855334 -0.320329 -0.180359 0.374016 0.243377 -0.393666 -0.031944 -0.069059 -0.034426 -0.239074 0.040637 0.190054 0.122239 0.001710 -0.428930 -0.313333 0.356442 -0.224787 -0.213613 -0.090983 0.276717 0.145803 0.299448 0.134004 0.134297 -0.034987 -0.003282 0.056124 -0.135431 -0.013373 -0.396129 0.439924 0.151208 0.233466 0.334272 -0.138248 0.155498 -0.475580 -0.046762
1168 0.156556 0.728070 -0.260885 0.136960 -0.671453 -1.316634 0.731359 -0.018522 0.397699 -0.274353 -0.092880 -0.586584 0.216628 -0.117149 0.124658 -0.248337 -0.166865 0.381021 0.528538 0.997257 -0.351047 -0.605904 0.348866 0.221453 -0.381297 -0.559187 0.394392 0.428699 0.377743 -0.094219 0.035519 0.422799 0.135598 -0.904880 -0.148956 0.274762 -0.193713 0.241718 -0.236635 -0.162018 -0.104198 0.190346 -0.228190 -0.119521 0.413689 0.103258 -0.098217 0.732278 -0.371020 -0.214829 0.580812 0.427749 0.233279 0.577063 0.596040 -0.871868 -0.609749 -0.322529 -0.486227 -0.290037 -0.009356 -0.378785 -0.595010 0.763438 -0.209632 -0.332487 0.405156 0.145557 0.263603 -0.485128 0.453731 0.322550 0.296598 -0.044107 -0.488435 -0.326411 -0.178057 -0.532239 -0.000720 -0.003714 -0.022918 -0.210637 -0.558954 0.180411 0.757601 0.036729 0.038195 0.398545 0.002309 0.368789 0.133147 -0.625711 0.042052 -1.222077 -0.402711 0.040282 -0.375454 0.336639 -0.728107 0.206047 0.032403 -0.282382 -0.412286 -0.835489 -0.230357 0.609546 -0.392354 0.152541 -0.054143 0.311079 0.601559 0.088807 -0.099605 -0.161534 -0.019437 -0.133544 -0.508722 0.245699 -0.027504 0.178434 -0.219672 -0.395344 0.118927 -0.542290 0.011534 0.004024 -0.463763 -0.442723
483 0.098283 -0.090778 0.274589 0.520173 -0.677913 0.132863 -0.287794 0.117834 0.101011 -0.014281 0.269583 -0.254918 0.334008 0.058132 0.083280 -0.248359 0.019453 -0.007300 0.017566 0.149265 -0.078510 -0.123842 0.273031 0.452427 -0.663399 0.183275 0.475391 -0.015938 0.383724 0.456236 0.160970 0.180421 -0.110949 -0.256179 0.014363 0.162185 0.108211 -0.409699 0.465918 -0.326750 0.096004 0.179442 -0.044662 0.249551 0.382771 0.249183 -0.438774 0.094857 -0.038511 -0.088248 -0.177998 0.113162 0.158010 0.026112 0.103779 -0.520333 0.409184 -0.356640 0.044585 0.024551 0.271995 -0.105188 -0.270880 0.634712 -0.072455 -0.080393 -0.079392 0.386377 -0.014256 -0.094159 0.155255 0.273359 0.137462 0.018753 -0.095968 -0.231268 -0.488593 0.028611 -0.184182 -0.190351 0.287436 -0.156810 -0.568520 -0.402112 -0.507137 -0.248771 0.174433 0.307223 0.656203 0.153402 0.271867 0.037485 0.086986 -0.229434 -0.470634 -0.042414 -0.244281 0.263291 0.093013 -0.064765 0.054865 0.522181 0.237092 -0.333982 0.335716 -0.054667 -0.265486 -0.309272 -0.138599 -0.032692 0.109165 0.257285 -0.421257 0.121771 0.428272 -0.063457 -0.315882 0.336209 -0.524557 -0.313040 -0.279864 0.457680 -0.207577 -0.418980 -0.096029 0.275000 -0.238866 -0.420376
685 -0.081188 0.141614 -0.193524 0.455824 -0.308326 -0.015599 -0.532398 -0.272859 -0.268019 0.018023 -0.069175 -0.309412 0.232135 -0.276995 0.499810 -0.038527 -0.137753 -0.170863 -0.017713 0.475898 0.358841 0.142500 -0.223994 0.364070 -0.042103 0.437134 0.382652 -0.090732 -0.213697 0.265516 -0.000398 -0.161094 0.062530 -0.416656 -0.201081 -0.147296 -0.009989 -0.060356 0.131644 -0.559133 0.428205 -0.321486 0.146231 0.292238 -0.031067 0.047291 -0.183797 0.332906 0.051379 -0.205754 -0.336639 0.547540 0.352596 0.424093 0.005847 -0.495300 -0.221592 0.249473 0.064596 -0.275479 0.006913 -0.089932 0.475122 -0.043941 -0.084798 0.090519 -0.123586 0.313906 0.123031 0.150330 0.081890 -0.161758 0.060267 0.267697 0.042668 0.342508 -0.407733 0.706277 -0.244106 -0.235052 -0.014143 -0.076122 -0.007511 -0.027061 -0.105726 0.356422 -0.111067 -0.067475 0.253141 -0.301792 0.698895 0.363233 0.315249 -0.097420 -0.065646 -0.087620 -0.065114 -0.018338 -0.392793 0.283469 0.185940 0.322897 -0.084263 -0.473505 0.577922 0.306423 -0.135520 -0.366479 -0.089504 0.015189 0.407772 0.130969 0.116327 -0.423568 0.031128 -0.051988 0.039889 0.363089 0.127864 0.492516 -0.333789 0.900925 -0.058180 -0.581607 -0.185849 -0.196573 -0.469285 -0.176643
1374 -0.247722 -0.113781 -0.381716 0.130587 -1.100008 -0.347424 0.457849 -0.295823 -0.050722 0.192468 -0.542432 -0.551710 -0.397798 0.076802 0.012659 0.400132 -0.288009 -0.048416 0.333280 0.340985 -0.211235 0.161394 -0.043216 0.459396 -0.106922 -0.192440 0.021140 -0.183865 -0.403037 0.143111 0.698597 0.341522 0.136867 -0.143649 -0.071350 -0.752504 0.306375 -0.339428 -0.225039 -0.133836 0.366454 -0.494247 0.835606 0.992654 0.164019 -0.671286 -0.199810 0.629443 -0.384159 0.060046 -0.213576 0.906247 0.200313 0.108759 0.154243 -0.951122 -0.257067 -0.005822 -0.404445 -0.181185 -0.092735 -0.142098 0.172248 -0.286808 0.151716 -0.212876 0.973571 0.070095 -0.156286 0.156026 0.028182 0.149718 0.354383 -0.652767 -0.127448 -0.093701 0.034056 -0.124476 -0.005868 -0.170301 0.126844 0.043935 -0.169979 -0.470519 -0.927970 -0.873224 -0.558258 -0.617329 0.110093 -0.014066 0.004992 0.367972 0.800133 -0.015367 0.048619 0.051056 -0.352383 0.452198 0.165719 0.064757 0.727525 -0.074054 -0.160726 -0.242461 -0.440229 0.145451 -0.567099 -0.041306 0.054030 -0.552477 -0.014095 0.333858 0.059137 0.039419 -0.273028 0.307422 -1.023473 -0.139274 0.262933 0.089791 -0.287194 0.004233 0.084224 -0.793345 -0.494212 0.071284 0.019811 0.145473
1759 0.206381 -0.091292 -1.223119 0.194366 0.153137 -0.108587 -0.378013 -0.085820 -0.099613 -0.836420 0.234991 -0.920970 -0.224894 -0.268587 0.304742 -0.366671 -0.775074 0.286918 -0.716028 0.672674 0.959111 0.248271 -0.304523 0.782244 0.132222 -0.545539 -0.411973 0.307780 -0.587507 0.547506 -0.612736 -0.265692 -0.560860 -0.900437 0.092509 0.205054 0.238204 0.915260 -0.242524 -0.120734 0.157468 -0.195193 0.207745 0.852612 0.092127 -0.570583 0.267737 0.316541 -0.641441 0.590248 0.834679 0.264186 0.810176 0.840667 -0.005831 -1.114836 -0.616162 -0.199967 -0.948547 -0.727354 -0.400773 0.020390 -0.943322 0.024659 0.954874 -0.229022 1.466245 -0.357801 0.994003 -0.132508 0.020036 0.647923 1.640115 0.042968 0.649231 -0.770968 -0.086304 0.571831 -0.895168 0.403046 0.369291 -0.615396 -0.685728 0.483585 -0.883718 -0.528732 0.470994 -0.922732 0.566961 -0.014691 0.097537 0.122920 0.172560 -0.404537 -0.190817 -0.246824 -1.199433 0.688006 -0.497275 0.702480 0.822890 0.195403 0.426913 -0.355916 1.516144 1.148526 0.407763 -0.008590 0.506523 -0.295635 0.513151 0.454570 0.181315 0.108484 -0.067200 -0.394796 0.268089 -0.064721 0.154885 -0.749349 0.254900 -0.251397 0.864690 0.031941 -0.266215 -0.596778 -0.713256 1.614395
522 -0.243744 -0.053688 -0.408674 0.517390 -0.818446 -0.184616 -0.259144 -0.131652 0.029739 -0.106817 -0.154495 -0.408968 -0.562239 -0.254193 -0.073620 0.276477 -0.108982 0.117173 -0.005917 0.405886 -0.276444 0.083855 -0.219914 0.503932 -0.157431 -0.318710 0.298225 -0.484477 -0.253534 0.521809 0.351335 0.129926 -0.060369 -0.244363 0.330406 -0.400178 0.335989 -0.536616 -0.402869 -0.071652 0.161033 0.009181 0.431919 0.962634 0.105610 -0.211661 -0.500268 0.411553 -0.053977 0.463571 -0.560187 0.245267 -0.160046 0.663485 0.112544 -0.681253 -0.076978 0.001122 -0.044532 0.192943 0.007125 0.054507 0.164397 0.209914 0.157261 -0.211828 0.450318 -0.026441 0.560510 0.302901 0.360597 -0.193986 0.301043 -0.264497 -0.135591 -0.019934 -0.131158 0.188090 -0.031112 -0.226866 0.048690 -0.152387 -0.254457 -0.005911 -0.573874 -0.155853 -0.131059 0.184366 0.246265 0.010903 0.328339 0.144650 0.418596 -0.101957 -0.269638 -0.031703 -0.149089 0.119174 -0.079259 0.059441 0.244514 0.166281 0.192082 -0.252715 -0.308147 -0.081576 -0.034407 -0.009435 -0.022691 -0.110606 -0.038159 0.288302 0.097470 0.296702 0.018163 0.045165 -0.707558 0.069103 -0.032696 0.003891 -0.020134 0.267548 0.021934 -0.451581 -0.297780 0.087499 -0.193471 -0.032079
1637 0.378637 -0.572001 -0.682049 0.012308 -0.486613 -0.668567 -0.070104 -1.040892 -0.493822 0.205294 -0.252547 -0.133591 -0.207818 -0.755837 1.030145 0.005733 -0.413939 0.758070 0.271798 0.003748 0.091744 -0.213856 0.378142 0.341668 -0.130580 0.153232 -0.474938 0.425729 -0.083987 1.134734 -0.486102 0.830292 0.210148 0.449801 0.413556 0.762496 0.049639 0.314091 0.910951 0.482988 0.903964 -0.473777 0.173905 -0.018829 0.199825 0.178896 -0.044895 0.663319 -0.322925 0.413676 -0.967501 -0.156241 0.482279 0.682159 -0.143784 -0.455895 -0.015665 -0.759510 0.079781 0.185969 0.369335 -0.224521 -0.678595 -0.148111 1.121642 -0.230129 -0.031677 -0.499158 0.152061 -0.093784 0.336166 -0.392540 -0.081258 -0.614346 -0.172918 -0.859200 0.484528 -0.228743 0.183219 -0.824175 0.110577 -0.145893 -0.827513 0.061003 0.264022 0.199265 0.328081 0.563989 0.873510 -0.640747 -0.309377 -0.045528 -0.252401 -0.861274 -1.032374 -0.586381 -0.449244 0.248341 -0.719506 -0.415142 0.386130 -0.413470 -0.220069 -0.193830 -0.539429 0.781541 0.202658 -0.397085 0.067345 -0.051415 0.847420 -0.785188 0.320462 -0.334141 1.002057 -0.738981 -0.408983 0.251383 -0.953700 0.614637 -0.610163 -0.962804 -0.746047 -0.111437 -0.330562 -0.757350 0.602268 0.113599
1500 -0.081523 -0.066365 -0.508416 -0.450563 -0.684391 0.767159 -0.257192 -0.393282 -0.038199 -0.364714 0.367948 -0.473605 -0.528230 -0.025644 -0.210982 -0.637756 0.223884 0.416418 0.241519 0.439673 0.084917 0.077108 -0.299250 -0.256809 -0.106099 0.974472 -0.038683 0.629430 -0.139123 0.330723 0.024805 -0.474687 -0.249187 0.217773 -0.563632 -0.283462 0.875601 -0.932963 -0.280841 0.261196 0.622350 0.211655 -0.179308 0.435473 0.031556 -0.130804 -0.369922 -0.048077 -1.072504 -0.251326 0.072434 -0.288779 -0.083843 0.306713 -0.084734 -0.258715 -0.216907 0.340541 0.124739 -0.243149 0.053137 -0.954874 -0.386792 0.330164 0.207084 -0.124107 0.464523 0.476260 0.235293 -1.205771 0.113975 0.819644 0.211852 0.607183 -0.462597 0.166511 0.071734 0.095263 -0.036927 0.009405 0.155507 -0.417033 -0.317802 -0.084645 -0.155249 0.210802 -0.288345 0.261692 -0.036089 -0.725875 -0.985312 -0.197239 1.106081 -0.200310 -0.415814 -0.463526 -0.168311 0.409219 -0.642996 0.220813 0.524666 -0.165972 -0.119530 -0.204590 0.400585 -0.063074 -0.263499 -0.479754 -0.921938 0.138267 0.742674 -0.113003 0.713232 -0.332355 0.115864 -0.000456 -0.291240 -0.239226 -0.098340 -0.286036 0.564004 0.458296 -0.288613 0.121260 -0.054521 0.514993 -0.169266 -0.590071
40 -0.182855 -0.174270 0.295709 0.025011 -0.035407 -0.557572 -0.038978 0.341696 0.270467 -0.546212 0.871009 0.359973 -0.605270 0.125953 0.763674 -0.214558 -0.442822 -0.249620 -0.266011 -0.112599 0.194425 -0.143907 -0.022210 0.613857 0.234194 0.032211 0.547981 0.386889 -0.368527 -0.071458 -0.088288 -0.091745 -0.443383 -0.190246 -0.017393 -0.194678 -0.095925 -0.530508 0.765949 0.351139 0.024799 0.207103 0.624662 0.229012 -0.330065 0.374686 -0.070268 0.121854 -0.478373 0.164780 0.101856 0.149550 0.490584 -0.092940 0.266267 0.038888 -0.206338 0.144005 -0.019899 0.075357 -0.267891 0.063187 -0.132209 -0.360290 0.559531 -0.332777 -0.399801 0.094518 0.245885 0.314919 0.062835 0.835199 0.182550 -0.070695 0.432205 -0.063857 0.317990 -0.092154 -0.015958 0.185759 0.520469 0.310869 -0.779265 0.211165 0.421157 -0.210185 -0.432926 -0.317180 0.602659 0.411846 -0.327076 -0.351218 0.048233 -0.443963 -0.227518 0.272503 0.313122 -0.002058 -0.167683 -0.080389 0.060546 -0.259387 -0.710765 0.056175 -0.177907 0.637266 0.435100 -0.194896 -0.391294 0.089877 -0.056528 -0.584886 0.114602 0.115521 0.633868 -0.310606 -0.361955 0.306723 0.341471 0.154453 0.116487 0.153270 -0.067617 0.040463 -0.846458 0.081852 0.826367 -0.037839
1811 -0.328211 -0.011338 0.019159 -0.202451 -0.338912 -0.885698 0.318872 -0.210200 -0.181856 -0.517753 -0.200497 -0.686510 -0.313182 -0.151289 0.131506 -0.077876 -0.605933 0.054559 0.605506 0.406946 0.426068 -0.015715 -0.065826 0.358889 -0.479471 0.115802 0.092762 0.047993 -0.017343 -0.163301 0.464341 -0.210364 -0.259948 -0.252856 0.107441 -0.250689 0.862400 -0.296621 -0.154804 0.998199 0.161971 0.324418 0.323853 -0.272734 0.118530 -0.234895 -0.158830 -0.078867 0.030897 0.128234 -0.315165 -0.041351 -0.372277 0.478173 1.086524 -0.153667 -0.145175 -0.464456 0.226752 -0.541272 0.092791 0.532406 0.056823 -0.332034 0.741421 0.473916 0.801822 -0.427437 0.596541 -0.804718 -0.564340 0.338506 0.460220 -0.143886 0.400876 -0.401409 -0.001195 -0.767792 -0.385858 -0.299254 -0.021985 -0.230708 0.145593 -0.282654 -0.060361 -1.321820 -0.079794 -0.391128 0.243600 0.009611 0.409831 -0.411217 0.032222 -0.204713 -0.491106 -0.154548 0.136680 0.491229 -0.763809 0.196837 -0.138103 -0.092967 0.117045 0.677219 0.386232 0.162866 -0.338920 -0.115177 0.312246 -0.066543 0.618495 0.558867 0.492671 -1.185326 -0.233712 0.304390 -0.398209 -0.205830 0.482638 0.576530 -0.295152 0.224832 -1.203352 -0.672633 -0.269997 -0.630387 0.323990 -0.456134
429 0.122580 0.030114 -0.741397 0.427778 -0.895030 -0.216165 0.704216 0.029139 0.079272 0.170965 0.825947 0.002710 -0.332984 0.245015 0.245753 -0.321230 -0.850612 0.248735 0.872360 0.576307 -0.140763 -0.173389 -0.286127 0.349944 0.251267 0.017627 0.384224 0.489911 0.842352 -0.336705 0.083185 0.063052 0.343329 -0.107065 0.174456 -0.045201 0.212445 -0.166281 0.202804 -0.165040 0.214325 -0.323202 0.237235 0.160153 0.294454 0.497335 0.105550 -0.056584 -0.014949 0.149596 0.007855 0.009647 0.526758 0.080657 0.191573 0.490619 0.039055 -0.184531 0.072697 -0.158874 0.320571 -0.380843 0.259191 -0.009808 -0.049225 0.013164 -0.042652 -0.141255 0.127449 -0.329397 0.427152 0.020625 0.055518 -0.307324 -0.178131 -0.393109 0.189433 0.347338 -0.570615 -0.493606 -0.271112 -0.302658 0.144405 -0.378599 0.386179 0.062209 0.197549 0.297291 -0.054483 -0.610459 0.424148 -0.109790 0.007364 -0.681202 -0.660257 -0.919815 0.102573 -0.287923 -0.201079 0.192214 -0.013697 0.143080 -0.426893 0.156812 -0.293932 -0.029799 -0.229939 -0.479381 -0.036870 -0.089390 0.578192 -0.008730 0.558356 -0.278729 0.425185 -0.167047 -0.476910 0.150391 0.336803 0.090332 -0.590215 -0.028286 0.637482 -0.412729 0.063431 -0.255041 -0.533966 0.481882
1727 -0.374003 0.322847 -0.035725 -0.119988 -0.650524 -0.820968 0.190430 0.227005 -0.075286 -0.370514 0.300420 -0.905260 -0.669156 0.341658 -0.246044 -0.127660 -0.604715 0.140881 0.827389 0.406349 -0.110805 -0.073321 0.345009 0.444754 -0.353213 -0.227401 0.096521 0.151640 -0.311763 -0.424174 0.128649 0.023640 -0.301173 -0.423095 -0.023711 -0.231141 0.479827 0.029519 0.138603 0.371390 0.338345 -0.289663 0.753184 0.085211 0.305475 -0.557027 0.021719 -0.128863 -0.362024 -0.007361 -0.196711 -0.061052 -0.252356 0.529564 0.920021 -0.350848 0.042470 -0.570815 -0.389750 -1.012111 0.163284 0.171615 -0.109283 -0.392037 0.284197 0.119574 0.794479 -0.090918 0.134567 -0.692554 -0.811681 0.598918 0.516487 -0.191927 0.139906 -0.561899 0.277880 -1.107108 -0.531958 -0.454660 0.186300 -0.179381 0.117994 -0.173777 0.142111 -1.046949 0.001162 -0.190238 0.238358 0.218793 0.266696 -0.060437 -0.061320 -0.605188 -0.268360 -0.408620 -0.221711 0.349209 -1.016110 0.234363 -0.053026 -0.069866 0.227764 0.437282 0.479759 0.326936 -0.616631 -0.159427 -0.053158 -0.276494 0.818323 0.562202 0.445161 -0.744359 0.047566 0.101340 -0.799421 -0.424526 0.808878 0.128730 -0.134300 0.056918 -1.173629 -1.000301 -0.098125 -0.497133 0.411107 -0.284696
506 -0.127473 0.032868 -0.770851 0.021380 -0.284290 -0.525872 0.023932 -0.813827 0.987436 -0.419071 0.268405 0.913124 -0.291640 -0.057352 0.265262 -0.304114 -0.402224 -0.450225 0.079131 0.300407 0.594498 -0.025008 0.232340 0.416818 0.326928 -0.277786 0.425444 0.175889 -0.754934 0.094042 0.080969 -0.669602 0.309350 -0.260145 0.123085 0.056834 -0.104488 0.160653 0.025977 -0.076098 0.212528 0.326494 0.969853 0.542244 -0.079649 0.072940 -0.158394 0.359751 -0.149975 0.140775 -0.058585 -0.189533 0.519330 0.162595 0.822617 -0.193914 0.238367 0.418474 -0.692319 0.026355 -0.013397 -0.280562 -0.186272 -0.525755 0.166438 -0.060335 -0.072938 0.000453 -0.449345 -0.308272 0.218612 0.377362 -0.013277 -0.355446 0.376626 0.201012 -0.025860 0.270120 -0.314518 0.659419 0.104819 -0.430114 -0.328116 0.584606 -0.026732 -0.142990 -0.102875 -0.231058 0.488387 -0.105559 0.026082 -1.089840 0.332910 -0.643519 -0.401422 0.176279 -0.332524 0.542743 -0.160471 -0.217845 0.401448 0.250821 -0.235571 0.387774 0.689206 0.658752 0.028300 -0.859527 -0.189987 -0.126537 -0.183707 -0.338077 -0.173783 -0.407130 0.620748 0.011891 0.102757 0.289243 0.247562 -0.315040 0.639995 -0.271645 0.064713 0.483636 -0.256952 0.282489 0.305277 -0.379001
57 0.124912 -0.399954 0.248911 0.178441 -0.717983 0.811877 -0.379020 -0.112908 -0.284510 -0.271371 0.580794 -0.416239 -0.133814 -0.033216 0.205399 0.030305 -0.196723 0.464902 0.010010 0.566731 -0.304694 0.078753 -0.745674 -0.055732 0.279794 -0.372683 0.453737 0.233784 0.193799 -0.021162 -0.596705 -0.332529 -0.565440 -0.135880 0.684307 0.613185 0.150249 -0.702760 1.062211 0.390888 -0.303753 0.474354 -0.030078 0.456473 0.048809 0.222391 -0.106709 0.795998 0.357838 0.097651 0.438383 0.038015 0.465414 0.403297 0.378912 -0.596009 0.152138 0.713685 -0.201162 -0.560201 -0.233669 -0.134824 -0.225923 0.274189 0.496642 0.016855 0.565657 -0.501850 -0.641430 -0.091215 0.377514 0.446711 1.102509 -0.529241 0.617209 -0.349537 -0.048950 0.825339 -0.018529 0.140473 -0.102549 0.216778 -0.229199 0.058331 0.576780 -0.079771 -0.222258 -0.154556 0.174820 -0.116109 -0.276993 -0.195571 -0.279691 0.158047 -1.110720 0.353358 0.122370 0.281774 -0.128908 -0.221026 0.460867 0.494003 -0.251580 0.255816 0.593378 -0.272610 -0.783288 0.054245 -0.563606 0.168435 0.562319 -0.449855 0.030964 -0.129377 -0.616124 0.485463 -0.031811 0.027871 0.138092 0.440562 -0.087012 0.156051 -0.520956 0.682809 0.263177 -0.316613 0.118466 -0.207794
1083 -0.150258 0.348059 -0.491215 -0.427032 -1.101046 0.003995 0.147657 -0.360996 0.220695 -0.831676 -0.105895 -1.119076 -0.084780 0.067342 -0.220273 -0.239665 -1.039300 0.100746 0.441605 1.059780 -0.132408 -0.325679 0.129191 0.703643 -0.162939 0.501520 -0.121981 0.229380 0.061734 0.645609 -0.320149 0.308069 -0.445894 0.209651 0.142228 -0.242202 0.174826 -0.601228 -0.213055 -0.115617 -0.016365 -0.365482 0.100550 0.837815 -0.415302 -0.457924 -0.443618 -0.381635 -0.298406 0.705298 0.615704 0.475276 0.879599 -0.153852 -0.323913 -0.277352 -0.054598 -0.593127 0.087654 -0.131618 -0.678491 -0.784566 -0.170935 0.336345 -0.081882 -0.305490 -0.455097 0.076484 -0.198514 -0.372541 -0.520263 -0.165562 -0.079592 -0.363385 0.362909 0.608614 0.395994 0.157361 -0.060394 -0.088717 -0.008630 -0.524960 -0.617157 -0.441629 0.025184 0.379704 -0.174160 0.267769 0.621408 -0.249068 -1.393814 -0.403942 0.319123 -0.017921 -0.121472 0.328013 0.608853 -0.090765 -0.183489 0.182653 0.365528 0.524914 -0.308049 0.213840 0.184145 0.752035 -0.614436 -0.588207 -0.755602 0.016488 -0.010662 -0.000473 0.146716 -0.153310 0.154730 -0.030059 0.091899 -0.213744 0.312791 0.083283 -0.183358 -0.207184 -0.528127 0.460442 -0.030104 0.291204 -0.536144 -0.676239
1980 -0.099736 0.429758 -0.295925 0.294554 -0.740552 0.224580 0.114382 0.373517 0.749421 -0.033712 -0.153900 -0.480733 0.332239 -0.442571 -0.113276 0.727053 0.225640 0.285646 0.212164 -0.010404 1.145813 -0.211493 -0.097869 -0.517198 0.214739 0.154976 0.366346 -0.235755 -0.203503 -0.342793 0.073631 -0.133688 0.090245 0.366307 -0.669724 -0.856285 0.478233 0.582109 1.157192 0.373283 -0.339908 0.004078 0.247183 0.384363 0.563231 0.065236 -0.279839 0.632169 -0.126614 -0.366146 0.067720 -0.418281 0.023995 0.362540 0.512182 0.254912 0.158603 -0.269784 -0.265432 -0.288193 -0.278951 -0.085916 -0.254568 0.364415 0.611353 -0.132713 0.125584 -0.179106 0.036636 -0.617028 -0.045478 -0.297251 0.561293 -0.349799 -0.471203 -0.687412 -0.358267 0.603743 0.149546 -0.383021 0.131392 -0.058145 -0.525027 -0.137235 0.287795 0.181749 -0.123645 -0.303016 0.616011 0.082701 -0.095322 -0.425270 0.560497 -0.146106 -0.210118 -0.103335 0.364853 -0.146214 0.017433 0.618895 0.119953 -0.018311 0.186836 0.427400 0.200516 -0.021964 0.272844 0.035596 0.313084 -0.356658 0.697937 0.165913 -0.536486 -0.164136 -0.157473 -0.138021 -0.687217 0.142162 0.194631 -0.435900 -0.409123 -0.312582 -0.541681 0.311181 0.145266 0.404181 0.032940 0.083107
3043 -0.226494 -0.354348 -0.510569 0.334415 -0.992645 -0.489562 -0.178836 0.338870 -0.247989 -0.311051 1.390169 0.219833 -0.359202 0.543853 -0.036101 0.347202 -0.681670 -0.175452 0.079330 0.373432 -0.306516 0.067523 -0.108964 -0.571749 0.016876 -0.078654 1.382078 0.192816 -0.348225 0.883984 0.436195 0.128553 0.040591 -0.921341 -0.469546 -0.428017 -0.290347 0.395538 0.420963 0.370525 0.384056 0.527375 -0.486259 -0.159799 0.497676 -1.046720 0.278950 0.598581 0.803965 1.088634 0.903363 0.200707 -0.059568 -0.508724 0.202461 -0.228398 -0.055640 0.255572 0.054894 -0.736768 -0.426959 -0.101192 -0.110253 -0.060159 0.131927 -0.616815 -0.095192 -0.128779 0.118330 -0.687482 -0.221604 -0.643255 -0.280300 0.174545 -0.370548 0.224190 0.452867 1.268499 -0.193887 -0.187951 -0.622403 -0.375948 -0.157709 -0.679705 -0.226148 -0.313730 -0.534690 -0.073877 -0.053208 -0.196268 0.933077 -0.590423 0.266267 -0.212428 -0.878323 -0.214652 -0.098279 -0.267967 -0.163905 0.053625 -0.365186 0.241797 -0.077672 0.039302 -0.053586 0.402720 0.427776 -0.312982 -0.081615 0.413274 1.362530 -0.834859 0.498372 -0.522012 -0.532725 -0.194446 0.300428 -0.020185 0.591806 0.032510 -0.952859 -0.823622 -1.147699 -0.115168 -0.195337 0.385585 0.089223 -0.315424
1634 0.456657 0.740081 -0.968379 -0.053202 -0.625498 -0.211956 -0.619836 0.254517 0.333437 -0.181316 0.007047 -0.409631 -0.166947 0.518128 0.870505 -0.100929 0.165047 -0.325474 0.396492 -0.182120 -0.423306 0.263636 -0.331497 0.223403 -0.099283 0.151656 0.445684 -0.045297 -0.350801 0.021683 0.647991 -0.193022 -0.344657 -0.812990 -0.183553 0.089795 0.708497 -0.123973 -0.182154 -0.357399 0.629477 -0.182997 0.200032 0.575891 -0.715444 0.012954 0.260221 0.272340 -0.503097 0.428085 0.212796 0.635127 0.198030 0.128115 0.369406 0.088479 0.456853 -0.435517 0.006675 0.412877 -0.062363 -0.357942 -0.241416 0.074160 -0.181436 0.316232 0.197309 0.338356 0.221629 -0.489376 0.071126 0.101541 0.038937 0.274424 0.720897 -0.315959 -0.333193 -0.068299 0.065192 -0.494040 -0.007472 -0.466708 -0.352146 -0.161146 -0.162219 0.725973 -0.736025 -0.383215 0.459207 -0.987822 0.602464 -0.091908 0.310834 0.109647 -0.380324 0.042392 -0.017221 0.287603 -0.304565 0.359152 1.199751 -0.202973 -0.413259 0.053310 0.025799 0.202361 0.216353 -0.257379 -0.622401 0.266621 0.072218 0.178967 -0.262850 0.452817 -0.347162 -0.357503 -0.121453 0.054419 -0.056915 0.304092 -0.351751 0.408374 0.399246 0.334013 0.038435 0.087544 0.286451 -0.069607
2006 0.145368 0.132885 -0.783586 0.086001 -0.366369 0.420896 -0.250155 -0.029887 -0.058549 -0.056896 0.033761 -0.442288 -0.023703 -0.945026 -0.227877 0.583415 -0.309940 -0.150644 0.109671 -0.120118 0.447445 0.071478 -0.020443 0.054236 0.064250 -0.492818 -0.467909 0.080348 -0.410528 0.167628 -0.149100 -0.198163 0.111638 0.300583 -0.665292 -0.633646 -0.435037 -0.032436 1.222093 0.698756 -0.230831 -0.229268 0.354987 0.117975 0.006440 0.246985 -0.549447 0.668080 -0.224287 -0.475443 0.365877 -0.465649 0.421187 0.235833 0.198046 0.548924 0.253576 -0.342376 -0.004372 -0.271305 -0.697592 -0.685028 -0.427286 0.385155 0.351145 0.153443 -0.170325 -0.179900 0.409070 -0.471742 0.344657 -0.356061 0.425593 -0.196784 -0.283261 -0.952429 -0.109413 0.615461 0.020974 -0.703429 -0.033307 -0.014485 -0.205055 -0.799038 0.086750 -0.152338 0.139416 -0.696979 0.711416 -0.299850 -0.088408 -1.078241 0.092046 -0.080245 -0.169387 0.309472 0.300798 0.125224 0.410613 0.517756 0.459750 0.126413 -0.060413 -0.086112 0.424099 0.175216 0.449101 0.614351 0.424836 0.049859 0.513831 0.150590 0.327912 -0.130766 -0.142420 -0.097005 -0.893196 -0.196156 0.522964 0.557112 -0.162136 -0.058012 -0.375179 0.015286 0.090897 0.600387 0.097756 0.009378
810 -0.846205 -0.047543 -0.009423 0.250129 -0.745330 -0.180480 -0.173151 0.208319 -0.316093 -0.525317 0.893923 0.225812 -0.438523 -0.031873 1.017429 -0.268880 -0.377006 -0.432552 0.647847 0.292178 0.256384 -0.169348 -0.643455 0.157371 0.171334 -0.758824 -0.058185 0.233765 0.226086 0.900947 -0.597800 0.498105 -0.487260 0.015389 -0.430044 -0.013823 -0.214277 -0.219103 0.466667 -0.184725 0.695048 -0.060429 0.796561 -0.000765 -0.432110 -0.219468 -0.526726 0.716942 -0.280625 0.299253 0.415601 0.177767 -0.258465 -0.265698 0.094448 0.412947 -0.242553 0.565933 -0.470359 -0.663609 -0.091418 -0.022520 0.392551 0.220464 0.399414 -0.349003 0.011791 0.475392 -0.314687 0.088234 -0.805541 -0.233226 -0.106914 -0.240742 0.068317 -0.237001 -0.161807 0.440816 0.014887 0.197181 0.347770 0.213211 0.801275 0.318568 0.214058 -0.013534 -0.092392 -0.122327 0.190121 -0.803142 -0.142100 -0.534032 0.727066 -1.013624 -0.958533 0.369640 -0.081323 0.255401 0.374438 0.227466 0.194646 0.060418 -0.421810 0.075626 -0.126972 0.549012 0.383036 -0.718365 -0.108793 -0.489788 0.482084 -0.355278 -0.321973 0.238662 -0.223349 -0.234574 -0.200299 0.271827 -0.190622 -0.296455 0.254730 -0.045007 -0.179132 0.594702 -0.625840 -0.525442 -0.254602 -0.493558
855 -0.675490 0.132220 0.194631 -0.311871 -0.033290 -0.802596 -0.506666 0.618668 -0.158375 -0.826742 0.205663 -0.284216 -0.456199 0.035903 0.370574 -0.817269 -0.586893 -0.592104 -0.437413 -0.058927 0.393491 0.052569 -0.220782 0.356675 0.327953 0.439394 0.014749 0.044528 0.977415 0.365034 0.591618 0.631630 0.984845 -0.263619 0.026109 -0.082574 0.138891 0.133211 0.253664 0.633139 0.388226 -0.104164 0.315947 0.225684 0.053401 -0.083387 -0.079908 0.263995 -0.056392 1.049127 0.578633 -0.360409 0.784003 0.595149 -0.540428 0.154127 0.311415 0.209479 0.190971 -0.199357 0.095083 -0.036428 -0.009447 0.201281 0.701036 0.247524 0.422924 -0.959102 -0.424041 -0.236422 0.116172 0.142501 0.083065 -0.153514 -0.215873 0.358169 -0.102048 0.314976 -0.282217 0.103084 0.593294 0.550679 -0.314460 0.285034 0.896768 -0.087137 -0.256274 -0.240746 0.522067 -0.192883 0.193193 -0.134897 0.388631 0.263812 -0.439746 -0.221249 -0.031322 0.883159 -0.339588 0.341652 0.854430 0.015784 0.065705 -0.424914 -0.421833 0.297885 -0.394343 -0.113961 0.006499 -0.068722 0.322607 0.251807 -0.035885 -0.826236 -0.130020 -0.407029 -0.561549 -0.389822 -0.149006 -0.359124 0.012137 -0.053775 0.027892 -0.257289 -0.409814 0.469812 -0.175591 -0.499768
769 -0.236852 0.029861 -0.297808 0.657431 -0.055100 0.090667 -0.534959 -0.232954 -0.351125 0.221274 0.070900 -0.197021 0.015181 -0.103585 0.008317 0.399051 -0.616069 -0.187229 0.018055 0.877174 0.002983 -0.164063 0.195710 0.387232 -0.206285 0.194672 0.229738 -0.372648 0.036860 0.321514 -0.023236 -0.175199 -0.223162 -0.805101 -0.433316 0.059633 -0.019955 -0.082519 -0.058794 0.016099 0.169824 -0.458092 0.078733 0.507029 -0.222857 0.420321 -0.377707 0.274115 0.011905 0.242724 -0.161202 0.543386 0.358695 0.182594 -0.074603 -0.457957 0.155254 0.302375 -0.065272 0.279826 0.042689 0.146213 0.503786 -0.057769 -0.012290 0.160563 -0.261806 0.676626 0.166112 -0.171830 -0.213199 -0.166663 0.224536 0.285856 0.425504 0.078806 -0.690735 0.587625 0.287420 -0.055704 0.061609 -0.406235 -0.226577 -0.149296 -0.050228 0.487620 0.011242 0.081666 0.843993 0.157548 0.130180 0.316103 0.414122 0.302379 -0.287104 -0.025725 0.050698 -0.073992 -0.200459 0.072034 0.313926 -0.314556 -0.224645 -0.222760 0.324644 0.187427 0.034657 -0.600951 -0.574793 0.111563 0.692658 0.183904 -0.148287 -0.516079 -0.150256 -0.148928 -0.163668 0.697753 -0.057465 0.305253 -0.290585 0.641882 0.312540 -0.498627 -0.175584 -0.177376 0.045567 0.006057
608 0.412205 -0.302268 0.348801 0.345294 -0.611241 0.136920 -0.012920 0.086026 0.719666 -0.007866 -0.199787 -0.250009 -0.019497 -0.006130 0.125913 -0.211671 -0.065760 -0.303756 -0.265598 0.117215 -0.182637 0.661832 0.352751 0.600196 0.479400 0.233311 0.252177 -0.207956 0.767464 0.234658 -0.064388 0.432802 0.338803 -0.535972 -0.299424 -0.292209 -0.052462 -0.406922 0.231448 -0.138321 -0.004335 0.172014 -0.530081 0.936140 -0.003279 -0.135910 -0.396921 0.089468 -0.015404 0.447768 -0.191080 0.298483 -0.102115 0.284773 0.292449 -0.313905 0.310926 -0.077437 -0.154110 -0.164373 0.466451 0.084712 -0.338624 0.597098 -0.043819 -0.152607 0.243838 -0.088706 -0.172357 -0.534746 0.052164 0.206931 0.028413 0.104186 -0.140837 -0.145059 -0.653961 0.351369 -0.404427 -0.054705 -0.164950 -0.040397 -0.401438 -0.314201 -0.433632 -0.725797 0.214435 0.272181 0.693004 -0.229449 0.163243 -0.306238 -0.130444 -0.737299 -0.414765 -0.057699 0.006889 -0.019178 0.244955 0.058655 0.061525 0.313196 0.050622 -0.368517 0.342622 0.081787 0.171942 0.265063 -0.155608 0.014522 0.023201 -0.148968 0.157982 0.253907 0.382759 0.265383 -0.228407 0.498642 -0.896430 -0.276070 -0.361941 0.636257 -0.636568 -0.722846 -0.064000 0.140102 0.245080 -0.446270
2137 0.160865 0.408654 -0.399162 0.984767 -0.804044 -0.169721 -0.347227 -0.679546 0.174808 -0.972390 1.003739 -0.517361 -0.791988 -0.200248 0.041465 0.069007 0.293368 -0.078150 -0.112494 0.078151 0.736717 0.832806 0.740269 -0.293749 0.559121 0.735529 -0.193484 0.151283 0.338933 0.172831 0.256708 -0.176254 0.785741 -0.674817 0.320159 -0.585614 -0.032239 -0.092910 0.732317 -1.413492 -0.172523 0.271842 -0.305994 -0.443348 -0.617191 0.266875 -0.404332 -0.175524 0.085979 0.322796 0.471987 -0.965070 0.922765 0.311611 -0.232598 -0.195240 0.732792 0.602727 -0.780506 -0.144866 -0.705343 0.014033 0.572925 0.135947 -0.041444 -1.584439 -0.678213 0.489465 -0.032792 -0.797516 0.027267 0.736903 0.187547 -0.344260 0.661110 -1.246142 0.088674 0.756208 0.099786 -0.150168 0.213716 -0.327482 -0.889524 0.333986 -1.011118 -0.717847 -1.230685 0.106208 0.272232 -0.329448 0.162141 -0.450367 0.127683 -1.539996 -0.679406 0.038932 0.047739 -0.159082 -0.665147 0.120785 0.827246 0.973460 -1.236729 -0.076122 0.247740 0.643373 -0.319711 -0.503082 0.129101 0.626947 1.220747 0.118727 -0.850831 -0.328224 0.356417 0.378657 -0.233262 0.181888 -0.083057 0.636733 -0.213793 -0.629619 -0.293370 -0.103070 -0.181609 0.210825 0.103379 -0.535847
916 0.254306 -0.128580 -0.265198 -0.248207 0.031292 -0.534950 0.304879 -0.990168 0.268860 -0.327819 0.158184 0.142583 0.108939 -0.202935 0.175437 0.345360 -0.115548 -0.208167 0.018595 -0.208917 0.355204 0.218518 -0.100839 -0.423070 0.518023 -0.048890 0.005725 -0.340082 0.185467 0.343026 0.450589 0.242649 -0.206140 -0.076011 0.126986 -0.012173 0.253571 0.282950 1.042170 0.337477 -0.316612 -0.344359 0.195621 0.847652 0.186345 -0.299827 -0.494135 0.013454 -0.757987 0.628225 0.290663 -0.339338 -0.278033 -0.172364 -0.309190 -0.275803 -0.078919 0.209303 -0.629396 0.136504 -0.265259 0.417307 -0.933275 -0.010135 0.057420 0.121178 -0.067525 -0.188482 0.142197 -0.213485 0.034759 0.418338 0.352189 0.007291 0.639612 0.133143 0.095852 0.225371 -0.025872 0.268791 0.700505 -0.264453 -0.528717 0.016252 0.897565 -0.278059 0.016424 0.266583 0.738208 -0.387112 0.497537 -0.271054 0.467046 -0.948994 -0.467640 0.268526 0.233886 0.499061 -0.054253 -0.542655 0.244921 0.139826 -0.658040 0.153084 0.521445 -0.188257 0.025263 -0.389647 0.034880 0.123400 0.667690 0.132986 -0.559122 0.041639 0.013242 0.523941 -0.669566 -0.148390 0.252505 0.420539 0.033288 0.136188 -0.201082 -0.154631 -0.985507 0.411554 -0.046739 -0.005364
51 -0.004564 -0.721248 0.314209 0.499037 -0.823453 0.124744 -0.161436 -0.104364 0.448654 0.032317 -0.061343 -0.469016 -0.179070 0.043850 0.260690 -0.150614 0.031746 0.124407 0.007613 -0.034823 -0.100616 0.016726 0.503421 0.527347 -0.431833 0.293474 0.003304 -0.218535 0.305438 0.548626 0.400411 -0.265021 -0.034901 -0.431225 -0.205585 0.055623 0.011759 -0.315690 0.410099 0.110769 0.386946 0.194466 -0.250299 0.584509 0.258598 0.190229 -0.087908 0.334772 0.141023 -0.115001 -0.145449 -0.232034 0.083293 0.355890 0.190263 -0.221673 0.073577 -0.405120 0.092138 -0.016470 0.471092 0.291617 -0.251795 0.521090 -0.159662 -0.236694 0.035271 0.039096 0.216527 0.206477 0.488702 0.053445 0.140386 0.320282 0.022641 -0.328975 -0.446005 -0.166470 -0.024987 -0.244615 0.229248 -0.244400 -0.470095 -0.202224 -0.468043 -0.368884 0.006621 0.353185 0.421504 -0.034138 0.474304 -0.126587 0.456077 -0.316893 0.093094 -0.019358 -0.276941 0.149110 0.254561 0.213827 0.321606 0.341904 0.240137 -0.221891 0.148701 0.373592 -0.227311 -0.162522 -0.583902 0.031320 0.341639 0.250767 -0.278020 0.206643 0.499237 0.035210 -0.258609 0.352646 -0.308736 -0.226359 -0.373990 0.278660 -0.162868 -0.270449 -0.130492 -0.097057 -0.385164 -0.214601
